<?xml version="1.0"?>
<MethodSetup Method="DL::DNN_CPU">
  <GeneralInfo>
    <Info name="TMVA Release" value="4.2.1 [262657]"/>
    <Info name="ROOT Release" value="6.26/10 [399882]"/>
    <Info name="Creator" value="arthur"/>
    <Info name="Date" value="Tue Feb 14 10:20:37 2023"/>
    <Info name="Host" value="Darwin Mac-1668701082454.local 20.6.0 Darwin Kernel Version 20.6.0: Thu Sep 29 20:15:11 PDT 2022; root:xnu-7195.141.42~1/RELEASE_X86_64 x86_64"/>
    <Info name="Dir" value="/Users/arthur/Documents/private/coding/root/tmva"/>
    <Info name="Training events" value="2000"/>
    <Info name="TrainingTime" value="1.52155185e+00"/>
    <Info name="AnalysisType" value="Classification"/>
  </GeneralInfo>
  <Options>
    <Option name="V" modified="Yes">True</Option>
    <Option name="VerbosityLevel" modified="No">Verbose</Option>
    <Option name="VarTransform" modified="Yes">N</Option>
    <Option name="H" modified="Yes">False</Option>
    <Option name="CreateMVAPdfs" modified="No">False</Option>
    <Option name="IgnoreNegWeightsInTraining" modified="No">False</Option>
    <Option name="InputLayout" modified="No">0|0|0</Option>
    <Option name="BatchLayout" modified="No">0|0|0</Option>
    <Option name="Layout" modified="Yes">TANH|128,TANH|128,TANH|128,LINEAR</Option>
    <Option name="ErrorStrategy" modified="Yes">CROSSENTROPY</Option>
    <Option name="WeightInitialization" modified="Yes">XAVIERUNIFORM</Option>
    <Option name="RandomSeed" modified="No">0</Option>
    <Option name="ValidationSize" modified="No">20%</Option>
    <Option name="Architecture" modified="Yes">CPU</Option>
    <Option name="TrainingStrategy" modified="Yes">LearningRate=1e-2,Momentum=0.9,ConvergenceSteps=20,BatchSize=100,TestRepetitions=1,WeightDecay=1e-4,Regularization=None,DropConfig=0.0+0.5+0.5+0.5</Option>
  </Options>
  <Variables NVar="4">
    <Variable VarIndex="0" Expression="var1+var2" Label="myvar1" Title="myvar1" Unit="" Internal="myvar1" Type="F" Min="-9.31873512e+00" Max="7.53042316e+00"/>
    <Variable VarIndex="1" Expression="var1-var2" Label="myvar2" Title="Expression 2" Unit="" Internal="myvar2" Type="F" Min="-3.70671988e+00" Max="4.02912045e+00"/>
    <Variable VarIndex="2" Expression="var3" Label="var3" Title="Variable 3" Unit="units" Internal="var3" Type="F" Min="-5.05078554e+00" Max="4.33005810e+00"/>
    <Variable VarIndex="3" Expression="var4" Label="var4" Title="Variable 4" Unit="units" Internal="var4" Type="F" Min="-5.82962179e+00" Max="5.03067923e+00"/>
  </Variables>
  <Spectators NSpec="2">
    <Spectator SpecIndex="0" Expression="var1*2" Label="spec1" Title="Spectator 1" Unit="units" Internal="spec1" Type="F" Min="-9.14904976e+00" Max="9.52782059e+00"/>
    <Spectator SpecIndex="1" Expression="var1*3" Label="spec2" Title="Spectator 2" Unit="units" Internal="spec2" Type="F" Min="-1.37235746e+01" Max="1.42917309e+01"/>
  </Spectators>
  <Classes NClass="2">
    <Class Name="Signal" Index="0"/>
    <Class Name="Background" Index="1"/>
  </Classes>
  <Transformations NTransformations="1">
    <Transform Name="Normalize">
      <Selection>
        <Input NInputs="4">
          <Input Type="Variable" Label="myvar1" Expression="var1+var2"/>
          <Input Type="Variable" Label="myvar2" Expression="var1-var2"/>
          <Input Type="Variable" Label="var3" Expression="var3"/>
          <Input Type="Variable" Label="var4" Expression="var4"/>
        </Input>
        <Output NOutputs="4">
          <Output Type="Variable" Label="myvar1" Expression="var1+var2"/>
          <Output Type="Variable" Label="myvar2" Expression="var1-var2"/>
          <Output Type="Variable" Label="var3" Expression="var3"/>
          <Output Type="Variable" Label="var4" Expression="var4"/>
        </Output>
      </Selection>
      <Class ClassIndex="0">
        <Ranges>
          <Range Index="0" Min="-5.1623420715332031e+00" Max="5.5480084419250488e+00"/>
          <Range Index="1" Min="-3.7067198753356934e+00" Max="4.0291204452514648e+00"/>
          <Range Index="2" Min="-2.6928036212921143e+00" Max="3.8698983192443848e+00"/>
          <Range Index="3" Min="-2.9492409229278564e+00" Max="4.2669730186462402e+00"/>
        </Ranges>
      </Class>
      <Class ClassIndex="1">
        <Ranges>
          <Range Index="0" Min="-9.3187351226806641e+00" Max="7.5304231643676758e+00"/>
          <Range Index="1" Min="-3.4552407264709473e+00" Max="3.9897418022155762e+00"/>
          <Range Index="2" Min="-5.0507855415344238e+00" Max="4.3300580978393555e+00"/>
          <Range Index="3" Min="-5.8296217918395996e+00" Max="5.0306792259216309e+00"/>
        </Ranges>
      </Class>
      <Class ClassIndex="2">
        <Ranges>
          <Range Index="0" Min="-9.3187351226806641e+00" Max="7.5304231643676758e+00"/>
          <Range Index="1" Min="-3.7067198753356934e+00" Max="4.0291204452514648e+00"/>
          <Range Index="2" Min="-5.0507855415344238e+00" Max="4.3300580978393555e+00"/>
          <Range Index="3" Min="-5.8296217918395996e+00" Max="5.0306792259216309e+00"/>
        </Ranges>
      </Class>
    </Transform>
  </Transformations>
  <MVAPdfs/>
  <Weights NetDepth="4" InputDepth="1" InputHeight="1" InputWidth="4" BatchSize="1" BatchDepth="1" BatchHeight="100" BatchWidth="4" LossFunction="C" Initialization="F" Regularization="0" OutputFunction="S" WeightDecay="9.9999997473787516e-05">
    <DenseLayer Width="128" ActivationFunction="3">
      <Weights Rows="128" Columns="4">
        1.398299e-01  7.376599e-03  1.702779e-01  -3.124531e-01  2.723504e-01  2.542501e-02  -7.772452e-02  -1.913957e-01  1.481809e-01  8.452313e-02  5.109212e-02  -2.473216e-01  -1.352575e-01  2.960118e-03  6.093288e-02  1.033943e-01  7.044750e-02  2.135242e-02  2.122596e-03  -9.343915e-02  8.031975e-02  9.165369e-03  6.523848e-02  -1.186226e-01  -1.747384e-01  -2.660288e-02  -1.184141e-02  2.788564e-01  2.477448e-01  5.154166e-02  5.550173e-02  -4.278593e-01  -3.214284e-01  9.292535e-03  5.363816e-02  3.053105e-01  -5.098874e-02  3.401156e-02  -3.017481e-02  2.936654e-01  -2.671857e-01  -1.211627e-02  -5.376108e-02  3.432403e-01  9.418367e-02  -3.872300e-02  6.971685e-02  -1.676975e-01  -1.659758e-01  -8.560017e-02  -1.480715e-01  3.394700e-01  1.258781e-01  4.052320e-02  4.063666e-02  -1.615327e-01  8.573502e-02  5.608424e-02  5.927298e-02  -2.490852e-01  2.075063e-01  1.669334e-01  1.167755e-01  -2.560883e-01  -1.729933e-01  4.329199e-02  -8.535561e-02  1.359569e-01  -2.212306e-01  1.518668e-02  2.947776e-02  3.059360e-01  -3.023915e-01  -1.616083e-02  5.315221e-02  2.425376e-01  -1.600566e-01  2.097238e-02  5.682814e-02  1.328310e-01  3.780541e-02  6.200534e-02  2.862579e-01  -3.728235e-01  -2.420935e-01  -1.920187e-02  -1.410132e-02  2.885713e-01  -2.551871e-01  -4.797641e-03  -6.932079e-02  3.766846e-01  9.633962e-02  -1.799594e-02  -8.455411e-02  -6.455548e-02  2.067586e-01  -7.511887e-04  2.230040e-03  -2.289856e-01  2.117292e-02  -7.983198e-03  4.895420e-02  -1.146028e-01  -2.231590e-01  -7.571937e-02  -8.954623e-02  3.824013e-01  2.818145e-01  -6.563932e-03  -3.706735e-02  -2.705497e-01  1.675551e-01  -9.414883e-02  1.453178e-01  -3.612409e-01  -2.466496e-01  -7.376947e-03  -1.065166e-01  3.854647e-01  3.274699e-02  1.087250e-02  2.588377e-01  -3.123301e-01  6.992730e-02  4.691483e-02  2.538343e-01  -3.840090e-01  3.285449e-01  -8.736085e-03  3.293331e-02  -3.982902e-01  -3.175841e-01  1.011629e-01  -7.309274e-02  3.934242e-01  -1.887181e-01  -3.515223e-02  -1.276730e-01  3.928849e-01  2.384150e-01  8.417252e-02  5.288763e-02  -4.355108e-01  2.911735e-01  3.540597e-02  9.255511e-02  -3.910058e-01  -2.695070e-01  -8.077085e-02  -3.505266e-02  2.646397e-01  -1.833927e-01  6.790431e-03  -3.572569e-02  1.970036e-01  3.590564e-01  3.088661e-02  -8.414410e-02  -3.133033e-01  1.893708e-01  -8.517942e-02  2.059516e-01  -3.720554e-01  -2.954321e-01  -1.090396e-01  4.048792e-02  2.531417e-01  -9.039840e-02  5.678674e-02  -2.822333e-01  3.502218e-01  1.188960e-01  -5.742113e-02  -3.543580e-02  -1.690486e-01  -5.974389e-02  -5.117047e-03  -2.139307e-01  2.612771e-01  8.176886e-02  4.044488e-02  -2.123220e-02  -2.187987e-01  -3.281373e-01  -7.183346e-03  7.843760e-03  3.724903e-01  -1.665297e-01  2.422536e-02  -1.569803e-03  1.800646e-01  -3.401102e-01  3.632320e-02  3.479832e-02  3.175361e-01  1.109199e-01  1.381424e-01  1.363927e-01  -3.074112e-01  2.399027e-01  -1.825164e-02  1.219751e-01  -3.879584e-01  1.018589e-01  1.598517e-02  1.416734e-01  -2.176429e-01  6.974214e-02  4.292937e-02  8.661418e-02  -1.875521e-01  -2.708538e-01  7.286139e-03  1.024702e-01  2.177735e-01  -3.001950e-01  -1.280726e-01  1.262435e-01  1.695967e-01  1.586986e-01  -3.083100e-02  -3.650060e-02  -1.018147e-01  7.674009e-02  -6.104395e-03  9.547723e-02  -2.651790e-01  -7.993212e-02  6.011717e-02  2.217592e-01  -1.384674e-01  1.162765e-02  1.750552e-02  1.170952e-01  -2.136210e-01  -2.407710e-02  6.191675e-03  6.176822e-02  -3.577453e-02  -4.187939e-01  1.725691e-02  8.598483e-02  3.679387e-01  2.320383e-01  7.367258e-02  -1.265843e-01  -8.269977e-02  -1.551330e-01  -4.068029e-02  -1.270967e-01  3.454575e-01  1.778680e-01  -1.147821e-02  1.115650e-01  -2.462012e-01  -3.022422e-01  9.171395e-03  -1.474975e-01  4.503203e-01  -1.069109e-01  -2.051933e-02  -5.450628e-02  2.299897e-01  -1.419470e-01  1.346610e-02  -1.054937e-01  2.958059e-01  -3.598950e-01  -8.474524e-02  1.017669e-01  2.959161e-01  6.152726e-02  3.739078e-02  -6.341531e-02  -1.853183e-01  2.113679e-02  7.007886e-02  1.107072e-01  -1.458160e-02  1.068875e-01  1.612879e-02  1.667916e-01  -2.827803e-01  2.481340e-01  -1.283449e-02  1.438821e-01  -3.773416e-01  4.315726e-02  -1.224330e-02  1.321544e-01  -1.755243e-01  2.315551e-01  6.375803e-02  6.146297e-02  -3.615139e-01  -6.052375e-02  2.745693e-03  1.315805e-01  -1.014602e-01  -2.123668e-01  -8.289533e-03  -2.646247e-02  3.577897e-01  -4.699760e-02  -2.366192e-02  -1.946880e-01  1.947742e-01  2.108540e-01  -2.763491e-02  -4.275858e-02  -9.082184e-02  2.954094e-01  7.688761e-02  1.538460e-01  -4.326264e-01  -2.106663e-01  -6.191310e-02  3.024692e-02  2.226763e-01  -2.745680e-01  -4.232017e-02  -8.071122e-02  3.956059e-01  1.299846e-01  -6.940225e-03  -9.292759e-02  -6.431466e-02  -4.763435e-02  -3.962090e-02  -8.744519e-02  5.615548e-02  9.327439e-02  -1.059832e-01  -6.961511e-02  -4.733201e-02  -3.324519e-01  -1.214303e-02  3.894889e-02  3.757272e-01  3.129581e-01  3.334546e-02  9.648800e-03  -4.455504e-01  3.095993e-01  8.104786e-02  1.091199e-01  -4.196293e-01  -1.669593e-01  -1.150582e-01  -1.422315e-01  3.073841e-01  -2.730546e-01  8.204648e-02  -2.103229e-01  4.614627e-01  -7.182625e-02  -1.248260e-02  2.043047e-02  6.617777e-02  -6.755410e-02  -7.463869e-02  -2.939434e-01  3.576280e-01  -1.224238e-01  -2.393473e-03  4.438386e-02  2.641924e-01  2.103775e-01  -3.196472e-02  1.159117e-01  -4.004044e-01  -1.633560e-01  -2.432642e-02  -6.355656e-02  2.214047e-01  2.628175e-01  -8.552948e-02  -2.753672e-02  -3.002981e-01  2.624874e-01  2.379852e-02  8.518391e-02  -4.428700e-01  2.743602e-01  8.381694e-03  2.794529e-04  -2.982969e-01  -2.760561e-01  -8.326306e-02  2.474388e-02  3.876697e-01  -1.750181e-01  -5.768386e-02  -1.149100e-01  2.987383e-01  1.526997e-01  1.879395e-02  9.930696e-02  -2.545020e-01  -3.962903e-01  -2.571696e-02  2.936541e-02  3.999307e-01  -1.145878e-01  8.305553e-02  -2.023895e-01  2.308790e-01  -1.667209e-01  5.699140e-03  -2.361037e-01  4.409418e-01  -2.862019e-01  -5.227062e-02  -8.650778e-03  3.507523e-01  3.371493e-01  1.270403e-01  -4.613351e-02  -4.505642e-01  -1.724063e-01  5.875454e-02  3.197537e-02  3.037497e-01  3.266017e-01  -3.324753e-02  -7.429292e-02  -4.216865e-01  1.985519e-01  4.936869e-02  -4.166311e-02  -2.820922e-01  4.482957e-03  7.717618e-03  3.563226e-02  4.047870e-02  3.128314e-01  -4.536571e-02  1.900345e-02  -3.542270e-01  -2.571689e-01  -1.131874e-01  1.129930e-01  3.403009e-01  2.777440e-01  -6.432281e-03  1.838639e-02  -3.378781e-01  1.546237e-01  -2.619014e-02  1.286392e-01  -3.165575e-01  1.111237e-01  8.786383e-02  2.667573e-01  -4.629256e-01  2.413041e-01  -5.843253e-02  1.547831e-01  -4.378167e-01  2.747874e-01  1.496559e-01  1.236700e-01  -3.708485e-01  2.135858e-01  -2.287753e-02  1.418355e-01  -4.204129e-01  -1.182001e-01  -9.980381e-03  6.211093e-02  4.076964e-02  2.401599e-01  -6.187298e-02  -5.843899e-03  -2.395726e-01  -2.642986e-01  1.057206e-01  -1.037987e-01  3.261708e-01  -2.735716e-01  1.074485e-01  -1.002112e-01  3.862415e-01  1.545652e-01  3.832782e-02  1.508238e-01  -3.347684e-01  1.524254e-01  -8.266726e-02  1.654015e-01  -2.681261e-01  -2.410371e-01  3.606219e-03  -1.506956e-01  4.225010e-01  -2.664399e-01  -5.591365e-02  -1.462550e-01  3.869410e-01  -1.271720e-02  -1.188435e-02  -1.164911e-01  1.320938e-01  3.444192e-01  2.191748e-02  3.321650e-02  -4.440561e-01  2.301967e-01  4.282689e-02  1.285643e-01  -3.749928e-01  
      </Weights>
      <Biases Rows="128" Columns="1">
        3.742580e-03  -7.396809e-03  2.617900e-02  -4.277485e-03  1.207115e-02  2.013732e-02  -2.385965e-02  2.310682e-02  -9.552683e-03  -1.821279e-02  -4.020638e-03  2.189873e-03  -2.227503e-02  2.035247e-03  2.632737e-02  -1.009726e-02  1.605696e-02  -1.969388e-02  4.214787e-03  -6.022661e-03  2.784267e-02  -9.454411e-03  -2.757349e-03  8.709755e-03  -2.249781e-03  5.982776e-03  -1.741334e-02  2.644583e-03  6.507465e-03  -2.567224e-03  2.096289e-02  2.436570e-02  7.896402e-03  1.671839e-02  -1.583880e-02  2.143971e-02  6.766456e-03  -5.408713e-03  9.615283e-03  4.311759e-03  -2.245451e-02  -2.563522e-02  1.467089e-02  5.784032e-03  -5.841022e-03  2.328601e-02  -1.433388e-02  4.502413e-03  1.529029e-02  1.824114e-02  6.413939e-03  1.029765e-03  7.193359e-03  -9.868672e-03  -9.537682e-03  -1.580630e-02  2.557387e-02  9.832061e-03  2.163212e-02  9.171113e-03  -8.486646e-03  -2.386512e-03  -2.019208e-02  -8.993190e-04  3.599478e-03  -2.151751e-02  -9.100452e-03  -1.014676e-02  3.415790e-02  -1.218276e-02  1.754537e-02  -2.848205e-03  5.575117e-03  1.862439e-02  3.785510e-03  -2.160341e-02  8.707550e-03  -2.158231e-02  1.770391e-02  -1.468176e-02  -7.789450e-03  -7.015280e-03  8.007544e-03  6.209620e-03  -1.125767e-02  1.799576e-02  3.959747e-03  -1.605756e-02  6.100495e-03  -1.718665e-03  -1.443165e-02  -2.677583e-02  1.713349e-03  -3.439746e-03  -3.878009e-04  8.200893e-03  -2.380149e-03  -2.095274e-02  -1.392558e-02  1.045544e-02  -9.656057e-03  2.242309e-02  -1.356930e-02  -1.685280e-02  2.199324e-02  -9.788647e-03  1.086743e-02  3.028901e-02  -7.673698e-03  -1.046647e-02  -2.132555e-02  4.925642e-03  6.542228e-03  2.790036e-02  1.586970e-03  1.141742e-02  1.044655e-02  3.307531e-03  -1.317776e-02  2.041837e-02  1.165186e-02  2.076036e-02  -2.007519e-02  -1.145136e-02  -1.662661e-02  -7.074293e-03  1.541439e-02  1.191357e-02  
      </Biases>
    </DenseLayer>
    <DenseLayer Width="128" ActivationFunction="3">
      <Weights Rows="128" Columns="128">
        2.378283e-02  -5.659349e-02  -8.408222e-02  6.422111e-03  -6.640185e-02  7.604945e-02  -3.893685e-02  1.608342e-02  2.532338e-02  -1.667318e-01  -4.367800e-02  -2.225535e-01  8.493392e-02  -7.279683e-02  1.601168e-01  -2.905611e-01  3.189129e-02  -2.286945e-01  1.241925e-01  -1.038817e-01  -1.084894e-01  2.038403e-01  -1.749004e-01  -1.535169e-02  -1.092921e-01  1.459866e-03  9.120657e-02  -7.455300e-02  -2.770669e-02  -3.570410e-01  2.289644e-01  8.272280e-02  3.057041e-01  -2.564180e-01  -2.140664e-01  2.447174e-01  2.198589e-01  -5.589878e-02  4.189877e-02  2.234529e-01  1.456509e-01  -6.018289e-02  -1.328310e-01  -8.014761e-03  2.601918e-02  -8.006666e-02  4.222137e-02  4.421095e-02  -1.265861e-01  -2.703680e-02  8.533557e-02  -1.841703e-01  2.076733e-01  -1.511982e-01  1.211758e-01  1.422929e-02  9.644487e-02  -8.078488e-02  -3.067816e-02  1.488461e-01  -3.909162e-02  -2.334476e-01  -5.282715e-02  -6.376011e-02  -2.723583e-01  -7.541835e-02  -9.808861e-03  -2.306665e-02  6.260681e-02  -4.025382e-03  8.905525e-03  6.418432e-02  8.693188e-02  -1.822378e-02  -2.387532e-02  -1.006397e-01  9.169407e-02  1.375701e-02  3.160843e-01  2.505931e-02  3.490808e-02  7.751737e-02  -8.066674e-02  2.267916e-01  -2.029142e-01  1.639078e-01  7.501432e-02  1.145940e-01  -3.359673e-01  1.100760e-02  -7.639047e-02  -2.405312e-01  4.017389e-03  9.396984e-02  -3.190648e-02  1.261653e-01  8.950451e-02  -1.417146e-01  -6.644886e-02  4.762294e-02  -1.235994e-01  1.705157e-01  -2.114739e-01  -7.199299e-02  3.540308e-02  6.190689e-02  1.683220e-02  1.834019e-01  -9.707578e-02  1.074353e-01  -5.723233e-02  -8.025613e-02  6.097288e-02  1.426496e-01  2.361584e-01  -6.188122e-03  -1.410397e-02  1.749505e-01  8.016379e-02  9.332071e-02  -4.513383e-02  7.483996e-02  5.028662e-03  -2.110005e-01  -1.869379e-01  -1.768932e-01  2.332597e-01  2.213211e-02  2.943902e-02  -5.946479e-02  1.070204e-02  1.909247e-01  1.354523e-01  -1.253332e-02  9.892673e-02  -2.724374e-02  -7.339717e-02  -2.967034e-02  -8.906987e-02  -8.590808e-02  1.559045e-01  -8.217695e-02  1.809640e-02  -2.639944e-02  3.381757e-02  1.026726e-02  9.198356e-02  -8.750223e-03  2.236643e-03  7.160795e-02  7.746383e-02  8.660317e-02  -5.658395e-02  1.154163e-02  -3.867613e-02  8.030084e-05  1.630037e-01  -5.714655e-02  2.957311e-03  1.785648e-01  1.226986e-01  1.345441e-01  1.488165e-01  1.031020e-01  9.240581e-02  5.566851e-02  -4.731307e-02  1.167725e-01  -2.145033e-01  -9.067280e-02  5.307984e-02  3.059043e-02  1.674681e-02  -1.275724e-01  -6.429601e-02  1.070003e-01  1.604908e-01  9.917922e-02  1.514268e-01  8.920174e-02  -5.679462e-02  -6.535974e-04  1.297743e-01  2.342034e-02  6.715424e-02  1.697329e-02  4.587130e-05  -1.057568e-01  5.985469e-02  -1.663050e-02  -1.495210e-01  2.307930e-01  4.661377e-02  5.949723e-02  -5.490098e-02  -1.567316e-01  7.701390e-02  2.264928e-02  -1.213976e-01  -3.911652e-03  4.821842e-02  -2.343293e-02  8.050447e-02  -9.857586e-02  1.282036e-01  8.271734e-02  -7.442933e-02  -6.876768e-02  7.923615e-02  1.327083e-01  -1.745724e-02  1.131284e-01  -6.926710e-02  1.251358e-01  7.333463e-02  1.615893e-01  -9.956071e-02  1.299477e-01  5.882307e-03  7.730401e-02  1.046068e-01  -1.403054e-01  9.259405e-02  -4.720952e-02  -5.934163e-02  -2.071902e-02  -3.660711e-03  1.360645e-01  -4.497859e-03  8.835693e-02  6.717142e-03  -1.206005e-01  3.471531e-02  -4.023182e-02  -9.268617e-02  2.549524e-02  1.585556e-01  1.000648e-01  -6.999205e-02  -1.205108e-02  -2.840001e-02  -2.621716e-02  2.088343e-02  -1.660513e-02  7.391842e-02  -7.579900e-02  1.007808e-01  2.239448e-02  1.749923e-01  -5.825895e-02  1.959761e-01  -8.115761e-02  -6.233580e-02  1.316936e-01  6.076784e-02  -1.320530e-01  1.808523e-01  1.639776e-01  -4.868229e-02  1.362259e-01  6.329572e-02  -6.640282e-03  -1.399189e-01  1.278892e-02  -1.508962e-01  1.178266e-02  -6.167122e-02  6.889256e-02  1.037692e-01  -1.148796e-01  -2.918962e-03  -2.217201e-02  -9.179989e-02  -9.733803e-02  7.603398e-02  -1.431241e-01  -9.002031e-02  -1.791292e-01  6.578662e-03  5.646542e-02  -6.148273e-02  1.611014e-01  -2.031421e-02  1.357544e-01  2.588426e-02  -2.170592e-01  6.795927e-02  5.045786e-02  1.600958e-01  -1.328152e-01  -2.038920e-01  4.902994e-02  -6.010559e-02  -2.045192e-01  3.049051e-02  -2.175198e-02  -1.420558e-02  -9.192268e-03  7.890601e-02  2.900705e-02  -9.658337e-02  -1.343024e-01  6.377944e-03  -5.638907e-02  -2.190798e-01  1.777479e-02  -4.645983e-03  7.377170e-03  -8.814737e-02  9.381130e-02  1.101527e-02  5.207104e-02  8.348970e-02  -9.974303e-02  5.010762e-02  1.267144e-01  4.246425e-02  1.610694e-01  -1.444998e-01  -3.968131e-02  -9.214315e-02  -1.540246e-02  -1.299905e-01  -5.894729e-02  -7.469809e-03  9.652855e-03  1.483302e-01  4.348612e-02  1.669679e-02  1.673841e-01  1.400262e-01  8.233605e-02  -6.181441e-02  1.636017e-01  3.013204e-01  -1.024099e-01  -3.059235e-01  1.423159e-01  7.381389e-02  1.304279e-01  -2.270000e-01  -9.439859e-03  1.269715e-01  -1.420174e-01  1.502484e-02  1.365106e-01  -8.010266e-02  1.406490e-01  2.974367e-01  2.849656e-02  1.217613e-01  2.068480e-01  1.394640e-01  -6.048366e-02  -1.390205e-01  1.408974e-01  -1.658508e-01  -1.261389e-03  -2.012489e-01  7.070309e-02  6.168295e-02  -6.126610e-02  2.454949e-01  1.098700e-01  1.312566e-01  1.488436e-01  1.145985e-02  1.369107e-01  6.864964e-02  8.242968e-02  3.147694e-01  2.034303e-01  1.917658e-01  7.741305e-04  -1.133175e-01  4.093986e-03  -1.863817e-01  -1.127908e-01  -2.387879e-02  -2.829395e-01  -3.892111e-02  -7.620074e-02  3.364206e-01  1.912915e-01  -4.291406e-02  8.312549e-02  8.679246e-02  -1.731731e-01  2.480913e-02  -1.498537e-01  -4.443899e-02  -2.713974e-01  6.658345e-02  -1.294672e-01  1.090790e-01  3.576490e-02  7.493893e-02  9.388330e-02  -6.940104e-02  9.496319e-03  -6.467801e-02  -1.120057e-01  1.641301e-01  3.088859e-02  -1.752364e-02  -9.269811e-02  1.162938e-01  1.054338e-01  1.181808e-01  7.134528e-02  1.671406e-01  6.188153e-02  -2.176377e-01  2.228481e-01  -1.762953e-01  -2.575608e-01  -2.276275e-01  1.401560e-01  1.748928e-01  -1.914711e-01  -1.928217e-01  1.760216e-01  1.556594e-01  -5.322235e-02  -9.453617e-02  1.713423e-01  -3.754199e-02  -2.365801e-02  1.016325e-01  -1.335341e-01  6.438033e-02  -5.575615e-02  2.780311e-01  -4.306220e-02  -3.163258e-01  -9.904893e-02  6.363121e-02  5.367237e-02  1.646088e-02  -3.722972e-02  1.411377e-01  -3.002785e-02  1.844526e-02  -1.236318e-01  -2.952421e-03  2.158013e-02  2.289494e-01  -7.054606e-03  2.603042e-01  -1.633591e-02  -1.094995e-02  9.917429e-03  1.298466e-01  3.760935e-02  -7.514146e-03  -7.869549e-02  9.252457e-02  -1.510796e-01  -1.000447e-01  -9.756385e-02  1.512613e-01  -1.612421e-01  -2.926416e-01  -1.371632e-01  3.173005e-01  -1.668957e-01  -1.475605e-01  -5.337510e-02  2.402685e-01  -1.669006e-01  -9.528373e-02  9.511729e-02  2.118010e-01  9.606222e-02  1.204722e-01  -1.964313e-01  -1.496792e-01  1.764237e-01  -1.755445e-01  -3.015942e-01  -1.234444e-01  1.170175e-01  4.788643e-02  6.016139e-02  2.139929e-01  4.111427e-02  2.716103e-01  -1.124870e-04  -1.712636e-01  8.814222e-02  -2.830361e-01  -1.224227e-01  7.859605e-02  -1.193747e-01  -1.075137e-01  -3.693735e-02  -1.662087e-01  -2.001646e-02  -2.274882e-02  6.695218e-02  -1.669921e-01  4.592998e-02  2.476155e-02  1.719665e-01  6.158504e-02  -1.093403e-01  6.545776e-02  2.497309e-01  4.738838e-02  -8.130497e-02  -3.486819e-01  -1.659628e-01  1.608795e-01  7.936395e-02  1.608873e-01  6.681135e-02  -1.183574e-01  5.802116e-02  9.985968e-03  2.086533e-01  -7.350612e-02  2.382887e-02  -8.042648e-03  -5.812233e-02  -4.311635e-02  1.534897e-01  -1.399462e-01  1.139364e-01  8.038332e-03  -1.605697e-02  -1.410498e-01  3.740279e-02  2.114137e-01  2.511309e-02  -1.219436e-01  -1.257034e-01  3.655889e-02  -9.342854e-02  9.531523e-03  2.170437e-01  2.634840e-02  -3.654857e-02  1.687099e-01  5.867133e-02  1.959857e-01  -2.228387e-01  -3.540366e-01  1.857807e-01  -6.920767e-02  -1.523687e-01  2.938756e-02  8.050646e-02  -6.548744e-02  -6.157232e-02  7.447745e-03  -1.845992e-02  -1.421369e-01  -6.095666e-03  -2.881030e-01  3.311440e-02  -6.925360e-02  8.809367e-02  2.264261e-01  3.883862e-02  8.493036e-02  4.950264e-02  -1.370820e-01  -8.184989e-03  1.708066e-01  1.507235e-01  6.482715e-02  -7.950755e-02  -2.643813e-01  -1.098753e-02  4.542180e-02  1.277598e-01  -1.089759e-01  -1.239822e-01  -8.095786e-02  -1.435537e-01  2.275209e-02  6.662533e-02  4.790496e-02  2.207030e-02  -1.214845e-01  7.132827e-02  9.086152e-02  -1.429129e-01  5.167290e-02  -5.576809e-03  1.340872e-01  1.565548e-01  -2.514397e-01  8.840997e-02  1.117406e-02  2.412455e-02  -1.575144e-01  1.988906e-03  1.046371e-01  -1.667961e-01  -5.575947e-02  -1.550855e-01  -2.669642e-02  -7.336503e-02  8.027419e-02  1.248940e-01  6.027479e-03  2.902865e-01  8.555982e-02  -1.290140e-01  -8.892782e-02  3.964494e-02  2.447769e-02  -1.358808e-01  -2.635527e-01  -1.774984e-01  3.503566e-02  5.345563e-02  1.135190e-01  1.175527e-01  -7.900759e-02  1.056466e-01  -9.371437e-02  2.461002e-01  1.084469e-01  2.627728e-01  1.886276e-01  -7.636101e-02  1.673645e-01  5.010494e-02  9.813485e-02  -1.849808e-01  -7.830842e-03  1.208956e-01  2.783052e-02  -2.474134e-01  -1.333784e-01  -9.108517e-02  4.696849e-01  3.965845e-01  -7.556947e-02  2.538915e-02  4.287377e-02  3.637701e-03  1.911940e-02  5.221987e-02  5.019889e-02  -8.355181e-02  4.733278e-02  1.065702e-01  -4.771778e-02  -1.022888e-01  5.738683e-02  -1.242597e-01  -1.460678e-01  -6.476047e-03  -1.317391e-01  -1.159206e-01  -2.055110e-01  -1.865351e-02  8.160337e-02  -1.007898e-01  -1.189832e-01  1.024499e-01  -1.648281e-01  1.710339e-01  9.003539e-03  -8.164075e-02  1.099731e-01  1.636208e-02  -1.298647e-04  -7.405706e-02  -1.739832e-01  -1.190499e-01  7.426316e-02  -8.358415e-02  -1.847491e-02  -3.987704e-02  -7.380803e-02  -1.593530e-01  2.003744e-01  -8.715951e-02  6.376378e-02  -6.804218e-02  1.223082e-01  9.901407e-02  -1.014103e-01  8.367413e-02  8.126020e-03  -7.652269e-02  1.619535e-01  4.939908e-02  1.744160e-02  4.897158e-02  1.275900e-01  5.750485e-02  1.155058e-01  -8.159017e-02  6.690186e-02  8.931102e-02  4.202602e-02  1.088498e-01  4.598877e-02  1.189193e-02  2.551473e-02  5.171640e-02  5.228921e-02  -7.724583e-02  1.267994e-01  1.008564e-01  9.573428e-02  7.387792e-02  2.383903e-02  -1.105010e-01  -2.509096e-02  9.935153e-03  -5.788657e-03  9.509680e-02  3.318807e-02  9.390897e-02  1.342459e-01  -5.714464e-03  8.521856e-02  -1.152625e-01  6.052057e-02  -1.749990e-01  4.063361e-02  1.465276e-01  9.166541e-02  6.427871e-02  1.363673e-01  -5.298083e-02  -3.162575e-02  8.230072e-02  7.089571e-02  -1.446792e-01  -1.123726e-01  -4.509346e-02  -1.947119e-02  5.138677e-02  1.581325e-01  3.947268e-03  -1.055877e-01  1.327861e-01  -5.877690e-02  -6.508004e-03  -1.759789e-02  3.219534e-02  5.221910e-02  1.622428e-01  -1.911751e-01  7.136325e-03  1.036237e-01  1.294380e-02  -4.957584e-02  1.427751e-01  1.555218e-02  2.021860e-02  -3.723624e-02  1.162711e-01  -4.203187e-02  5.480219e-03  1.795235e-02  -1.060955e-01  3.934500e-02  -9.674408e-02  -6.803089e-02  -1.746269e-01  -5.397722e-02  -6.517763e-03  -8.741350e-02  -7.066470e-02  1.660509e-01  -2.472013e-02  -1.012214e-01  2.735628e-01  -2.572302e-02  -4.527474e-02  -1.936747e-02  -8.020014e-02  -7.090357e-02  -6.512503e-02  -9.008814e-02  6.275301e-02  4.455435e-02  3.187843e-02  1.208584e-01  -1.222385e-01  -9.803474e-02  -7.478048e-02  -2.225627e-01  -3.866939e-02  -1.587697e-02  -1.034932e-01  -4.823750e-02  1.037558e-01  -2.697620e-02  5.873479e-02  1.339573e-01  1.919285e-02  1.473492e-01  1.745928e-02  -1.248663e-01  -7.658637e-02  1.968407e-02  -2.744232e-02  -4.629000e-02  1.451048e-01  1.792340e-02  -6.592025e-02  -8.900997e-02  -4.918443e-02  4.760812e-02  3.371096e-02  -1.467345e-02  -7.552264e-02  -9.061008e-02  -7.771870e-02  1.771658e-02  4.756215e-02  1.183516e-01  -6.155304e-02  -1.119143e-01  1.233442e-01  1.091859e-01  -4.404321e-02  9.601824e-02  -7.850360e-02  2.277629e-02  1.431490e-01  1.402781e-02  -1.166436e-01  -5.775042e-02  -8.997249e-02  -6.404551e-02  -1.686909e-01  -7.553508e-02  4.928232e-02  4.832476e-02  8.695537e-03  5.718187e-02  2.665349e-01  1.222536e-02  1.802548e-02  -1.240116e-01  -1.538248e-02  1.764131e-01  4.373452e-02  -1.086145e-01  -1.716593e-02  -8.626498e-02  -1.461377e-01  -2.117168e-02  5.774802e-02  2.261022e-01  -9.027587e-02  -2.612239e-02  -6.873088e-02  3.432122e-02  6.423255e-02  1.344210e-01  7.494585e-02  1.245793e-01  2.132958e-01  7.564105e-02  -1.330580e-01  8.934340e-03  8.520593e-02  -1.365441e-01  -1.363059e-01  3.119099e-03  -1.063115e-01  -6.224198e-02  -4.451880e-02  1.379696e-01  -1.491166e-01  -1.824781e-02  1.477206e-01  6.989847e-02  1.022448e-01  -4.581060e-02  1.326025e-01  2.305046e-01  -4.063586e-02  1.195688e-01  1.178679e-01  -1.121428e-01  -2.162321e-01  -1.299686e-02  -7.276770e-02  1.837481e-01  -1.427425e-01  -8.999978e-02  -1.413155e-01  3.652635e-01  3.089003e-02  1.948761e-01  1.902065e-02  1.346597e-01  5.902744e-02  -3.939242e-02  1.558419e-01  -1.444203e-01  2.566438e-01  -6.992670e-02  9.332395e-02  2.818089e-02  -8.010048e-02  6.917281e-02  4.524826e-02  4.542956e-02  8.162251e-02  -3.940266e-02  -1.675490e-01  -2.216900e-01  7.510040e-02  4.775121e-02  -1.977454e-01  -1.132794e-01  4.388489e-02  -6.235665e-02  -5.330566e-02  -1.367840e-01  -1.677571e-03  1.194097e-01  -3.781091e-02  9.351982e-02  -1.272645e-02  -2.069895e-03  -1.379004e-01  -2.729118e-01  1.149648e-01  1.264920e-01  -1.244889e-02  3.164294e-02  -2.252539e-02  -4.172696e-02  9.059489e-02  1.230269e-02  9.670866e-02  5.942247e-02  -3.577774e-03  4.560375e-02  -1.773670e-01  -1.628085e-01  1.744463e-01  3.994509e-02  1.508998e-01  -5.954155e-02  -8.603029e-02  3.777439e-02  -1.233511e-01  1.376650e-01  1.623779e-01  7.122364e-02  7.656875e-02  -2.211312e-01  8.420935e-02  -2.359064e-01  -3.341002e-02  -3.992793e-01  -1.477069e-01  -1.237968e-02  9.093095e-02  -4.618460e-02  9.121680e-02  1.160024e-01  1.570662e-01  -7.061366e-02  2.557783e-01  -9.428299e-02  3.089355e-02  -1.154910e-01  6.631016e-02  2.821297e-01  5.536008e-04  -2.675544e-01  -6.852128e-02  1.254515e-01  1.876084e-01  -2.568711e-01  4.327261e-03  1.552587e-01  -4.678106e-02  -1.652508e-01  1.055418e-01  -8.869321e-02  -1.173338e-01  -8.793937e-03  -9.207136e-02  4.883552e-02  1.805404e-01  -2.227034e-03  3.227343e-02  -1.736573e-01  1.504514e-01  -2.255890e-01  -1.165897e-01  -2.106709e-01  -1.155536e-01  -1.184013e-02  -1.308481e-01  2.233071e-01  -7.122952e-02  1.213643e-01  2.072709e-01  -1.068851e-01  1.913700e-01  2.159401e-01  9.760436e-02  2.904090e-01  1.359496e-01  1.669916e-01  -9.242378e-02  -1.225465e-01  -5.152915e-02  -1.167255e-01  1.318009e-01  2.274676e-02  -3.020777e-01  -5.598140e-02  -9.193076e-02  1.218357e-01  3.344410e-01  5.975816e-02  4.812855e-02  9.756736e-02  1.709816e-01  1.020476e-04  1.224747e-02  -1.748831e-02  -2.789824e-01  -6.616749e-02  4.557451e-02  7.488814e-02  -6.904346e-02  1.325648e-02  -2.342302e-02  -7.705293e-02  -6.842646e-02  8.964179e-02  -1.659386e-02  3.327289e-01  -9.615450e-02  -1.268142e-01  9.406923e-02  1.938207e-01  1.196300e-01  3.155047e-03  -5.401496e-02  2.438238e-01  -6.700962e-02  -8.382930e-02  2.630480e-01  4.804793e-03  -2.307813e-01  -4.975901e-02  1.876148e-01  1.616567e-01  -1.534247e-01  -6.991038e-02  -6.685409e-02  -2.722962e-03  -1.935659e-01  3.885170e-02  2.256901e-02  -3.358395e-02  -6.568513e-03  1.188787e-01  7.763043e-03  2.113862e-01  -2.486167e-02  2.954570e-02  -6.410263e-02  -2.365486e-01  1.177343e-01  -7.570416e-02  9.238709e-02  -3.492388e-02  -1.408607e-01  -5.788308e-03  4.703809e-02  -3.505508e-02  -1.408184e-03  1.825005e-01  7.679820e-02  1.099989e-01  -7.500998e-02  3.393605e-01  -7.799171e-02  1.758572e-01  -1.411179e-03  1.351069e-02  -9.934302e-02  -1.627372e-02  -4.443011e-02  9.693830e-02  -1.858459e-01  -4.946379e-02  1.144725e-01  1.009769e-01  -4.007304e-02  -1.564363e-01  -2.160907e-02  1.040701e-01  -4.423929e-02  -7.152185e-02  9.234809e-02  2.032605e-01  -9.166051e-02  -2.959705e-01  -2.104589e-02  7.966359e-02  8.542189e-02  -1.331808e-02  2.395652e-02  -1.816941e-01  2.039200e-02  7.451352e-03  -3.296688e-01  -2.360589e-01  2.222596e-01  -7.734866e-02  3.261045e-02  5.654824e-02  3.682904e-02  1.683796e-01  9.379006e-02  -1.266000e-01  2.933262e-02  -1.702635e-01  9.986681e-02  -1.402358e-01  -1.394172e-01  -9.533361e-02  7.576563e-02  -6.732709e-02  -2.217952e-01  -1.763312e-01  -1.433564e-02  -1.544522e-01  1.143405e-01  -1.764566e-01  -6.657291e-02  1.472395e-02  -6.644526e-02  -3.114770e-02  3.559169e-01  1.471043e-01  -6.649778e-02  -1.692791e-01  -2.042554e-01  -1.624038e-01  1.213445e-01  3.998049e-02  -7.663217e-02  8.844599e-02  1.737117e-02  -2.991387e-02  4.884094e-02  -1.344245e-01  1.277099e-01  5.762377e-02  -7.148959e-02  -7.436837e-02  6.813388e-02  7.157253e-02  -1.283222e-01  6.663798e-02  -1.590236e-02  -6.589015e-02  -2.534595e-02  1.425246e-01  8.201608e-02  -1.463874e-01  1.164835e-01  9.501974e-02  2.180498e-03  -1.492209e-01  1.136059e-01  -1.139473e-02  -1.165534e-01  -4.364535e-02  1.387790e-01  2.226935e-01  -1.286993e-01  -3.160787e-01  1.118458e-01  1.991248e-01  -4.282065e-02  -3.950499e-02  5.054290e-03  3.166848e-02  1.148274e-01  1.763210e-02  6.913693e-02  -5.646409e-02  7.656229e-02  -2.555657e-01  4.595999e-02  -1.442751e-01  -6.152191e-03  1.443158e-01  -7.347868e-02  -1.327293e-01  -1.194839e-01  -1.615910e-01  2.416701e-02  9.672017e-02  -5.418808e-02  7.643607e-02  1.433262e-01  -2.441216e-01  5.912461e-02  -2.497686e-01  1.432710e-01  -4.465550e-01  4.793503e-02  -1.099682e-01  -1.490352e-01  9.094071e-02  7.171897e-03  1.487543e-01  2.189756e-01  -2.714445e-02  1.910715e-01  -9.958152e-02  4.503156e-02  1.926246e-02  1.295025e-01  4.603598e-02  1.538356e-02  -2.948536e-01  4.991077e-02  -4.743111e-02  -1.038912e-01  -2.300433e-01  1.938890e-01  9.924164e-02  -2.094366e-01  -2.443836e-01  6.220600e-02  -6.410046e-02  -3.403364e-02  -4.570981e-02  -9.319491e-03  -2.682963e-02  2.218096e-01  1.356253e-01  -1.513720e-01  -1.271882e-01  -7.194846e-02  -1.529883e-01  -1.270327e-01  1.269097e-02  -2.211569e-01  7.186030e-02  1.042068e-01  3.119302e-01  1.857463e-01  -2.974587e-02  1.432256e-01  3.474467e-02  2.177282e-02  1.202758e-01  2.215318e-01  1.578717e-02  8.575451e-02  2.031527e-01  1.540922e-01  5.833597e-02  -6.848489e-02  -2.854300e-01  3.399072e-02  -3.678081e-04  -1.178921e-01  -3.798636e-02  1.263615e-01  4.722424e-01  1.588014e-01  7.499091e-02  1.869546e-01  -5.439904e-02  8.445694e-02  8.658388e-02  1.399967e-01  -7.939897e-02  8.122628e-02  4.873486e-02  -3.990820e-02  -2.463619e-02  -5.731071e-03  -1.293094e-01  7.759052e-02  1.243009e-02  -9.864896e-03  9.114487e-02  -1.561386e-01  -2.775797e-01  1.215802e-01  -5.514714e-02  -8.159748e-02  -9.178936e-02  -1.108639e-01  8.097222e-02  5.230255e-02  -2.268429e-01  3.416467e-02  6.956025e-02  -2.583524e-01  9.792126e-02  8.401778e-02  1.502176e-01  -8.205625e-02  -1.481716e-01  2.890748e-02  1.275189e-01  -5.310781e-02  -1.068456e-01  1.996169e-01  3.020043e-03  -2.159040e-01  7.452565e-02  -8.406812e-02  1.217475e-01  4.406591e-02  -2.016441e-01  7.342208e-02  -1.115891e-01  4.909702e-02  -2.234291e-02  5.742012e-02  5.317674e-02  -1.209779e-01  -1.381045e-01  3.327629e-02  1.204711e-01  -4.139069e-02  -1.485783e-01  -9.945878e-02  -1.042338e-01  7.112140e-02  -1.916691e-01  6.326184e-02  -1.719591e-01  2.223365e-02  -5.278895e-03  2.481279e-02  7.164394e-02  -8.042018e-02  -1.307400e-01  5.878835e-02  2.536235e-02  1.604220e-01  -8.516832e-02  -6.599390e-02  -1.432688e-01  9.733789e-02  1.614009e-01  -1.398983e-01  -7.511656e-02  -1.024195e-02  3.619249e-02  1.088403e-01  -1.689900e-01  -3.254452e-02  6.126168e-03  -3.093727e-02  8.756453e-03  4.333064e-02  -8.554482e-02  1.238265e-01  6.383805e-02  -7.693925e-02  -1.097058e-01  2.660788e-01  8.651217e-02  3.419237e-02  -1.250592e-01  -1.278032e-02  -2.976178e-02  -3.286010e-02  -2.176833e-01  -1.697107e-02  -4.151880e-02  -1.264473e-01  1.789503e-01  -8.262603e-02  -4.223397e-02  1.036926e-01  1.279699e-01  9.853241e-02  1.195966e-01  2.316307e-01  8.858927e-02  1.839777e-01  1.278423e-01  -7.802814e-02  4.223825e-02  -1.719487e-01  -2.298703e-01  -6.252069e-02  1.010932e-01  -2.019892e-01  -4.858622e-02  -9.397984e-02  1.293671e-01  6.897656e-02  -1.030499e-01  -1.334246e-01  6.863993e-02  5.256658e-02  -6.818150e-02  -9.402800e-02  -7.778393e-02  1.322500e-01  -7.004350e-02  4.669780e-02  5.045569e-02  1.690420e-01  1.325393e-02  -8.200791e-02  -8.049503e-02  1.943882e-01  1.272729e-01  -3.444885e-02  -2.366350e-01  -1.289241e-01  5.130997e-02  -1.806619e-01  1.533068e-02  -1.054140e-02  -6.296183e-03  9.485947e-03  -5.885392e-02  4.232747e-02  3.325178e-02  -2.793284e-02  1.295373e-01  1.352823e-01  -9.059360e-03  -2.349541e-01  -1.233342e-01  2.464320e-01  2.114262e-01  -3.033365e-02  -7.848898e-02  -3.554164e-02  1.326835e-01  -1.124859e-01  3.995784e-02  -1.238127e-01  -9.738596e-02  1.576239e-01  -1.638058e-02  8.008190e-02  -2.658927e-02  6.199449e-02  2.006593e-01  -1.215377e-02  8.708780e-02  -1.024058e-01  -1.615124e-01  -2.231946e-02  -3.994683e-02  -1.312972e-01  -9.316070e-02  9.138348e-02  -1.495773e-01  -5.190939e-03  -2.206539e-03  -1.003407e-03  -2.561350e-01  2.609267e-02  1.044773e-01  5.604019e-04  -2.328241e-02  -1.045810e-02  1.239101e-01  2.031708e-01  1.277986e-01  2.160576e-01  -3.078864e-02  -1.400366e-01  1.175599e-01  -2.533493e-02  4.819418e-02  -1.179294e-01  5.151081e-02  1.477214e-02  6.123680e-02  3.915746e-02  -7.914419e-02  -1.418338e-02  2.903712e-01  -2.971379e-02  6.274235e-02  9.268143e-02  -3.394034e-02  3.601824e-02  -6.576436e-02  9.456519e-02  -2.049752e-01  8.188552e-02  1.655549e-01  -1.657808e-01  -4.695385e-02  2.423393e-02  -1.980287e-01  -1.249853e-01  6.190230e-02  -5.449847e-02  6.620292e-03  -1.531731e-01  9.572324e-02  7.929746e-02  -7.762533e-02  5.880945e-02  -1.942848e-02  5.969080e-02  -2.893095e-02  2.131587e-01  1.553365e-01  -7.411101e-02  -3.338709e-02  -1.785248e-01  1.168445e-01  -3.848728e-02  -2.088246e-01  -4.534776e-02  7.190838e-02  -9.940352e-02  -2.445430e-01  -1.008665e-02  2.571691e-01  2.616293e-01  -5.969360e-02  -9.507865e-02  -1.178100e-02  1.452002e-01  -5.700975e-02  1.555869e-01  -1.831362e-01  1.805001e-01  8.356586e-02  1.659044e-01  -1.780130e-01  3.459827e-01  7.859322e-02  -6.772356e-02  5.873679e-02  2.237265e-01  -9.249148e-02  -9.261312e-02  -6.783492e-02  -6.035963e-02  -7.942332e-02  -1.648421e-01  3.016834e-02  2.332227e-01  -1.543379e-01  -2.062936e-02  -1.983359e-01  -2.693764e-02  -1.299165e-01  -2.447056e-02  2.509450e-03  1.783381e-02  5.853277e-02  1.604444e-01  -1.218369e-01  4.179903e-02  2.231816e-01  -2.042286e-01  -3.593043e-02  3.585391e-02  2.122706e-01  -8.952717e-02  6.257532e-02  -5.044395e-02  5.194588e-02  3.287790e-02  -1.688075e-02  -1.136540e-01  1.005488e-01  -4.361755e-02  -1.408438e-01  -1.745018e-01  -8.536301e-02  4.180566e-02  -4.305726e-02  -1.596563e-02  -5.981660e-02  -6.313070e-02  3.417915e-03  -1.057255e-01  7.442316e-02  6.273283e-02  1.017444e-01  -1.387499e-01  2.270069e-02  -6.158932e-02  2.016755e-02  -1.524704e-01  -1.849453e-02  -1.091982e-02  -4.899926e-02  -5.633090e-02  -9.889910e-02  3.002188e-02  -2.029929e-02  -4.576731e-02  -1.354356e-01  6.431106e-02  3.081867e-02  3.146897e-02  -2.457494e-03  -1.057282e-01  1.114254e-01  -4.979717e-02  -1.837540e-01  2.690998e-02  1.191316e-01  -1.146951e-01  -2.227331e-01  -6.572298e-02  -1.408221e-01  1.518141e-01  -1.860571e-03  -5.372221e-02  -9.334989e-02  3.214002e-02  -9.850919e-02  4.866271e-02  1.652357e-02  4.803915e-02  1.142309e-01  3.561507e-02  1.762462e-01  6.660838e-02  -1.464160e-01  -7.865069e-03  1.413873e-01  -1.861570e-02  1.655602e-01  1.104375e-01  6.011650e-02  6.906571e-02  1.170877e-01  9.864296e-02  -2.992955e-01  -1.479547e-01  -2.414252e-01  1.708927e-01  4.265518e-02  -2.913158e-02  -4.986322e-02  6.110656e-02  3.175782e-02  -1.590372e-01  -1.378126e-01  -3.477468e-03  1.734270e-01  -1.410969e-04  1.146553e-02  -3.674487e-02  -8.340473e-02  -6.827962e-02  8.654292e-02  -8.378778e-02  -9.140993e-02  -1.903630e-01  1.784620e-01  1.986299e-02  -9.192278e-03  -1.182567e-01  -1.765053e-02  -1.962146e-01  1.028204e-02  -1.215958e-01  -6.440710e-02  1.066682e-01  5.374596e-02  -5.477019e-02  -2.353800e-02  1.847951e-01  2.047691e-01  -8.140119e-02  -1.533158e-01  4.990102e-02  1.919875e-01  4.439710e-02  9.135339e-02  -2.079316e-02  -8.429839e-02  -1.410613e-01  -1.513916e-01  -1.174506e-01  9.351042e-02  1.424579e-01  -1.527310e-02  1.166814e-02  -1.212133e-01  -1.728325e-01  -2.527821e-01  -6.462447e-02  2.368371e-02  1.622233e-01  -1.136748e-01  1.502479e-01  2.182939e-01  1.735395e-01  2.382678e-01  -1.063482e-02  -2.133745e-01  1.263918e-01  6.128234e-02  2.055508e-01  5.245781e-02  -1.097836e-01  -8.455817e-02  1.504152e-01  7.415859e-02  1.537188e-01  7.288392e-03  3.992447e-02  6.094687e-02  -1.118008e-02  -4.703815e-02  -1.081094e-01  5.625042e-02  -9.574378e-02  1.357748e-01  -2.660833e-02  -1.085708e-01  -1.011535e-01  1.687706e-01  -1.276222e-01  8.772465e-03  -2.288278e-02  -8.473265e-02  4.584168e-02  -8.205163e-02  1.396693e-01  2.951723e-01  -7.551064e-02  -8.151477e-04  1.178938e-01  1.334608e-01  -1.895895e-02  -1.414722e-01  2.630034e-01  -4.820580e-03  -1.994448e-02  -7.617852e-02  -8.987711e-02  -3.340052e-01  -1.189782e-01  -2.213110e-01  -3.619969e-02  -1.844379e-01  -5.369340e-02  1.942523e-02  1.065246e-02  2.740331e-02  1.684205e-01  -1.153580e-02  1.385060e-01  2.310435e-02  -1.341652e-01  -2.085389e-01  3.271049e-02  -7.967278e-02  -5.718041e-02  -1.869371e-02  -7.743257e-02  7.871551e-02  -1.402382e-01  9.199531e-02  -7.278007e-02  -1.889739e-01  2.028085e-02  1.010748e-01  2.198589e-01  -1.881517e-02  6.598403e-02  -4.501678e-02  5.630211e-02  1.091954e-02  -5.684989e-04  -2.602649e-01  -2.147597e-01  6.588057e-02  -2.820371e-02  -2.511637e-03  6.585134e-02  -9.804057e-02  8.589610e-02  -8.906730e-03  -4.564685e-02  9.058012e-02  -1.192460e-01  6.761851e-02  -9.395070e-02  1.136994e-01  1.504511e-01  -1.555305e-01  3.593710e-02  1.411542e-01  1.053644e-01  9.781137e-03  -6.224468e-02  -4.949193e-03  6.949059e-02  -2.421844e-02  1.772975e-01  -1.197015e-02  -6.832091e-02  2.006090e-01  -8.498229e-02  2.908128e-02  2.776839e-01  -2.233576e-01  -1.380693e-01  -4.943690e-02  1.256713e-01  1.711470e-01  -5.106800e-02  8.592935e-03  -1.465772e-01  1.318728e-01  -4.718591e-02  -1.132736e-01  1.084976e-01  -5.298885e-02  -1.500524e-01  -6.047937e-02  -1.861497e-01  3.361543e-01  7.141259e-02  6.768663e-02  5.498371e-02  -2.590917e-02  2.127373e-02  -1.238308e-01  1.518650e-01  8.313096e-02  -9.314947e-02  -4.905722e-02  1.163491e-01  3.982596e-02  6.281732e-02  3.215936e-04  -2.886401e-02  -5.559464e-02  4.192675e-02  3.339110e-01  4.258207e-03  -5.636621e-03  1.024231e-01  1.727913e-01  8.994769e-02  -3.438064e-02  -3.489351e-02  -9.988559e-02  -6.459783e-02  1.356300e-01  -3.051880e-02  1.398727e-02  1.257146e-01  -1.945902e-01  7.720509e-02  1.192311e-01  1.001872e-01  -4.911654e-02  6.509746e-02  2.958207e-01  -1.938820e-02  -1.971075e-01  -7.042647e-02  1.376890e-01  2.761550e-02  -4.673531e-02  -3.359321e-02  -1.019529e-01  -2.146686e-02  -1.229408e-01  -2.612599e-01  -2.182173e-01  -8.902604e-03  -4.565623e-02  1.739274e-01  1.274999e-02  -2.211570e-03  9.721112e-02  1.526998e-01  -1.544243e-01  1.377659e-02  -7.924480e-02  2.440436e-03  2.072659e-02  -2.189343e-01  -2.388896e-02  1.766640e-02  -2.609459e-01  9.058141e-03  -3.955946e-02  8.931052e-02  1.452987e-01  -1.956570e-01  -4.905317e-02  9.455398e-02  5.893639e-02  5.181484e-02  -4.014386e-02  2.502706e-01  9.540840e-02  -5.479127e-02  -3.820026e-01  9.790282e-02  -4.551879e-02  1.222108e-01  -5.369040e-03  -1.842483e-01  7.686945e-02  -6.181877e-03  6.294406e-02  -2.305233e-01  2.334813e-01  8.093023e-02  1.539156e-01  -3.033342e-02  5.248495e-02  2.612962e-02  -1.859761e-02  -9.397306e-02  -7.369271e-02  -5.404892e-02  8.548787e-02  9.952490e-02  4.425793e-02  1.035588e-01  2.040949e-01  5.120922e-02  1.331129e-02  5.976276e-02  -2.610789e-02  -1.199301e-02  5.232723e-02  7.124953e-02  -4.350839e-02  -2.201152e-01  -1.605205e-01  1.157587e-01  8.857592e-02  -6.600851e-02  -6.017026e-02  6.391518e-02  -1.063110e-01  -2.083479e-01  -1.271172e-01  -4.321469e-02  -1.108291e-01  -8.912629e-03  -7.480757e-02  1.290889e-01  9.391047e-02  -1.163941e-01  6.748706e-02  -9.787001e-02  -2.518045e-01  -2.569196e-02  -1.046504e-01  2.433803e-02  7.171413e-02  3.005156e-02  -7.387096e-02  -7.288732e-02  1.136622e-01  -1.175221e-01  3.054179e-02  4.914669e-02  -4.037444e-02  -5.345223e-03  9.463753e-02  -6.688140e-02  -6.679543e-03  5.085813e-02  -1.973090e-01  -9.277966e-02  -1.142515e-02  -1.734406e-01  9.090773e-02  -2.579857e-01  1.081789e-01  1.083264e-01  -2.280875e-02  5.833013e-02  -3.173035e-01  -1.092847e-02  9.786252e-02  -2.769317e-03  -9.721041e-02  1.896688e-02  2.134677e-01  -1.001497e-01  -1.531249e-01  1.084982e-01  1.902046e-02  -4.887848e-02  -6.139712e-02  1.601383e-01  -2.476379e-01  -3.222908e-02  -1.559891e-01  -2.769009e-01  -2.760398e-01  1.539836e-01  -5.945254e-02  -7.606760e-02  -7.304359e-02  8.354004e-03  -5.976395e-02  -3.833350e-03  -9.085637e-02  3.600086e-02  -3.175979e-01  -1.154047e-01  -1.095581e-01  2.853048e-02  1.522251e-01  -3.136716e-01  -7.102670e-02  -1.651817e-01  -1.258778e-01  -4.901795e-02  -1.561457e-01  -1.920252e-02  5.114397e-02  1.117365e-01  4.913637e-02  -1.129892e-01  -7.844804e-03  3.014272e-01  1.635273e-01  7.570480e-03  -2.534359e-01  -1.610638e-01  1.845442e-01  9.351116e-02  -8.524276e-02  1.767491e-01  3.698256e-03  1.970769e-01  -4.129942e-02  2.798905e-01  -2.405166e-01  1.414521e-01  -6.791844e-03  1.030260e-01  -1.841153e-01  7.136719e-02  5.561438e-02  9.582823e-02  -4.842206e-02  -1.050901e-01  -1.605276e-01  -1.531063e-03  5.630448e-02  -1.108277e-02  1.513259e-02  2.038249e-03  1.036335e-01  -6.373134e-02  -1.758531e-01  3.887336e-02  9.134776e-02  -8.122750e-02  1.699070e-01  2.568927e-02  1.174741e-01  3.652919e-02  -3.146352e-01  3.247256e-02  1.001826e-01  5.058848e-03  8.152528e-02  8.290850e-02  4.700979e-04  -3.727769e-02  -1.424841e-01  -1.995971e-02  1.109838e-01  1.012375e-01  -2.242748e-01  2.943378e-02  -1.721616e-01  1.718471e-02  1.128748e-01  -4.176033e-02  5.253043e-02  -2.200840e-01  1.430960e-01  -6.702535e-02  -1.030271e-01  1.110121e-01  8.245379e-02  2.044513e-02  -1.806856e-01  1.940963e-02  -7.689422e-02  3.065858e-02  -2.853516e-01  4.607952e-02  -6.358168e-02  2.219244e-02  1.402717e-01  -1.270267e-01  1.884129e-01  2.637662e-02  1.851956e-01  1.255515e-01  -2.867476e-02  -1.084073e-01  8.959983e-02  5.423712e-03  2.498799e-01  -7.462055e-02  -2.883018e-01  3.255045e-02  2.379872e-02  7.303753e-02  -2.485593e-01  1.461754e-01  1.904529e-01  -1.379095e-01  -1.357845e-01  -7.215706e-02  -4.389526e-02  -1.570074e-01  2.037958e-01  -1.097423e-01  4.899819e-02  3.155354e-01  2.661112e-01  -8.567712e-02  -1.919625e-01  1.191923e-01  -2.292754e-01  -7.532123e-02  -1.113656e-01  -1.493308e-01  1.214544e-03  -1.069067e-01  6.588089e-02  -1.085986e-01  -8.549660e-02  2.083566e-01  -1.083526e-01  1.699243e-01  -3.685820e-02  2.543086e-01  2.985610e-03  -3.916885e-02  2.489786e-01  -9.397872e-02  -1.584335e-02  2.751559e-02  -1.610856e-01  4.841869e-02  -5.326166e-02  -6.043183e-02  -6.468695e-02  -1.075889e-02  2.518678e-01  2.729451e-01  5.263967e-02  -9.955234e-02  -1.127113e-01  -5.524145e-02  7.336532e-02  -1.700079e-01  -4.064006e-02  -3.335904e-01  3.838760e-02  1.624377e-02  1.109711e-01  -8.574667e-04  6.793167e-02  6.443820e-02  -2.684729e-02  1.941444e-02  -2.249806e-02  -7.993356e-02  2.347752e-01  4.907343e-02  -1.859218e-01  -2.111101e-02  9.909972e-02  6.522592e-02  9.286669e-02  -3.975168e-02  1.592250e-01  -7.711563e-02  -6.950306e-02  1.691101e-01  -1.666963e-01  -2.694072e-01  1.911685e-03  2.197445e-01  2.339767e-01  -3.362314e-02  -3.202248e-02  -6.619871e-02  5.509033e-02  -1.077589e-01  -8.488370e-02  9.905667e-02  3.450969e-02  -2.411505e-02  3.825658e-02  3.301179e-02  1.780985e-01  1.099956e-01  2.574871e-02  7.431917e-02  -1.476493e-01  -2.230156e-02  2.875855e-02  -5.901984e-02  -1.661368e-02  2.932535e-02  4.703237e-02  6.756070e-02  1.154194e-01  4.499379e-02  2.533323e-01  -4.393109e-02  1.229061e-01  -1.126329e-02  2.219899e-01  -9.805865e-02  1.990875e-01  -1.284757e-02  7.756162e-03  -8.147708e-02  -1.625394e-01  4.659082e-02  -1.612254e-02  -1.139392e-01  2.861824e-02  1.369485e-01  -9.267978e-02  -4.782734e-02  -2.558328e-01  -1.323175e-01  2.887578e-01  -4.202064e-02  1.022501e-01  -1.114180e-01  2.056652e-01  -2.047992e-01  -1.929126e-01  1.794081e-01  3.294615e-02  -2.944315e-02  1.838875e-01  -1.189244e-01  -2.331491e-01  2.706655e-02  -1.778785e-01  -1.863987e-01  -1.755615e-01  2.075347e-01  1.283416e-01  -5.146703e-02  1.050754e-01  -1.584905e-01  -6.292214e-02  -1.026553e-01  -1.672540e-01  6.104099e-02  -2.674824e-01  1.390902e-01  5.476679e-02  -1.190770e-01  4.230320e-02  -7.248046e-02  -6.981447e-02  -1.471891e-01  2.795656e-04  -1.172915e-01  -6.968820e-02  -1.035494e-01  -1.434285e-01  -6.522839e-02  6.757204e-02  -1.665976e-01  -1.234047e-01  1.295271e-01  9.005782e-02  8.946213e-03  -3.521729e-01  -3.174938e-01  1.126759e-02  3.483024e-02  1.132617e-01  -1.931825e-01  6.449276e-02  1.074942e-01  -1.267465e-03  -1.151179e-01  1.359014e-01  -1.358882e-01  -4.609574e-02  1.747658e-01  -2.871894e-02  -5.955813e-03  2.842348e-02  2.655302e-01  -4.240663e-02  6.892628e-02  1.357163e-01  -1.033677e-01  1.943849e-01  8.848473e-02  -1.728594e-01  1.151253e-01  1.475593e-01  4.595069e-02  1.222450e-02  -1.241090e-02  7.262588e-02  2.414339e-01  -1.184835e-01  -8.513480e-02  -2.436046e-01  1.087380e-01  2.433357e-01  1.588406e-02  -1.183418e-02  -2.096074e-02  -4.887414e-02  -3.045222e-02  2.351857e-01  -1.171578e-01  -4.030284e-02  5.090670e-02  1.158397e-01  -1.343787e-01  -3.449827e-02  9.170216e-02  1.519842e-02  9.533910e-02  7.670515e-02  -1.620550e-01  1.015138e-01  6.872889e-02  1.332746e-02  -4.186303e-03  -1.564505e-01  -2.539083e-02  -3.727610e-02  9.609594e-03  1.394343e-01  5.271578e-02  -8.140156e-02  -1.651238e-01  1.650864e-01  1.126649e-01  1.323673e-01  -1.286240e-02  -8.071087e-02  4.341666e-02  6.741940e-02  1.190313e-01  -1.835377e-01  -1.920516e-01  -2.810894e-02  -9.036013e-02  3.084522e-02  -8.645699e-02  -9.011514e-02  -1.700363e-01  -4.088081e-02  1.417380e-01  8.734883e-02  6.021617e-03  5.109553e-02  -5.367517e-02  -1.143513e-01  1.693153e-01  3.144531e-02  -7.217322e-02  -3.200876e-03  2.018017e-04  1.453452e-01  -9.765723e-02  7.040289e-02  4.281123e-02  1.210049e-03  1.663558e-01  -1.839709e-02  9.438834e-02  1.417968e-01  -1.619579e-01  3.157029e-02  2.030360e-01  2.545159e-02  -3.474192e-02  -4.432215e-02  -1.114307e-01  1.198617e-01  2.743564e-01  8.392020e-03  4.323611e-03  -1.685470e-01  -2.244564e-01  7.890035e-02  2.310460e-01  -4.501102e-02  -1.241343e-01  -5.193714e-02  -1.443982e-01  2.369612e-02  6.498490e-02  -6.653019e-02  1.360824e-01  1.624961e-01  5.312406e-02  -1.411705e-01  -6.174404e-03  7.330557e-03  -4.281824e-02  -7.030807e-02  -2.367355e-02  -9.031003e-03  -1.590771e-01  1.397219e-01  -2.050689e-01  1.280369e-01  7.500170e-02  -7.102359e-02  -1.710010e-01  -6.209288e-02  -4.923781e-03  -9.724084e-02  3.674966e-02  1.366537e-01  -6.328510e-03  1.093454e-01  7.141471e-02  -2.336729e-02  7.582937e-02  2.547056e-01  6.208481e-02  3.145661e-02  5.098102e-02  1.875231e-01  -2.312233e-02  -8.203255e-02  6.739418e-03  3.354030e-02  -1.960459e-01  -6.156086e-02  -7.263023e-02  1.730558e-01  -8.676235e-02  -3.773972e-02  2.076036e-02  4.279057e-02  -6.308282e-02  7.559352e-03  7.497573e-02  -7.565891e-02  5.982880e-02  -1.184651e-01  1.578093e-01  -2.865588e-02  -8.891114e-02  1.278890e-01  9.066218e-03  -3.379728e-01  -1.209015e-01  1.280772e-01  8.979966e-02  -1.052411e-01  1.220339e-01  -1.655810e-01  1.027658e-01  3.782776e-02  -6.142001e-02  1.074133e-01  -1.157933e-01  2.639349e-01  -3.119410e-02  4.453952e-01  -2.400729e-02  1.878515e-01  6.630371e-02  1.847251e-01  5.550235e-02  -4.775059e-02  5.277207e-02  1.125674e-02  -4.088873e-02  1.018535e-01  -2.815861e-02  -5.378211e-02  -2.071701e-02  -1.293937e-01  -1.033636e-01  2.001939e-01  -4.483722e-02  -3.859312e-02  -9.744868e-02  2.314093e-01  -2.526127e-02  1.117974e-02  -3.763721e-02  -8.236859e-02  -1.623722e-01  1.531193e-01  4.129092e-02  -5.651763e-02  -1.423508e-02  -1.241324e-01  -2.207105e-01  4.713479e-04  1.230418e-01  6.971598e-02  -5.321121e-02  9.199353e-02  6.260516e-02  2.009534e-01  -2.571428e-02  -9.546784e-02  -6.188969e-02  4.933337e-02  -6.372943e-02  3.085501e-02  -3.358142e-01  -1.104465e-02  -2.704895e-01  -3.906088e-02  -1.858218e-01  -1.439954e-01  -2.109184e-01  -2.628154e-01  -1.052317e-01  -5.753689e-02  7.875631e-02  1.671613e-01  -4.445397e-02  -1.027492e-01  3.345889e-01  9.952124e-02  1.511440e-01  -4.365180e-01  -2.454283e-01  -3.242725e-03  -6.306771e-02  6.646602e-02  -1.602934e-01  -6.140494e-02  -4.538560e-02  -2.802075e-02  3.571713e-01  -2.763009e-02  -1.831290e-02  -1.565001e-01  9.879743e-02  -1.600288e-01  -8.454087e-03  -1.445962e-01  -6.337114e-03  1.177386e-01  -1.278539e-01  -3.958511e-02  8.322853e-02  7.998604e-02  -1.850807e-01  -1.971310e-01  1.023769e-01  -9.654428e-02  -1.135222e-01  -1.453250e-01  2.564973e-01  1.184439e-01  -1.473097e-01  1.617025e-01  2.739718e-01  1.225423e-01  -9.661637e-02  -8.929724e-02  1.148253e-01  2.567657e-03  -8.993808e-02  -7.876816e-02  1.696797e-01  2.074714e-01  7.564090e-02  -6.079465e-02  -5.334764e-02  9.778067e-03  1.175094e-01  -1.809890e-01  -8.112182e-02  -1.456090e-01  -9.084146e-02  2.851092e-02  1.313211e-01  1.551396e-01  -2.531151e-01  -1.676449e-01  1.769062e-02  -2.670599e-02  2.774570e-02  -5.768292e-02  -1.046537e-01  -1.449102e-01  -1.310979e-02  -9.688161e-02  -7.338929e-03  -2.619193e-01  -6.493372e-02  7.634050e-02  -1.041938e-01  7.537560e-02  1.217639e-01  2.557232e-02  1.355585e-01  6.483786e-02  1.820637e-01  5.078522e-02  -1.191450e-01  9.023310e-03  1.496298e-01  2.283048e-01  1.075304e-01  -1.625407e-01  5.641502e-03  -4.604031e-02  -7.989099e-02  -2.216559e-01  5.522304e-02  2.645933e-01  -2.668355e-01  -6.864046e-02  1.450784e-01  -5.633958e-02  3.802045e-02  4.379472e-02  -1.422925e-01  1.474033e-01  3.589318e-01  1.232964e-01  -7.030980e-02  -2.618127e-01  8.221424e-02  -1.708202e-01  -3.951684e-02  -1.630848e-04  -8.061028e-02  1.590579e-02  -1.006866e-01  2.610542e-01  1.420412e-01  -1.019044e-01  -2.823739e-02  4.149159e-02  2.413614e-01  6.121157e-03  2.096014e-01  -4.560057e-02  2.771029e-02  5.011562e-02  -6.651890e-02  6.603197e-02  -1.657369e-01  4.780139e-02  -5.990499e-02  -8.039837e-02  -3.477319e-02  -1.080683e-02  -1.358612e-01  1.476169e-01  6.550528e-02  -1.642941e-02  1.960027e-01  -1.274486e-01  -3.986625e-02  5.128863e-02  2.174580e-02  4.425015e-02  4.662506e-02  1.794246e-01  -9.201924e-02  1.955944e-02  -6.800635e-02  -7.874925e-03  -8.242913e-02  -1.695703e-01  4.956004e-02  5.024663e-02  8.056936e-02  2.407207e-01  -1.419035e-01  -3.644418e-02  -7.495333e-02  -7.736912e-02  5.067679e-02  1.311197e-01  2.234277e-02  1.335416e-01  6.643917e-02  -2.435518e-04  2.688641e-01  -1.714289e-01  6.169705e-04  -1.475320e-01  1.474588e-01  1.898396e-01  9.525062e-02  -1.840591e-01  -2.757272e-02  7.657960e-02  -4.107382e-02  9.322540e-02  4.860649e-02  9.985627e-02  -1.304276e-01  3.038356e-02  -8.487335e-02  6.959209e-02  -5.530813e-02  -8.234338e-02  -1.739865e-02  -2.015740e-01  -9.014591e-02  1.306016e-01  -1.038944e-01  -1.587399e-01  -4.493958e-03  4.113872e-02  4.227845e-02  8.246216e-02  1.756159e-01  8.456746e-02  2.344476e-02  6.564143e-02  -1.202148e-01  1.779421e-01  1.220008e-01  8.672507e-03  -4.742858e-03  2.007827e-02  -6.573313e-02  -1.205408e-01  -5.034954e-02  5.342954e-02  4.121424e-02  1.526432e-01  1.238010e-01  -1.134174e-01  -1.351781e-01  -8.090149e-02  1.422252e-01  -5.114806e-02  1.742083e-01  -7.186020e-02  -1.436903e-01  9.731758e-02  -5.772242e-02  -1.020780e-01  -1.792962e-01  4.273093e-03  -1.080191e-01  3.490357e-02  6.509230e-02  -8.187671e-02  8.840794e-02  1.281665e-01  -2.941838e-03  1.775387e-01  7.506346e-02  -6.834490e-02  3.354548e-02  -6.978935e-02  2.277409e-02  9.542137e-02  -1.938056e-02  1.230011e-01  8.389764e-02  1.338924e-02  -5.293616e-02  -9.846711e-02  2.154121e-01  8.125034e-02  3.783133e-02  -5.531671e-02  -4.504220e-02  6.064575e-02  1.549586e-01  -1.298804e-02  -1.467382e-01  9.296689e-02  -1.699123e-01  1.025686e-01  4.653028e-02  1.534736e-01  -1.696275e-02  -1.007981e-01  7.531046e-02  -1.432865e-01  -2.171369e-01  -5.850229e-02  2.009342e-02  2.170322e-02  -1.177010e-01  3.419976e-02  -1.069304e-02  5.622576e-02  -1.584978e-01  -2.377138e-02  1.333210e-01  1.970625e-01  -1.544736e-01  1.973115e-01  8.813184e-02  -9.772512e-02  -2.330482e-01  9.975301e-02  1.624348e-01  -1.442631e-01  -7.225057e-02  -6.381635e-02  -5.455674e-02  3.710848e-02  8.335844e-02  -3.757669e-02  -1.397498e-01  4.744058e-03  -3.582522e-02  6.289920e-02  4.444217e-02  -9.747917e-02  9.609541e-02  -9.974988e-03  7.027456e-02  1.979827e-01  7.288203e-02  7.504736e-02  2.248421e-01  1.052117e-01  5.009762e-02  2.706176e-02  1.900209e-01  2.462091e-02  1.200145e-01  5.544610e-02  -4.123005e-02  1.165880e-01  1.489600e-01  2.395364e-02  -4.145176e-02  -1.497884e-01  -8.652279e-02  7.325401e-02  -2.795571e-02  6.805621e-02  9.024317e-02  -5.528009e-02  5.659507e-02  -7.988629e-03  1.153413e-01  -4.550576e-02  -8.488631e-02  1.565067e-01  5.289952e-02  1.963424e-01  -5.553070e-02  -5.511795e-02  7.067025e-02  -2.595167e-02  1.203565e-01  -6.359150e-02  -6.758690e-02  -1.705138e-01  -4.745336e-02  -1.122880e-02  -1.030494e-01  1.713059e-01  7.830816e-02  -3.903756e-01  -1.036096e-01  1.931301e-01  3.026308e-02  8.006648e-02  5.479820e-02  -3.255260e-03  2.373489e-02  -1.926465e-02  2.311452e-01  2.448678e-02  9.735364e-02  -1.023513e-02  1.250058e-01  -3.525742e-01  1.449476e-02  -1.307059e-01  -2.589445e-01  -1.981502e-02  -4.468196e-02  1.284973e-01  -7.539643e-03  -1.353124e-01  1.133878e-01  1.357175e-01  1.670571e-01  1.750655e-02  1.133659e-01  -6.215170e-02  -7.175464e-02  2.973219e-02  -1.319465e-01  1.147516e-01  -1.958255e-01  -1.187860e-01  -6.916807e-02  -6.787606e-02  -9.182658e-02  -1.698015e-01  -9.755228e-02  4.108027e-02  2.431830e-01  3.755188e-02  5.642065e-03  -1.242197e-01  2.301551e-01  -1.356837e-01  5.164839e-02  -1.606855e-01  -2.001814e-01  -1.226123e-01  -1.343275e-03  8.549338e-02  -1.142184e-01  -7.993979e-02  -9.045860e-03  4.475487e-02  1.402156e-01  -2.954056e-02  -8.043133e-02  -1.393504e-01  6.547058e-02  1.314821e-01  9.349345e-02  6.692766e-02  2.534431e-01  -1.317726e-01  3.004508e-04  -5.156713e-02  -1.309987e-01  -7.852734e-02  -1.178662e-01  -1.404148e-01  2.946894e-02  -2.241439e-01  -1.032262e-01  -5.918962e-02  1.071878e-01  -1.233404e-01  -1.847460e-01  1.278509e-02  1.377637e-02  -5.194563e-02  -5.575417e-02  -1.550008e-02  7.816473e-02  6.266729e-02  -1.259703e-01  6.718411e-02  -8.404507e-02  1.870221e-01  5.733759e-02  4.348721e-03  -1.813142e-03  6.134017e-02  6.917912e-02  -1.694668e-01  7.628384e-02  5.132909e-03  -9.827700e-02  -1.505664e-01  9.365404e-02  1.944853e-02  2.923390e-02  -3.113813e-02  5.552002e-02  1.153611e-02  -1.142838e-01  7.332765e-02  4.925509e-02  -5.078275e-02  -1.125869e-03  4.216951e-02  1.768934e-01  -2.142983e-01  4.746316e-02  -5.629284e-02  -1.317250e-01  6.871839e-02  -2.481442e-02  2.023157e-01  9.777900e-02  4.633579e-02  2.847214e-01  -1.479871e-03  8.836648e-02  9.048598e-02  3.992959e-02  5.403484e-02  1.016104e-01  -1.803579e-01  1.474105e-01  -1.399097e-02  -1.339985e-01  -4.378040e-02  1.761813e-01  1.979092e-01  -2.486327e-01  9.208225e-02  5.715380e-02  -6.992978e-02  7.589637e-02  -2.361148e-02  -1.466748e-01  -1.450424e-01  1.494499e-01  -2.330722e-03  9.278209e-02  3.145544e-03  -1.252665e-01  8.094708e-03  -1.222431e-01  1.366037e-01  -1.756933e-01  1.759790e-01  9.733913e-03  3.887029e-02  -3.847200e-02  -9.133263e-03  7.737217e-02  -1.006524e-01  2.015178e-01  1.105629e-01  1.882773e-01  1.927209e-01  -9.853263e-02  -1.226421e-01  -2.725083e-03  6.849285e-02  -6.370196e-02  2.115277e-02  -2.155044e-02  -1.054931e-01  -3.546863e-02  1.198418e-01  1.434730e-01  3.440492e-01  1.106000e-01  -1.725283e-01  -1.096479e-01  3.407889e-02  -5.502512e-02  1.565488e-01  -6.782709e-02  4.799474e-02  -1.224496e-01  1.003658e-01  -7.078534e-02  3.384435e-02  -2.177692e-01  -8.096126e-02  -3.820863e-02  -3.852001e-02  -1.344586e-01  4.779429e-02  5.704590e-02  1.137256e-01  -1.095925e-01  2.255162e-01  -3.990411e-02  -7.062458e-03  -2.293491e-01  9.278053e-02  5.600911e-02  2.194794e-01  -4.160735e-02  -1.098058e-01  1.266786e-01  1.393333e-01  8.462811e-02  1.122944e-01  -6.376372e-02  -7.075788e-02  1.712747e-01  -7.360833e-02  8.606993e-02  4.144794e-02  -8.621083e-02  -4.043067e-02  -1.608080e-03  -2.573817e-01  7.332975e-02  7.227044e-02  1.626682e-01  -1.051039e-01  4.254358e-02  -1.535295e-01  -9.589254e-02  1.718927e-01  -7.754891e-02  -1.188625e-01  -2.584997e-02  2.263703e-02  -1.040857e-01  -1.166775e-01  1.388243e-01  -7.585075e-02  -7.679161e-02  -1.186783e-02  -1.554275e-01  -1.640374e-01  -5.463939e-02  -6.155544e-02  8.070831e-02  4.851674e-02  -8.942484e-02  6.733208e-02  1.618777e-01  -9.348701e-02  -9.690581e-02  1.198071e-03  -1.476661e-01  7.765073e-02  -1.230416e-01  1.221573e-01  -1.246814e-01  1.592266e-01  3.409093e-02  -6.389184e-02  3.276999e-02  -4.710621e-02  2.236197e-02  -1.315169e-01  6.091955e-02  -1.284102e-01  2.346489e-01  1.241825e-01  -8.649722e-02  -1.247479e-02  -1.747722e-02  1.635483e-01  -5.646781e-02  1.330145e-01  -1.066362e-01  2.606686e-03  -2.069543e-02  1.225833e-01  -5.712272e-02  6.420854e-02  2.621729e-02  -1.771240e-01  -1.080812e-01  1.741270e-01  -5.019519e-02  -1.299670e-02  1.287818e-01  -1.359010e-03  1.210267e-02  5.019351e-02  -1.070056e-01  2.855224e-01  -8.656210e-03  2.894951e-01  -5.581723e-02  6.618189e-02  6.846678e-02  -6.916082e-03  1.074486e-01  -1.079876e-01  3.892925e-02  -6.932360e-02  -7.252169e-03  1.045706e-01  5.631024e-04  1.286389e-01  6.061309e-02  1.441055e-01  -2.154320e-02  7.841841e-03  -7.233559e-02  2.475129e-02  -1.976137e-02  -1.744863e-02  1.201810e-01  7.233973e-02  8.291778e-02  5.699978e-02  -3.465025e-02  -3.869832e-02  -1.036023e-01  -5.587967e-02  1.672989e-01  -8.644009e-02  1.956122e-02  -4.716843e-02  -1.093793e-01  -2.821313e-02  4.104397e-04  2.158231e-02  -8.994806e-02  5.463118e-02  1.247757e-01  -2.815552e-01  -1.157488e-01  1.964146e-01  6.234143e-02  2.950005e-02  7.708081e-02  2.184156e-01  -2.130372e-01  -1.159768e-01  3.938647e-02  1.827416e-01  -1.153375e-01  -8.048528e-02  6.524535e-02  -8.253395e-03  -7.163070e-03  -1.127019e-01  -2.478852e-02  1.411120e-01  -1.857871e-02  7.840322e-02  -9.633429e-02  -3.291241e-01  3.988589e-02  1.965984e-01  -3.941263e-02  1.088744e-01  -7.124867e-02  -2.227228e-02  -1.204219e-02  -1.547191e-01  -7.867792e-02  -6.345988e-02  1.119522e-01  -4.859176e-03  -4.635335e-02  -1.056626e-01  -7.650443e-02  -2.065987e-02  -9.578620e-02  5.467665e-02  5.416930e-02  1.681790e-02  1.530862e-02  -3.678126e-02  -3.136956e-02  -1.146362e-02  2.275823e-02  2.481127e-02  2.634365e-02  -1.300467e-01  1.493187e-01  1.566657e-01  -1.762018e-02  -6.056977e-02  3.265411e-03  -1.068767e-01  -1.082186e-01  -9.883213e-02  1.144699e-01  2.519412e-03  -2.233218e-01  -8.620771e-02  5.660288e-02  1.519723e-02  -8.700955e-02  8.010145e-02  -9.904399e-02  1.204495e-01  2.404983e-01  2.260920e-01  -1.246726e-01  -1.231957e-01  1.455618e-01  -8.457942e-02  -2.068164e-01  -1.713273e-02  4.674978e-02  1.464214e-02  1.080329e-01  6.165571e-02  6.450041e-02  -9.873969e-03  2.381871e-01  9.773467e-02  2.663259e-02  2.539613e-02  1.697240e-02  7.111871e-03  6.984659e-02  -2.003983e-02  -4.318129e-02  -1.155712e-02  3.063696e-02  3.374926e-02  -8.851282e-02  1.211084e-01  1.094410e-02  5.834736e-02  4.846262e-02  3.148646e-01  2.827158e-01  -1.235569e-01  5.521250e-02  -8.607192e-02  -1.279510e-01  8.894356e-02  -5.190036e-02  -6.368961e-02  -1.514343e-01  4.458055e-03  4.540260e-02  -9.549140e-02  -3.796508e-02  1.793062e-01  8.706041e-02  2.905957e-03  4.232987e-02  -1.184190e-01  -1.605679e-01  -3.176498e-02  -7.711127e-02  -7.304960e-02  5.529071e-02  -4.374403e-02  1.770547e-01  -3.418202e-02  6.959433e-03  -4.868310e-02  6.359854e-02  -1.789445e-02  -4.240568e-02  1.193893e-01  3.740877e-02  7.828199e-02  -1.076458e-01  2.382761e-02  -1.006411e-01  9.371950e-02  -1.038931e-01  -9.436760e-02  -7.304902e-02  1.687280e-02  1.036678e-01  -3.211103e-02  7.789683e-02  1.938874e-01  5.668512e-02  -6.761005e-03  -2.194519e-01  -4.341009e-02  -4.842339e-02  3.456575e-02  -2.776133e-01  6.258828e-02  1.380637e-01  1.628676e-02  8.394229e-02  -2.265287e-02  1.191310e-01  1.590564e-01  -1.388552e-01  -7.015735e-03  -2.833373e-02  -7.084344e-02  2.049179e-02  -5.069704e-02  -1.479404e-01  1.216531e-01  1.895115e-02  1.810908e-01  -1.264972e-03  -9.793402e-02  -1.598048e-02  -1.326286e-01  -4.253032e-02  3.443640e-02  -1.493140e-01  -1.284462e-01  1.354010e-01  -5.343183e-02  -7.571606e-02  9.138910e-02  8.508447e-04  -1.168669e-01  9.480922e-02  4.052925e-02  -4.073043e-02  -1.190271e-01  2.248195e-01  1.846411e-01  -8.035986e-02  -2.269128e-03  1.397458e-01  -2.523949e-01  1.450318e-01  -7.170565e-03  -1.753987e-01  -8.767843e-02  6.751390e-02  -4.021503e-02  3.041635e-02  -1.732277e-02  8.935988e-02  9.631764e-02  -4.321663e-02  2.703576e-02  -7.323740e-02  9.567630e-02  3.116799e-02  -1.055384e-01  1.497072e-02  -1.095212e-01  6.302903e-02  1.463533e-01  -3.723216e-02  -4.983117e-02  -9.576692e-02  -4.899257e-02  7.049727e-02  -4.395821e-02  1.886603e-01  7.579769e-02  -1.550886e-01  -1.697978e-01  -1.974902e-02  -1.060173e-01  1.661946e-01  -2.305281e-01  -2.191847e-02  5.929512e-02  1.240911e-01  7.282553e-02  -5.206085e-02  -6.075612e-02  6.502092e-02  1.774143e-01  -2.396706e-01  2.777912e-03  -1.387885e-01  1.967539e-01  1.625882e-02  6.994461e-02  1.693932e-01  -1.101053e-01  -2.754347e-02  -5.679976e-02  6.234132e-02  -2.306721e-02  -5.451085e-02  -4.226707e-02  6.664447e-02  1.761216e-01  2.287617e-01  -1.260306e-01  7.129426e-02  1.764028e-03  -9.637552e-02  7.853559e-02  2.664825e-01  2.831806e-02  -1.604149e-01  -1.905457e-01  4.616369e-02  7.423961e-02  2.752314e-02  -1.421247e-01  1.163853e-01  -8.360545e-02  -2.299982e-03  -7.882675e-02  -1.036599e-01  -7.451362e-02  -4.571012e-02  1.729013e-01  5.293709e-02  5.036999e-02  2.463797e-02  1.190742e-01  -4.053785e-02  -1.198044e-01  2.265869e-02  9.634188e-02  3.106628e-02  -1.536353e-01  -8.518174e-02  -7.173309e-02  -3.277844e-02  1.392354e-01  -1.824392e-02  -1.448276e-02  -3.346688e-02  7.574371e-02  -9.061064e-02  1.291718e-01  1.110499e-01  9.634494e-02  1.530553e-01  9.448081e-02  5.537628e-02  -8.009685e-03  -1.406791e-01  -1.040069e-01  -1.310104e-01  -4.283309e-02  -1.127679e-01  4.974896e-02  -1.994181e-02  -9.856819e-02  7.002819e-02  3.129600e-01  1.927047e-02  8.126029e-02  6.948665e-02  2.433854e-01  -2.445578e-01  -3.031622e-01  1.285078e-01  -4.443466e-02  1.211344e-03  7.358731e-02  1.813378e-02  -4.980804e-02  1.605774e-01  -1.270122e-01  -8.825032e-02  -3.253557e-01  3.389910e-02  -5.363751e-02  -6.707025e-02  6.656113e-02  -1.741854e-01  2.456188e-01  -1.549286e-02  -1.549016e-01  1.145805e-01  -1.246409e-01  -4.437308e-02  1.602387e-01  4.453756e-02  1.087600e-01  -1.652992e-01  -1.042095e-01  -1.052720e-01  -1.866466e-01  -1.269241e-01  -2.245379e-01  8.422516e-02  -1.332031e-01  1.259353e-01  1.273308e-01  -1.315547e-02  -3.771301e-02  4.140251e-01  1.106314e-01  1.100565e-01  -2.868210e-01  -2.037298e-01  -4.096117e-02  -1.458404e-02  1.760015e-01  1.199368e-01  1.725544e-01  -7.009451e-02  -7.463973e-02  1.825342e-01  -1.643507e-01  -1.345497e-01  -1.264569e-02  2.463306e-02  -1.662268e-01  1.118136e-01  8.151145e-02  1.692680e-01  1.156126e-01  3.796828e-02  -1.984299e-01  1.094103e-01  -2.764474e-02  -7.438747e-02  -1.229500e-01  4.413965e-02  1.500312e-01  -1.306270e-01  -1.436093e-01  2.315617e-02  1.112371e-01  -1.773171e-01  3.239389e-02  1.895117e-01  1.275546e-01  -2.131425e-01  -3.272340e-01  6.908242e-02  6.610060e-02  -2.450464e-01  2.285003e-02  -4.414471e-03  1.582199e-01  2.433024e-02  -1.374427e-01  1.212182e-01  7.988402e-02  4.362898e-02  -2.259292e-01  5.964766e-02  -1.989477e-01  -5.961461e-02  9.578851e-02  1.597935e-01  1.616954e-01  -3.075453e-04  -3.076389e-04  1.647451e-01  -8.580816e-02  -2.699582e-02  -4.075156e-02  -1.219111e-01  -2.117081e-01  1.295123e-01  -1.408836e-01  1.292450e-01  -1.441371e-01  -8.742233e-02  -2.207371e-01  -7.442155e-02  9.106129e-02  1.664392e-02  1.615188e-01  1.240912e-01  -1.080309e-01  2.084059e-01  -4.561581e-03  -2.253662e-02  -7.493812e-02  -6.364086e-02  2.814175e-01  1.012884e-01  -2.589167e-01  -5.736351e-02  -1.127992e-01  -5.231951e-02  -1.687324e-01  1.300048e-01  8.574403e-02  -8.656421e-02  5.449205e-02  -1.050278e-01  -1.902152e-01  8.754616e-02  5.239893e-02  -2.717121e-02  1.403570e-01  3.133460e-01  2.191347e-01  -9.660795e-02  -1.163208e-01  1.409600e-01  -1.015955e-01  7.236921e-02  -1.728809e-01  -6.450969e-02  1.039292e-01  -7.621422e-02  -1.659215e-02  1.053128e-01  -1.106199e-02  2.119913e-01  -4.679919e-02  2.311391e-01  6.297628e-02  7.592619e-02  2.805414e-01  -6.037391e-02  1.680501e-02  9.919138e-02  4.852736e-02  2.144591e-02  1.989011e-02  3.565831e-04  9.230337e-02  -2.067448e-01  -7.901108e-02  -2.135121e-02  3.051332e-01  1.133383e-01  -4.154025e-03  -4.350905e-02  -6.476968e-02  1.135084e-01  3.725226e-04  -9.153890e-02  1.164434e-01  -2.201588e-01  -5.737718e-02  1.626385e-02  1.400215e-01  -2.014105e-01  8.473457e-02  -2.654568e-02  -6.436514e-02  -2.865816e-02  1.230823e-01  -3.840359e-02  2.082338e-01  -6.396411e-02  -1.465755e-01  -2.070982e-02  1.140452e-01  6.385186e-02  -6.127033e-02  8.516216e-02  1.859476e-01  -1.353678e-01  -1.050650e-01  2.386989e-01  7.621719e-02  -2.189551e-01  -1.268188e-01  1.535628e-01  2.470685e-01  -2.277127e-01  -4.962979e-02  -4.652060e-02  1.229739e-01  -5.570799e-02  -6.058400e-02  4.217065e-02  9.758292e-02  -9.988496e-02  -1.095826e-01  -5.416178e-03  8.446196e-02  -9.627991e-02  3.317134e-01  -1.422683e-01  -2.850188e-01  -8.505208e-02  1.160086e-01  -1.075622e-01  -4.119668e-02  -1.118181e-01  1.243383e-01  7.100859e-02  6.553911e-03  -4.369733e-02  5.971198e-02  1.126977e-01  1.478459e-01  -1.474084e-01  2.805207e-01  -8.612347e-02  4.365819e-02  -9.108306e-02  -5.394149e-02  -1.177299e-01  -2.402386e-02  -1.905340e-01  -1.162521e-01  -1.599716e-01  1.391314e-01  1.412524e-01  -7.013220e-02  -1.132689e-01  -1.707969e-01  8.959639e-03  2.614913e-01  6.834226e-02  2.955663e-02  -4.133699e-02  2.513447e-01  -1.886707e-01  -1.887627e-01  1.643388e-01  -3.042052e-02  -1.615057e-01  9.540209e-03  -2.049492e-01  -1.731932e-01  1.723204e-01  1.177938e-01  -3.272917e-02  -1.513096e-01  2.102096e-01  2.073549e-01  -1.018691e-01  -1.458749e-02  1.613016e-02  1.237178e-01  1.617882e-01  1.094795e-02  7.554757e-02  -1.422207e-01  2.134898e-02  -7.844102e-02  -2.578488e-01  5.238745e-02  -2.615762e-03  4.227831e-03  -2.483495e-01  -5.127525e-02  -1.527567e-02  -2.041834e-01  -3.896175e-02  2.747408e-02  -1.678227e-02  9.643930e-02  -1.122115e-01  -7.663752e-02  2.912488e-01  8.390892e-02  7.081921e-02  -3.979042e-01  -2.779866e-01  -1.387455e-01  -1.253831e-01  -1.648140e-01  5.055553e-02  -1.376226e-02  -1.934449e-01  -3.326372e-02  -2.237724e-01  -4.233573e-02  1.270518e-01  5.673731e-02  6.101982e-02  2.117522e-01  -1.516430e-01  1.682298e-01  5.030821e-02  -7.293157e-03  2.462462e-03  -2.331799e-02  3.864482e-02  -7.019979e-02  1.840124e-01  -4.532825e-02  7.268367e-02  -1.132771e-01  1.111938e-01  5.021130e-02  -1.122779e-01  5.819058e-02  1.319868e-01  5.291387e-02  -1.521664e-01  -1.953268e-01  1.201838e-01  1.113209e-01  -1.964986e-01  -1.446752e-02  -8.936538e-02  1.370563e-01  -2.113573e-01  1.183119e-01  8.175902e-02  -1.152770e-01  -5.892508e-02  -3.822163e-02  2.576310e-02  1.388207e-01  1.256923e-01  3.396847e-02  -1.095845e-01  -2.500062e-01  9.526544e-02  5.341316e-02  3.849173e-02  -8.588146e-02  -2.978541e-03  -1.403203e-01  7.128748e-03  1.661217e-01  -5.122166e-02  1.063881e-01  6.524741e-02  2.301013e-01  -2.894814e-02  1.680854e-01  1.273943e-01  1.682836e-01  -2.189289e-02  -1.322740e-01  9.760978e-02  -6.405729e-02  -2.384040e-01  -1.456304e-01  -2.083105e-01  5.490021e-02  1.076678e-01  -1.653828e-02  -4.958718e-02  -2.720855e-01  -3.939179e-03  1.139495e-01  -1.240900e-01  -1.170897e-01  7.468250e-02  3.089737e-01  -2.029328e-01  -1.112806e-01  -4.348608e-02  2.148007e-01  9.340569e-02  1.329143e-01  2.860915e-02  -1.751798e-02  4.115322e-02  1.731632e-01  -2.225987e-01  -1.071845e-01  -9.458763e-02  -6.309827e-02  -8.465951e-02  1.849818e-01  -2.994444e-02  -2.102089e-02  -9.783638e-02  2.795541e-02  4.953626e-03  2.391557e-02  -1.502776e-01  4.399370e-02  -1.501796e-01  -2.250633e-02  5.755478e-02  8.478426e-02  -4.666289e-02  -1.787255e-01  -5.844881e-02  -8.116155e-02  -7.810219e-02  -1.438025e-01  1.270503e-01  1.971789e-02  -1.192143e-01  -1.046404e-01  2.508805e-01  4.875511e-02  6.668727e-02  -3.574983e-01  -8.466924e-02  1.910634e-01  1.336436e-01  1.858164e-01  -1.044944e-01  -2.866656e-02  -3.754635e-02  -3.435863e-02  3.672496e-02  -6.865351e-02  -7.905100e-03  -1.281497e-01  8.048882e-02  -1.241417e-01  1.355513e-01  3.880080e-02  -3.154739e-02  -1.902170e-01  -2.721226e-02  -6.314299e-02  -1.008307e-01  8.767556e-02  2.413362e-02  -2.069496e-01  9.834040e-02  1.017393e-01  -1.963212e-04  -1.320479e-01  9.167345e-02  1.740049e-01  -2.834668e-01  1.122518e-01  2.241377e-01  8.662736e-02  -7.138235e-02  -8.576397e-02  -7.682963e-02  9.927589e-02  -1.405361e-01  1.375007e-02  -1.791794e-02  2.451687e-02  2.891973e-02  3.534330e-02  -7.801209e-02  -7.019665e-02  4.246972e-02  -1.253479e-01  -1.984131e-01  -2.877339e-02  -1.908025e-03  -4.068998e-02  -6.564856e-03  4.158980e-02  -1.959031e-01  1.229077e-01  -2.554674e-03  8.504286e-02  -1.251754e-01  4.521019e-02  1.087106e-02  -1.483994e-01  7.338581e-02  -8.148383e-02  -1.199784e-02  -2.439240e-01  -1.239540e-01  2.321421e-02  -2.083350e-01  -8.814299e-03  -4.879315e-02  2.617573e-01  2.279225e-01  4.411036e-02  1.485521e-01  7.351214e-02  -4.263168e-02  1.014234e-01  -8.765142e-02  3.580602e-01  1.224428e-01  -1.917659e-01  1.249508e-01  -2.461593e-02  -5.940998e-02  -1.263296e-02  -7.790787e-02  1.956477e-01  -3.032635e-02  -1.449111e-01  6.375896e-02  -3.275429e-02  -9.963564e-02  1.253513e-01  -8.643191e-02  -1.470334e-01  1.250285e-01  2.595791e-01  3.453061e-02  -1.391969e-02  1.663961e-01  -6.579204e-02  -1.177388e-01  3.548173e-03  -1.298038e-01  1.033713e-01  -7.627773e-02  1.212378e-01  1.418137e-01  5.973798e-02  1.003083e-01  -5.403322e-02  1.451543e-01  2.182637e-02  2.148240e-01  1.812961e-01  5.303120e-02  1.904855e-01  3.392937e-02  -6.049698e-02  -1.398969e-02  -1.018877e-01  1.189647e-01  1.190987e-01  -2.427699e-01  -1.929412e-01  1.468555e-01  1.557617e-01  1.520129e-01  -6.604820e-02  1.879563e-01  -4.143868e-02  -1.349091e-01  -2.718080e-02  4.877689e-02  -7.789142e-02  -1.511000e-01  -2.903122e-02  -1.669592e-01  -3.095250e-02  -9.870190e-02  -7.226828e-02  1.754421e-01  3.160769e-02  -9.980427e-02  -2.705309e-03  1.195630e-01  -1.051481e-01  6.576046e-02  6.817006e-02  2.078290e-01  1.682806e-01  -3.723786e-02  8.965003e-02  -2.458857e-02  -9.236334e-02  -8.269250e-02  -2.435832e-03  1.640623e-01  1.002107e-01  -1.870054e-01  -2.482875e-01  1.675032e-01  2.139378e-01  -2.487417e-01  -7.583442e-03  -3.387004e-03  -1.658874e-01  -5.760991e-02  1.745811e-01  -7.656933e-02  1.011108e-01  -1.074279e-01  1.660308e-01  -1.141144e-01  1.175657e-01  4.004860e-02  -3.847943e-02  3.988376e-02  -5.548033e-02  9.022603e-02  -1.669921e-01  1.899364e-02  -1.237025e-02  -5.736112e-03  5.390942e-02  1.407668e-01  1.079899e-01  -7.730418e-02  1.795250e-02  -8.354099e-02  1.729637e-02  -2.047671e-02  1.983111e-02  3.914155e-02  -2.717627e-02  1.299730e-02  -5.663204e-02  8.384085e-02  4.122619e-02  6.600814e-02  -9.600957e-02  -1.678921e-01  7.481905e-03  1.191370e-01  7.476166e-02  9.964000e-02  -1.240552e-01  -1.250689e-01  1.942895e-01  -4.034301e-02  -9.956887e-02  7.602390e-02  2.464356e-01  3.119883e-02  -2.205797e-01  2.902261e-01  1.369611e-01  -9.668487e-02  -7.113507e-02  1.294868e-01  -1.789959e-01  -4.153084e-02  4.925825e-02  -3.248579e-01  -1.008066e-01  1.279290e-01  -8.763032e-03  1.725566e-01  1.992032e-01  4.636897e-02  8.435437e-02  7.075340e-02  -1.106534e-01  1.292708e-01  -8.707073e-02  5.204735e-02  6.085264e-02  -7.275762e-02  2.604332e-02  -8.998679e-02  -1.469985e-01  -1.354829e-01  -9.389182e-02  -1.357880e-02  -1.662837e-01  -1.274352e-01  -1.628539e-01  4.111500e-03  -7.171721e-03  -6.227344e-02  -9.712225e-02  2.396997e-01  1.577431e-01  2.408511e-02  -2.818089e-01  -2.780420e-01  -1.383083e-01  1.313435e-01  3.041511e-02  7.121536e-02  4.906730e-02  1.435315e-01  1.379918e-02  -2.638516e-01  5.655850e-02  -9.964047e-02  1.004552e-01  -3.431876e-02  -8.008760e-02  -2.806257e-04  -1.131388e-01  1.683273e-02  -7.428522e-02  9.845535e-02  -5.902442e-02  1.880433e-02  -2.896854e-02  -3.803182e-02  1.582725e-01  -1.204925e-01  -1.538949e-01  1.048930e-01  -1.163224e-01  4.383690e-02  4.751846e-02  2.754970e-02  8.108348e-02  -2.061707e-01  -3.498472e-02  3.363743e-02  2.410300e-01  -8.222716e-02  -5.865334e-03  2.131116e-01  1.463387e-01  -5.124890e-02  -5.197663e-02  2.035041e-02  1.466085e-02  -3.347974e-02  -4.242537e-02  -1.319648e-01  2.664824e-01  -1.533024e-01  1.779298e-01  -1.542872e-01  -2.581968e-01  -2.725766e-02  -1.184962e-01  2.223378e-01  1.514512e-01  -1.602822e-02  -7.616160e-02  -5.984556e-02  6.709905e-03  -3.951345e-02  1.875524e-01  -2.658469e-02  6.880759e-02  5.905885e-02  2.797093e-01  -5.878829e-02  -7.540245e-02  6.819493e-02  1.071777e-01  1.496949e-01  8.727328e-02  -1.591308e-01  -3.379437e-02  -1.686395e-01  -6.961121e-02  8.079785e-02  1.633075e-01  -4.341205e-02  -1.083961e-01  5.949660e-02  -3.796028e-03  8.668317e-02  -1.013275e-01  1.669884e-01  1.440087e-01  -9.898321e-03  -2.166402e-01  5.980541e-02  5.226283e-02  -1.210556e-01  2.137694e-01  -1.805321e-01  -8.947539e-02  1.521845e-01  -3.957098e-03  -9.970523e-02  -3.927488e-02  4.010979e-02  2.302738e-01  -7.574268e-02  -5.347650e-02  1.014413e-01  5.131732e-02  1.439649e-01  -3.209662e-02  1.023729e-01  -1.179460e-01  -6.625506e-02  7.221261e-02  -2.217892e-01  -1.799301e-01  -1.188369e-01  -1.095246e-01  -9.009219e-02  4.548623e-02  -5.861720e-02  -3.584960e-03  -9.819064e-02  9.663980e-02  1.517516e-01  -5.178958e-02  4.357692e-02  -4.135523e-02  4.721881e-02  2.265567e-01  1.084265e-01  -2.068248e-01  -1.604981e-01  -1.411756e-01  2.407822e-02  9.456153e-02  -5.637021e-02  6.692643e-02  -6.681009e-02  5.763355e-02  -3.096960e-01  1.961951e-01  -2.909173e-02  7.933871e-02  -1.844416e-02  -3.626276e-03  3.343035e-02  -6.115263e-02  1.232357e-01  1.002123e-01  1.710850e-01  2.121014e-01  5.046166e-02  1.133497e-02  2.028539e-01  2.003910e-01  -4.998507e-02  -1.168638e-01  -4.084163e-02  1.926882e-01  -2.169624e-01  -1.910698e-01  2.738709e-01  -1.892350e-01  -2.633013e-01  -1.954955e-01  1.754926e-01  1.277226e-01  -1.398313e-01  5.747703e-02  1.987007e-01  2.645443e-02  -8.041202e-02  -1.574429e-01  1.555097e-01  1.035067e-01  9.320987e-02  -9.488697e-02  7.996610e-02  1.843764e-01  1.132911e-01  1.004710e-01  -1.498083e-01  -3.622733e-02  1.115996e-02  -9.473010e-02  6.455263e-02  -1.298120e-02  8.138536e-03  -1.404962e-01  2.138577e-02  -1.426855e-01  2.482579e-02  2.470207e-02  -3.244405e-02  1.113736e-01  2.728390e-02  1.167659e-01  -1.577626e-02  -5.704122e-02  2.039052e-01  2.111890e-02  4.236133e-02  4.624329e-02  -1.195754e-01  7.733566e-02  -1.999980e-01  3.683962e-02  1.063564e-01  -9.099516e-02  5.703162e-02  -2.247110e-01  6.688919e-02  1.680162e-01  1.643004e-02  -1.216928e-01  -3.857042e-02  3.048177e-01  -1.864430e-01  -2.169053e-01  4.222610e-02  1.806280e-01  1.112965e-01  -6.648389e-02  7.064802e-02  -2.353801e-01  -7.159238e-02  2.702722e-02  -4.005112e-01  -6.309733e-02  2.244578e-01  2.963175e-02  -8.364604e-02  1.759498e-01  -1.116568e-01  2.392885e-01  1.102664e-01  -2.330202e-01  8.468345e-02  -2.872102e-01  -8.802383e-02  -1.226223e-01  -1.826458e-01  8.570043e-02  -1.821939e-01  -2.468020e-01  -2.415576e-01  -1.634530e-01  -1.460266e-01  -1.000318e-01  -8.800023e-02  -8.270359e-02  9.705679e-03  1.660053e-01  2.377615e-02  -2.014371e-01  1.975581e-01  1.787897e-01  1.118428e-01  -3.972794e-01  -3.363876e-01  -1.185335e-01  -9.772981e-02  4.356347e-02  5.534658e-02  8.285370e-02  -9.821829e-02  -1.956539e-03  1.715137e-01  -7.545425e-02  7.747109e-02  -4.828503e-02  -2.518513e-02  1.111341e-02  9.348863e-02  4.329951e-02  1.696253e-01  -1.398368e-01  3.497483e-03  7.648721e-02  -1.176701e-01  1.243798e-01  -3.941583e-02  -5.337011e-02  -5.701848e-02  -1.404239e-01  -1.519106e-01  -2.150602e-03  -3.140800e-02  2.979494e-02  -1.080457e-01  2.630288e-02  -4.409380e-02  3.619771e-02  1.389560e-02  1.641607e-02  1.417154e-02  -8.477999e-02  -1.293074e-01  -7.149338e-02  1.351653e-01  -1.126894e-02  5.229427e-03  4.650116e-02  -1.094846e-01  1.531324e-01  7.745395e-02  -1.134802e-01  9.600050e-03  -2.555044e-01  1.685238e-01  8.816928e-03  1.403277e-01  3.489492e-02  3.871100e-02  -1.117667e-01  1.761262e-01  -1.758602e-01  1.962750e-02  -2.977086e-02  -9.876739e-02  -1.324541e-01  -5.483244e-02  1.310325e-01  1.427694e-02  -1.093505e-01  8.850309e-02  1.267765e-01  1.798295e-02  5.094129e-02  4.255358e-03  2.471558e-02  6.448586e-02  -1.519784e-01  -9.863772e-03  -1.133817e-02  1.244741e-01  -6.945670e-02  1.716132e-02  7.372706e-02  -5.688693e-02  1.773871e-02  1.322875e-01  3.730770e-02  1.441416e-01  -9.113520e-02  4.114475e-02  2.937140e-01  -1.212628e-01  -3.326926e-02  1.739603e-01  1.513815e-02  1.743449e-01  3.664867e-02  3.385942e-02  -8.844826e-03  2.581223e-02  1.372974e-01  8.524439e-02  5.866910e-02  1.799197e-01  -6.000916e-02  -2.155680e-01  -9.151630e-02  9.735932e-02  2.626659e-02  1.435665e-01  1.165303e-01  6.383295e-02  1.295788e-01  2.326996e-01  -4.639205e-02  1.503648e-01  -2.439854e-03  1.088962e-01  3.332260e-02  -1.218262e-02  1.994315e-02  1.086406e-01  -1.138707e-01  -1.401346e-01  -1.750012e-01  -6.569675e-02  -9.740688e-02  -4.667466e-02  9.484097e-02  -2.774621e-03  6.081850e-02  2.195598e-01  2.497026e-02  -1.374764e-01  -8.633789e-02  1.920308e-01  -8.119045e-02  1.034019e-01  1.120259e-01  -1.510673e-01  1.735832e-01  -3.587998e-02  1.846320e-01  3.837086e-02  -1.491519e-02  -1.796139e-01  -2.865727e-02  5.172050e-02  7.943300e-02  -3.799896e-02  1.693577e-01  1.779043e-01  2.649719e-02  1.965240e-01  1.545554e-01  -1.865757e-01  6.896991e-02  -1.453255e-01  7.654502e-02  7.549334e-02  -2.845967e-02  2.422101e-01  3.834076e-03  -1.507636e-01  -1.398089e-01  6.785790e-02  2.160344e-01  -2.811168e-02  -2.438477e-01  2.554279e-01  -2.260489e-02  -1.556682e-01  -8.812451e-02  -6.330215e-02  5.809637e-02  -1.737955e-01  7.421299e-02  -1.010313e-01  2.841469e-01  -1.525099e-02  1.013078e-01  1.264549e-01  -1.888545e-01  -1.062899e-01  -4.157764e-02  -1.246008e-01  1.393049e-01  -7.091133e-02  -8.368650e-02  6.692336e-02  -6.747562e-02  -1.074934e-01  2.403173e-01  -7.839908e-02  1.173504e-01  -1.574299e-01  4.113275e-01  8.326027e-02  -9.994517e-02  1.699411e-01  9.163110e-02  1.105981e-01  -8.311235e-02  -1.212501e-01  1.211597e-01  -1.654806e-01  -1.189274e-01  -3.332989e-04  1.089565e-01  -9.500229e-02  -1.154669e-01  9.329653e-02  7.903820e-02  -7.782778e-02  -1.142012e-01  3.648651e-02  1.973742e-01  -1.086578e-01  -3.850703e-01  -4.477780e-02  -3.808439e-02  8.130821e-02  -1.204152e-01  2.648811e-03  -1.064338e-01  1.160362e-01  -9.899081e-02  -1.815290e-01  -2.641483e-01  1.092564e-01  2.571394e-02  -6.742817e-03  1.971035e-02  -5.739528e-02  1.485889e-01  1.660171e-01  9.085045e-03  -1.158357e-01  -5.331267e-02  2.157186e-02  1.509733e-02  -3.211680e-02  1.180669e-01  -8.097742e-02  -3.367000e-02  -2.414883e-01  2.272108e-02  -9.359808e-02  -1.707860e-01  1.604556e-01  -1.682170e-01  6.716508e-02  2.215994e-01  -8.441153e-03  -4.197909e-02  6.488626e-02  5.623040e-02  1.321448e-01  -3.236475e-01  -3.585621e-01  -1.289091e-01  1.518853e-01  -7.224647e-02  9.864048e-02  5.123166e-02  -9.616917e-02  6.265519e-02  -1.079795e-01  7.297572e-02  -4.079672e-02  5.034215e-02  -1.148236e-01  -3.261408e-03  -1.845427e-02  -6.428171e-02  -1.756572e-01  1.959592e-01  2.685590e-02  9.538990e-02  -4.029349e-02  1.259162e-01  1.545828e-01  -1.249373e-01  9.822813e-02  -7.035859e-02  8.405562e-02  2.115728e-02  -6.493087e-02  -9.029022e-02  -6.634618e-02  -1.251520e-02  9.874547e-02  7.428363e-03  1.391190e-02  1.484256e-01  -8.971852e-02  3.250817e-02  9.612480e-02  2.520703e-02  -6.970481e-02  1.179881e-02  -1.898239e-02  -7.308265e-03  -8.553024e-02  3.434054e-02  1.450226e-02  4.532245e-02  1.674396e-01  -7.256059e-02  -1.429387e-01  1.064202e-01  -1.190436e-01  2.571516e-02  -4.057545e-02  -1.029031e-01  1.066310e-02  -1.473657e-02  -5.524578e-02  1.259059e-01  8.260395e-02  4.305862e-02  -1.801119e-01  -4.508055e-02  -1.782383e-01  1.600778e-01  -9.220652e-02  4.432004e-02  2.017301e-02  1.105301e-01  1.128209e-01  -1.065689e-01  1.397351e-01  -1.570044e-01  -1.042418e-01  1.761336e-01  -9.011703e-02  -8.834063e-02  1.479463e-02  -2.063254e-01  1.155768e-01  -5.026532e-02  -7.956538e-02  2.120181e-03  1.260293e-01  -8.807669e-02  7.046628e-02  -1.124298e-01  2.152318e-01  9.359086e-02  -1.852495e-01  6.481172e-02  -1.531383e-02  -6.260034e-02  -1.093861e-01  -9.724964e-02  7.552911e-03  1.274338e-02  6.124767e-02  -6.309112e-03  1.126956e-01  4.671029e-02  -3.774512e-02  -2.554584e-02  -4.420297e-02  -1.060226e-02  6.468774e-02  -1.097748e-01  1.655507e-01  8.069678e-03  9.336914e-02  -4.686063e-02  -1.052359e-01  1.500556e-02  1.206822e-01  4.608944e-02  -1.740164e-01  4.407571e-02  6.923719e-02  5.369282e-02  1.100071e-01  1.787718e-01  -1.698242e-01  -2.141118e-01  1.005658e-01  -9.466914e-03  -7.364224e-02  -2.509710e-01  -8.487153e-02  1.127365e-01  9.904138e-02  -3.214399e-02  -1.129263e-01  -8.366384e-02  1.032190e-01  5.361974e-04  1.964699e-01  -1.560157e-01  -7.489362e-02  1.010118e-01  1.118901e-01  -9.395777e-02  1.812645e-01  9.039168e-02  -3.056468e-02  1.118373e-01  -1.046887e-01  -1.854676e-01  -1.618654e-01  -5.525714e-02  1.655809e-02  -2.435976e-01  3.063550e-03  -1.198028e-01  8.687977e-02  -2.697767e-01  1.567818e-01  4.474660e-02  -1.255462e-01  -1.295573e-01  2.372107e-01  3.969538e-02  -2.362047e-01  -3.219763e-01  1.701571e-01  5.661772e-02  -1.928088e-01  1.059074e-01  -5.657194e-02  1.257243e-01  7.428508e-02  -1.603793e-02  -8.657821e-02  1.052604e-01  -3.635174e-02  -1.727584e-01  1.705558e-03  -1.020992e-01  -1.833448e-01  2.309469e-01  -4.593037e-02  5.769902e-02  -1.168819e-01  -2.125141e-02  1.498086e-01  -4.033895e-02  -7.992782e-02  -2.071829e-02  -3.740268e-02  -1.030511e-01  1.931853e-03  -1.042210e-01  1.732330e-01  -3.033721e-01  -1.066515e-02  -8.361767e-02  -1.234562e-01  -3.196694e-02  -2.863601e-02  -3.356122e-02  2.606845e-01  1.138094e-01  2.974835e-01  -1.229635e-01  -5.893495e-02  8.377258e-02  1.763808e-01  1.493862e-01  1.173181e-01  -2.008979e-01  -5.896204e-02  5.476854e-02  -1.654934e-01  -2.291386e-01  5.660523e-02  1.314536e-01  -1.900965e-01  -7.703356e-02  -1.051108e-02  -1.084037e-01  -1.046791e-01  1.114818e-01  -5.880891e-02  1.072966e-01  1.172400e-01  2.854036e-01  -1.733341e-01  -1.903031e-02  7.963403e-03  -3.540608e-03  1.033685e-01  -7.712001e-02  -1.535345e-01  5.862730e-02  1.487108e-01  1.772695e-02  1.341664e-01  1.659379e-01  3.404970e-02  -8.341923e-02  2.370295e-02  2.828705e-02  2.730990e-01  -3.184027e-02  4.256818e-02  -4.528514e-02  -2.669914e-02  -4.133918e-02  -1.801336e-01  -1.816154e-01  -1.702547e-01  5.317981e-02  -1.343754e-01  -2.198917e-01  -7.296290e-02  2.945349e-01  3.670661e-01  -1.181169e-02  5.386665e-02  -1.200372e-01  7.465842e-02  -3.089094e-02  -1.449035e-01  -9.905170e-02  -2.311226e-01  9.087280e-02  7.259814e-02  1.183353e-02  1.049411e-02  1.079272e-01  3.978645e-02  -9.187882e-02  2.384943e-02  4.159698e-02  9.538257e-02  1.346166e-01  -2.060161e-02  -6.007440e-03  1.454685e-01  1.947212e-01  -1.686281e-01  5.828836e-02  -1.221441e-01  7.633443e-02  7.992943e-02  5.053861e-02  8.631618e-02  4.362714e-02  -9.464630e-02  -5.011286e-02  6.154399e-02  2.633234e-01  7.912242e-02  4.590035e-03  -1.153562e-02  -2.293222e-02  -1.809515e-01  -1.680521e-01  1.187738e-01  -8.930130e-02  -9.831742e-02  -1.230879e-01  9.046674e-02  2.443590e-01  -1.170055e-01  1.205761e-01  -5.813055e-02  -2.244291e-01  -1.949098e-01  -6.698857e-02  -3.181717e-02  -1.129286e-01  1.072725e-01  -8.485801e-02  7.775471e-02  -8.887078e-03  1.474988e-02  5.106001e-02  4.654706e-02  -5.004004e-02  6.182019e-03  1.343826e-01  5.099553e-02  2.298929e-02  6.785221e-03  -3.851817e-02  -5.652002e-02  4.227041e-02  -1.209928e-01  1.335906e-01  -1.087270e-01  6.450939e-02  1.314090e-01  -7.861877e-02  1.377740e-01  -1.798671e-01  1.062407e-01  1.096630e-01  -1.589877e-01  5.887866e-02  -6.238582e-03  1.398447e-02  5.064788e-02  -2.060837e-01  4.742957e-02  -4.061349e-02  -1.714764e-01  1.434441e-02  4.326762e-02  -1.904338e-01  -1.545074e-01  8.502720e-02  -2.227086e-01  -1.512078e-01  -5.296377e-02  1.791089e-01  -1.002219e-01  -1.038488e-01  1.044849e-01  7.216512e-02  9.751219e-02  -2.468703e-03  -1.289737e-01  -1.725808e-01  -2.630950e-02  -7.340178e-02  5.314826e-02  7.436900e-02  9.244985e-02  -1.692173e-01  1.538733e-01  -1.393045e-01  -2.264813e-03  1.438808e-02  -1.093590e-01  -1.058906e-01  -1.372453e-01  1.797642e-02  2.765547e-02  -2.180921e-02  7.944988e-02  1.977416e-01  -1.503320e-01  -1.169907e-01  -1.759234e-01  -6.745969e-03  8.078008e-02  -1.120384e-02  -1.490535e-02  2.293101e-02  2.419164e-02  -1.796701e-01  1.274869e-01  -2.200786e-01  1.837415e-02  5.240305e-03  4.985214e-02  -1.324856e-01  1.390576e-01  8.077253e-02  -1.584948e-01  6.667847e-02  -1.427369e-01  -8.816490e-03  7.480640e-02  4.344745e-02  -5.609653e-02  -8.668579e-04  6.264322e-02  5.714182e-02  1.825079e-01  -3.095730e-02  9.533659e-02  -8.935925e-02  -1.492621e-01  7.256375e-02  2.616982e-01  4.189435e-02  -1.233239e-01  -1.621666e-01  2.572905e-02  3.965232e-02  -2.223649e-02  1.305201e-01  2.762731e-01  1.789567e-01  -5.943375e-02  3.054611e-02  -1.108797e-01  3.781079e-02  1.135494e-01  -2.224537e-01  -8.183547e-02  -3.047872e-01  -7.853287e-02  2.357703e-01  1.073113e-01  3.096493e-02  -1.932527e-01  -1.364179e-01  -8.443649e-02  8.900747e-02  8.570569e-02  6.488827e-02  -3.194202e-02  -9.885032e-02  -1.817932e-02  3.707784e-02  1.447514e-01  -6.661683e-02  2.541848e-02  -2.064744e-01  5.321718e-03  7.080378e-02  -9.854677e-02  2.087422e-01  -1.562831e-02  1.546204e-02  3.021993e-01  1.401957e-02  -1.370137e-01  -4.990350e-02  7.647917e-02  3.417694e-01  -5.234566e-02  -3.537803e-01  1.802263e-01  1.480606e-01  -1.818381e-02  -3.049401e-01  1.306031e-02  2.899431e-01  5.342695e-02  -5.306424e-02  -8.903732e-02  -3.127238e-02  -1.201984e-01  1.921980e-01  -6.103827e-02  1.990246e-01  2.937138e-01  2.055310e-01  -1.200866e-01  -1.453341e-01  7.112794e-02  -2.157854e-01  1.922396e-02  -2.062749e-01  -1.968082e-01  6.629523e-02  1.120834e-01  3.666396e-01  8.293760e-02  2.628665e-02  1.285521e-01  1.122322e-01  2.771033e-01  9.645270e-02  9.347404e-02  1.738617e-01  -5.749170e-02  1.557813e-01  -9.294046e-02  -4.914134e-02  -6.106838e-02  -3.707642e-02  1.439974e-01  9.474513e-02  -7.954892e-02  -1.327693e-01  7.552303e-02  4.155258e-01  1.027460e-01  -6.778125e-02  1.616740e-01  1.260909e-01  7.821469e-02  -7.776184e-02  4.000868e-02  2.495158e-02  1.449272e-02  -9.112392e-02  9.652460e-02  -1.583110e-01  -2.815014e-01  5.049092e-02  -6.396921e-02  -7.460479e-02  -4.532744e-03  1.287012e-01  1.014561e-01  6.387427e-02  -1.318601e-01  -8.511811e-02  -7.649173e-02  3.825076e-02  2.328753e-02  7.703768e-02  -4.149049e-02  2.146331e-01  -5.334450e-02  7.882425e-02  6.517343e-02  2.783562e-02  7.442674e-02  2.015058e-02  -4.416530e-02  1.572370e-01  -1.035665e-01  -1.124985e-01  4.126885e-02  1.512544e-01  -6.575115e-02  -1.494783e-01  1.389911e-01  5.414972e-02  -1.029100e-01  1.347645e-01  6.037635e-02  -6.034555e-02  1.849528e-01  1.958898e-01  -6.060525e-02  4.705979e-02  6.763916e-02  1.729519e-02  1.060383e-01  6.300517e-02  5.898258e-03  1.682068e-01  -8.567104e-02  -7.948999e-02  -7.214606e-02  -6.277411e-02  9.953978e-02  1.062489e-01  -4.843710e-02  -2.438967e-02  8.401995e-02  -1.025661e-01  -8.737897e-02  4.063610e-02  1.035096e-01  9.920402e-02  -1.091338e-02  7.037407e-02  1.352166e-01  -4.569673e-02  -1.346359e-01  1.040026e-01  -1.466939e-01  -1.534405e-01  -6.897993e-02  6.215398e-02  4.231873e-02  -1.349682e-02  -2.918731e-02  1.103893e-02  -5.914907e-02  -6.840945e-02  -8.724876e-02  4.454786e-02  -1.080329e-01  1.923458e-01  4.781266e-02  -1.022207e-01  6.658973e-02  5.314835e-03  -1.381172e-02  8.736750e-02  -8.350732e-02  4.953163e-03  8.774600e-02  1.298969e-02  -8.876272e-02  1.365711e-01  1.098828e-01  2.715323e-02  -8.929511e-02  -2.112017e-02  -5.307337e-02  -1.029864e-01  -1.962619e-01  -7.299430e-02  -5.830488e-02  2.381192e-02  1.542438e-01  -3.455907e-02  -1.195129e-01  -5.159222e-02  -1.184914e-01  1.274557e-01  -7.948274e-02  1.385205e-01  1.917152e-01  2.060270e-01  8.341039e-02  3.780277e-02  -1.296840e-01  1.742485e-03  -2.516760e-01  -3.690373e-02  -3.718050e-02  2.741745e-02  4.353435e-02  -3.681992e-02  -1.418323e-02  -1.821595e-03  1.385211e-01  -2.611882e-01  1.140536e-01  -1.154983e-01  -2.157324e-01  -2.941197e-02  4.985890e-02  1.339660e-01  -9.194923e-02  -8.498906e-02  -1.397686e-01  2.453258e-03  -3.454831e-02  -5.203136e-03  1.481060e-01  -6.147433e-02  -1.593941e-01  -5.745683e-02  1.261707e-01  6.884346e-02  1.138988e-01  8.054177e-02  -5.883671e-02  1.169944e-01  1.240480e-01  2.325766e-01  -4.195687e-02  -5.792472e-02  5.501054e-02  1.189305e-01  -1.265642e-01  1.106106e-01  -1.349036e-02  2.010659e-01  -1.101020e-01  9.463826e-02  4.330160e-02  -1.209928e-01  7.367016e-02  -6.920971e-02  -1.165085e-01  3.514851e-02  -6.327065e-02  -6.108708e-03  -4.176141e-02  9.607058e-02  -1.434135e-01  -1.037994e-01  -5.111693e-02  1.499476e-01  -1.569905e-01  6.798803e-02  1.421429e-01  -9.668206e-02  4.253165e-02  1.728271e-01  -8.125207e-02  6.350463e-03  1.521252e-01  4.991711e-02  1.315862e-01  3.671251e-02  -1.290147e-01  8.306717e-03  1.605478e-02  -1.679732e-01  -6.127018e-03  4.749542e-02  1.394166e-01  1.456338e-01  1.082055e-01  2.300194e-01  -9.991473e-02  5.055894e-02  3.505522e-02  5.193152e-02  -1.682680e-02  -6.637730e-02  1.209991e-01  1.198828e-01  2.785414e-02  -1.039592e-01  -1.588718e-02  1.310689e-01  9.274289e-02  5.776478e-02  1.621024e-02  3.352939e-02  8.770685e-02  -4.768938e-02  -3.500278e-02  -1.991844e-02  -5.662974e-02  -3.491932e-02  -8.088980e-03  -1.391181e-01  4.661898e-02  -3.608482e-02  -6.837939e-02  1.958578e-01  -7.741859e-03  -1.852457e-01  1.091993e-01  -1.254522e-01  1.135474e-01  -8.664127e-02  1.962337e-02  1.263867e-01  -3.787740e-03  -1.476653e-01  -9.292954e-02  7.877749e-02  4.957238e-02  -3.281891e-02  1.110346e-01  -1.036122e-01  -3.717855e-02  -7.398920e-03  1.140756e-01  -1.474863e-02  -1.746832e-01  8.546361e-02  1.309879e-01  3.290702e-02  -1.301401e-01  5.553583e-02  -3.836529e-02  1.284612e-01  -1.355890e-02  -1.862565e-02  -1.086308e-01  -5.248403e-02  1.225756e-01  2.207407e-01  5.319829e-02  1.008330e-01  -4.021209e-02  -2.101169e-02  -4.737898e-02  7.996775e-02  -1.211270e-01  -8.808022e-02  7.685661e-02  -4.032196e-02  1.295644e-01  2.830708e-02  1.154995e-01  1.137652e-01  1.333196e-02  -1.845535e-01  2.206156e-02  -5.279256e-02  -2.118637e-01  4.267684e-04  -2.763599e-02  1.594414e-01  8.523400e-02  -1.003760e-02  1.766950e-01  -4.224169e-02  -2.131372e-01  -2.031799e-01  1.820114e-01  1.733804e-01  1.790721e-03  -1.015837e-01  6.111996e-02  -6.089184e-03  -7.134118e-02  1.991787e-01  8.903055e-02  -7.387021e-02  -8.929673e-02  6.577701e-02  1.576831e-01  1.203695e-01  6.471503e-02  6.860174e-03  6.123305e-02  -3.946909e-02  -3.653381e-02  1.170380e-01  1.182674e-01  1.157253e-01  2.486664e-02  7.770927e-02  1.267212e-01  1.164552e-01  8.791251e-03  -1.142077e-01  -2.399994e-02  -1.240364e-01  -1.153004e-01  -8.488345e-02  -8.970028e-02  -9.656728e-02  1.254161e-01  1.537731e-01  1.014513e-01  -9.767394e-02  5.374178e-02  3.108611e-02  -2.829445e-02  -1.640511e-01  8.124252e-02  9.311131e-02  -1.580031e-01  -2.672928e-01  1.885160e-01  1.702972e-01  1.490291e-01  6.826323e-03  1.322636e-01  -1.458394e-01  -5.257371e-02  -1.699217e-01  -2.799339e-01  -6.975731e-02  1.862347e-01  1.507391e-01  8.223959e-02  1.025618e-01  1.824679e-01  2.710862e-02  1.748264e-01  -3.025388e-02  5.574062e-02  -3.395012e-02  -1.367697e-01  9.637280e-02  -2.640399e-01  1.231338e-01  -2.111478e-01  -1.104439e-01  -2.080125e-02  1.007839e-02  5.758539e-02  1.497946e-02  3.714867e-02  -1.818207e-02  2.753347e-02  3.828217e-02  -1.487703e-01  9.885162e-02  8.327180e-02  1.356722e-01  -2.741697e-02  -2.822479e-01  -3.119515e-01  -5.510913e-02  1.045769e-02  6.152297e-03  -8.724342e-02  -1.484501e-01  -3.160935e-02  -1.603873e-01  1.469443e-01  -1.036333e-01  -7.546893e-02  4.990192e-02  8.118314e-02  -8.011448e-02  -3.108332e-02  -4.154088e-02  -1.796012e-02  -1.032835e-01  6.915077e-02  -2.625121e-01  -4.976759e-02  2.607166e-02  8.077957e-06  -2.012166e-01  5.540402e-02  -1.178671e-01  -9.571300e-02  -1.583140e-01  -1.067985e-01  1.145125e-01  -2.978039e-01  1.095549e-01  1.995006e-01  8.578265e-02  7.661299e-03  -1.546073e-01  3.100876e-02  1.697319e-01  -4.335743e-02  -1.112326e-01  -2.000571e-02  8.654407e-02  -1.663703e-01  -1.094681e-01  1.352854e-02  1.190991e-01  1.261785e-02  -1.573776e-01  7.685960e-02  -2.275813e-01  6.833043e-02  2.369098e-01  1.009399e-01  -3.674726e-02  -3.602665e-02  -1.461027e-01  8.648489e-02  7.030348e-02  -7.509919e-02  1.004420e-01  7.678107e-02  -1.103747e-01  7.961112e-02  2.078678e-02  1.684213e-01  -3.417770e-01  -1.059863e-01  2.858557e-03  -1.880932e-01  -1.531404e-01  1.365286e-01  -6.254478e-03  2.883952e-02  -9.513932e-02  5.041836e-02  2.750451e-02  -1.297577e-01  4.075217e-02  1.014626e-01  2.176787e-01  -1.264779e-01  -1.974759e-01  -3.528589e-02  -5.538911e-02  3.611568e-02  -3.022493e-01  1.036162e-01  3.014517e-01  -9.758833e-02  -2.006974e-01  1.267128e-01  -9.388971e-02  6.948115e-03  -3.872373e-02  -9.241538e-02  8.529804e-03  3.997125e-02  3.000851e-01  -9.938940e-02  5.890857e-02  9.858365e-02  -6.879044e-02  -1.166676e-02  6.855724e-03  -2.109782e-01  -7.574206e-03  -1.822782e-02  1.928620e-01  7.773615e-02  -5.269795e-02  2.643008e-01  -8.286373e-02  8.102733e-02  -4.859961e-02  -1.884477e-03  1.841443e-01  1.701719e-02  5.582603e-02  -5.795432e-02  1.717381e-02  -1.778268e-01  2.499668e-02  6.959447e-02  6.722092e-02  -2.845471e-02  2.988424e-02  -7.696507e-03  2.272265e-01  3.560652e-01  1.344123e-01  -4.799327e-02  -7.000344e-02  -1.692466e-01  1.452392e-01  2.004896e-01  2.941273e-02  1.458243e-01  -1.369496e-01  6.119490e-02  6.823708e-02  -9.187567e-02  -1.975522e-01  3.142355e-02  -6.314095e-02  1.200679e-01  9.209349e-02  4.515412e-02  -5.900398e-02  1.348100e-01  -1.523953e-01  -4.983954e-02  -2.231210e-02  -1.241252e-01  3.208848e-02  1.041600e-01  6.004945e-02  -1.221425e-01  -3.279440e-03  -1.443811e-01  1.523026e-01  1.208191e-01  2.084223e-01  -1.942632e-01  3.216365e-02  1.043510e-01  1.323959e-02  -5.205168e-02  1.263866e-01  1.121261e-01  1.249198e-01  7.320481e-02  4.643630e-02  -4.621148e-02  2.249832e-02  1.478066e-02  -4.631850e-03  1.355170e-01  -1.214637e-01  1.301762e-01  1.575149e-01  -4.473680e-02  -1.400254e-01  -9.126204e-02  -1.004209e-01  9.434533e-02  3.043675e-02  -7.936696e-02  -9.078807e-02  -1.009158e-01  -1.032704e-01  1.994732e-02  1.059976e-01  -5.299867e-02  -1.149209e-01  6.593730e-02  -7.285734e-02  -1.254010e-01  2.086155e-02  -3.980475e-02  1.765448e-01  -3.298129e-02  3.584370e-02  -3.091903e-02  3.931093e-02  1.188838e-01  4.366332e-02  5.534140e-02  8.345654e-02  -7.161696e-02  3.743039e-02  3.177911e-02  2.003254e-02  -9.541336e-02  -5.100965e-02  1.183609e-01  2.944661e-02  6.624085e-02  -8.029092e-02  -1.334978e-01  1.436774e-01  -9.055905e-02  1.626126e-01  -8.089785e-02  -2.847761e-02  1.614399e-01  1.052507e-01  -6.773992e-03  -2.956907e-02  -9.713731e-02  -6.165794e-02  -7.491042e-03  1.115194e-02  -1.661409e-01  -7.808274e-03  7.861706e-02  1.088870e-01  -6.654705e-02  