<?xml version="1.0"?>
<MethodSetup Method="MLP::MLPBNN">
  <GeneralInfo>
    <Info name="TMVA Release" value="4.2.1 [262657]"/>
    <Info name="ROOT Release" value="6.26/10 [399882]"/>
    <Info name="Creator" value="arthur"/>
    <Info name="Date" value="Tue Feb 14 10:20:36 2023"/>
    <Info name="Host" value="Darwin Mac-1668701082454.local 20.6.0 Darwin Kernel Version 20.6.0: Thu Sep 29 20:15:11 PDT 2022; root:xnu-7195.141.42~1/RELEASE_X86_64 x86_64"/>
    <Info name="Dir" value="/Users/arthur/Documents/private/coding/root/tmva"/>
    <Info name="Training events" value="2000"/>
    <Info name="TrainingTime" value="1.57987690e+00"/>
    <Info name="AnalysisType" value="Classification"/>
  </GeneralInfo>
  <Options>
    <Option name="NCycles" modified="Yes">60</Option>
    <Option name="HiddenLayers" modified="Yes">N+5</Option>
    <Option name="NeuronType" modified="Yes">tanh</Option>
    <Option name="RandomSeed" modified="No">1</Option>
    <Option name="EstimatorType" modified="No">CE</Option>
    <Option name="NeuronInputType" modified="No">sum</Option>
    <Option name="V" modified="Yes">False</Option>
    <Option name="VerbosityLevel" modified="No">Default</Option>
    <Option name="VarTransform" modified="Yes">N</Option>
    <Option name="H" modified="Yes">True</Option>
    <Option name="CreateMVAPdfs" modified="No">False</Option>
    <Option name="IgnoreNegWeightsInTraining" modified="No">False</Option>
    <Option name="TrainingMethod" modified="Yes">BFGS</Option>
    <Option name="LearningRate" modified="No">2.000000e-02</Option>
    <Option name="DecayRate" modified="No">1.000000e-02</Option>
    <Option name="TestRate" modified="Yes">5</Option>
    <Option name="EpochMonitoring" modified="No">False</Option>
    <Option name="Sampling" modified="No">1.000000e+00</Option>
    <Option name="SamplingEpoch" modified="No">1.000000e+00</Option>
    <Option name="SamplingImportance" modified="No">1.000000e+00</Option>
    <Option name="SamplingTraining" modified="No">True</Option>
    <Option name="SamplingTesting" modified="No">False</Option>
    <Option name="ResetStep" modified="No">50</Option>
    <Option name="Tau" modified="No">3.000000e+00</Option>
    <Option name="BPMode" modified="No">sequential</Option>
    <Option name="BatchSize" modified="No">-1</Option>
    <Option name="ConvergenceImprove" modified="No">1.000000e-30</Option>
    <Option name="ConvergenceTests" modified="No">-1</Option>
    <Option name="UseRegulator" modified="Yes">True</Option>
    <Option name="UpdateLimit" modified="No">10000</Option>
    <Option name="CalculateErrors" modified="No">False</Option>
    <Option name="WeightRange" modified="No">1.000000e+00</Option>
  </Options>
  <Variables NVar="4">
    <Variable VarIndex="0" Expression="var1+var2" Label="myvar1" Title="myvar1" Unit="" Internal="myvar1" Type="F" Min="-9.31873512e+00" Max="7.53042316e+00"/>
    <Variable VarIndex="1" Expression="var1-var2" Label="myvar2" Title="Expression 2" Unit="" Internal="myvar2" Type="F" Min="-3.70671988e+00" Max="4.02912045e+00"/>
    <Variable VarIndex="2" Expression="var3" Label="var3" Title="Variable 3" Unit="units" Internal="var3" Type="F" Min="-5.05078554e+00" Max="4.33005810e+00"/>
    <Variable VarIndex="3" Expression="var4" Label="var4" Title="Variable 4" Unit="units" Internal="var4" Type="F" Min="-5.82962179e+00" Max="5.03067923e+00"/>
  </Variables>
  <Spectators NSpec="2">
    <Spectator SpecIndex="0" Expression="var1*2" Label="spec1" Title="Spectator 1" Unit="units" Internal="spec1" Type="F" Min="-9.14904976e+00" Max="9.52782059e+00"/>
    <Spectator SpecIndex="1" Expression="var1*3" Label="spec2" Title="Spectator 2" Unit="units" Internal="spec2" Type="F" Min="-1.37235746e+01" Max="1.42917309e+01"/>
  </Spectators>
  <Classes NClass="2">
    <Class Name="Signal" Index="0"/>
    <Class Name="Background" Index="1"/>
  </Classes>
  <Transformations NTransformations="1">
    <Transform Name="Normalize">
      <Selection>
        <Input NInputs="4">
          <Input Type="Variable" Label="myvar1" Expression="var1+var2"/>
          <Input Type="Variable" Label="myvar2" Expression="var1-var2"/>
          <Input Type="Variable" Label="var3" Expression="var3"/>
          <Input Type="Variable" Label="var4" Expression="var4"/>
        </Input>
        <Output NOutputs="4">
          <Output Type="Variable" Label="myvar1" Expression="var1+var2"/>
          <Output Type="Variable" Label="myvar2" Expression="var1-var2"/>
          <Output Type="Variable" Label="var3" Expression="var3"/>
          <Output Type="Variable" Label="var4" Expression="var4"/>
        </Output>
      </Selection>
      <Class ClassIndex="0">
        <Ranges>
          <Range Index="0" Min="-5.1623420715332031e+00" Max="5.5480084419250488e+00"/>
          <Range Index="1" Min="-3.7067198753356934e+00" Max="4.0291204452514648e+00"/>
          <Range Index="2" Min="-2.6928036212921143e+00" Max="3.8698983192443848e+00"/>
          <Range Index="3" Min="-2.9492409229278564e+00" Max="4.2669730186462402e+00"/>
        </Ranges>
      </Class>
      <Class ClassIndex="1">
        <Ranges>
          <Range Index="0" Min="-9.3187351226806641e+00" Max="7.5304231643676758e+00"/>
          <Range Index="1" Min="-3.4552407264709473e+00" Max="3.9897418022155762e+00"/>
          <Range Index="2" Min="-5.0507855415344238e+00" Max="4.3300580978393555e+00"/>
          <Range Index="3" Min="-5.8296217918395996e+00" Max="5.0306792259216309e+00"/>
        </Ranges>
      </Class>
      <Class ClassIndex="2">
        <Ranges>
          <Range Index="0" Min="-9.3187351226806641e+00" Max="7.5304231643676758e+00"/>
          <Range Index="1" Min="-3.7067198753356934e+00" Max="4.0291204452514648e+00"/>
          <Range Index="2" Min="-5.0507855415344238e+00" Max="4.3300580978393555e+00"/>
          <Range Index="3" Min="-5.8296217918395996e+00" Max="5.0306792259216309e+00"/>
        </Ranges>
      </Class>
    </Transform>
  </Transformations>
  <MVAPdfs/>
  <Weights>
    <Layout NLayers="3">
      <Layer Index="0" NNeurons="5">
        <Neuron NSynapses="9">
          1.2343259466164749e+00 1.8974873790251792e+00 7.8465692983976254e-01 -5.9836282572986743e-01 -3.1061027135984416e+00 -8.5503676028613873e-01 -3.7320116629568340e-01 2.8455456995891697e+00 -1.7739964342371664e+00 
        </Neuron>
        <Neuron NSynapses="9">
          -6.4569777113071991e-01 -1.4562170887280055e+00 -5.2940497677503240e-01 -2.0678695531382534e+00 -3.3969086191309206e-01 -1.4304179963107055e+00 3.1895113946082704e-01 -4.6091544004603113e-01 1.1157644987517323e+00 
        </Neuron>
        <Neuron NSynapses="9">
          7.4335662674105030e-01 1.4035354663259256e+00 -2.5434725319180734e-01 -1.4357323612868089e+00 -8.3062416851246146e-01 1.2644906165613681e+00 -6.9685884900989559e-01 -4.2264862369859976e-02 1.8014805066204533e+00 
        </Neuron>
        <Neuron NSynapses="9">
          -2.6530114028260865e+00 -1.6354423983164588e+00 5.6600671517273471e-01 1.6803495571522964e+00 4.6122887224196454e+00 1.8171661583102405e+00 5.8076307900433599e-01 2.5676379546827510e-01 1.5809655455816594e+00 
        </Neuron>
        <Neuron NSynapses="9">
          -2.6304337748030232e-01 2.4622504246573893e+00 -9.6759959614900637e-01 -7.0396087316816416e-02 -5.3963628846090483e-01 1.2808155035382904e+00 2.5615429889266852e+00 5.1127063888484625e-01 -7.4009698410400324e-02 
        </Neuron>
      </Layer>
      <Layer Index="1" NNeurons="10">
        <Neuron NSynapses="1">
          -3.1043327907439098e+00 
        </Neuron>
        <Neuron NSynapses="1">
          6.6858690882249838e-01 
        </Neuron>
        <Neuron NSynapses="1">
          1.4500990867840724e-01 
        </Neuron>
        <Neuron NSynapses="1">
          1.7752490911020351e+00 
        </Neuron>
        <Neuron NSynapses="1">
          6.1468406043664370e+00 
        </Neuron>
        <Neuron NSynapses="1">
          1.7618486237459494e+00 
        </Neuron>
        <Neuron NSynapses="1">
          1.5664041777972746e+00 
        </Neuron>
        <Neuron NSynapses="1">
          -1.7605725685918816e+00 
        </Neuron>
        <Neuron NSynapses="1">
          5.9256156738694243e-01 
        </Neuron>
        <Neuron NSynapses="1">
          -1.0150005651274403e+00 
        </Neuron>
      </Layer>
      <Layer Index="2" NNeurons="1">
        <Neuron NSynapses="0"/>
      </Layer>
    </Layout>
    <InverseHessian NElements="3025" NRows="55" NCols="55">
      <Row Index="0">
        4.0887118485897844e+01 1.3805360010258894e+01 9.6494608101041266e+01 -8.0042415614970306e+00 1.9955025293583839e+00 3.5779049012998643e+00 3.6965013592214558e+02 -2.7402944855682343e-01 3.0676766840843722e+01 6.2244801764277313e-01 -1.3507844452923572e+02 -2.6366730258861779e+01 -8.5485787788116845e+00 7.8844775639955278e-01 6.6993401946699982e-01 6.5087030848368471e+01 -1.9244159868415909e+00 2.8208749921899958e+00 7.1791006757518829e+00 9.8027276851693784e+01 -5.9864727660522369e+01 -1.4015598890195998e+01 9.9502955411213445e-01 -1.3727730759373316e+00 1.0770860828248966e+02 2.3133908612517087e+00 2.2398446043426283e+01 -5.1399518140134283e+01 7.4752030754739394e+01 -8.8384046410214495e+01 2.2728754407611351e+01 -1.4093957171965288e+00 9.4218740854144778e-02 -2.8018029737637562e+02 4.3963061854049528e+00 -4.2829709826826182e+01 -2.1522148267903924e+00 -4.7456072808716208e+01 3.3606520299893425e+01 2.1340772399648067e-01 -1.8043607312527474e+00 -4.1645174892418950e+00 -1.6174808323375925e+02 6.6181290341796273e-01 -1.4940726605407342e+00 4.0750084438634062e+01 -2.3545158611752143e+02 1.3806637727379143e+00 -1.9494299146415717e+01 8.7911411671535475e+00 -5.1542015317480985e+00 1.7232636924645118e+02 6.3704870841998371e+00 -7.7605956008062913e+00 8.7376884111774729e+01 
      </Row>
      <Row Index="1">
        1.3805359974253033e+01 2.5191013796145635e+04 -8.6789529123485045e+03 1.6403926446067311e+02 -1.5035800821578871e+02 1.0262893253038560e+03 -2.8017696079303696e+03 1.4158209111702607e+02 3.2526205813212556e+02 -6.2452018313715961e+01 -1.0479840225272912e+04 1.5672786715158893e+03 6.0447862446206038e+01 -2.4933314984511039e+01 8.0032466002407602e+01 1.3003632709186475e+03 -1.4136659018203357e-01 1.6999152372588375e+02 9.8133703573600982e+01 1.1316638967941664e+04 -3.4918905270620039e+03 -1.5403453422716350e+01 6.7071863922410291e+00 -6.0288847848107494e+01 -2.6946916025786991e+03 3.6178452797047802e+00 -2.1254854571062063e+02 -1.1060703444039268e+02 -2.3336089185236295e+04 1.2843269792866169e+04 -2.5782185051581109e+02 1.1374969560896413e+02 -1.4960307019039356e+03 5.1025883393203094e+03 -4.0114039262407744e+00 -3.4609680801322276e+02 -2.0580896992537738e+01 1.1434709950830718e+04 6.2842651673210435e+02 2.1731658095394806e+01 1.1577338747957308e+01 -1.1835577936830417e+02 4.7116537596174767e+03 8.7471630523418131e+00 3.3382133341569350e+01 4.3438656538624332e+02 -7.8979208062383323e+03 3.9554041985778537e+02 1.7313334831656243e+02 -4.7833011075285822e+02 1.3663820626953252e+03 2.3025700173194214e+03 1.9970327518873546e+02 2.3602900284545831e+02 3.9075441983094875e+03 
      </Row>
      <Row Index="2">
        9.6494608098967547e+01 -8.6789529144177141e+03 6.9779226537957875e+04 1.3433210728412337e+02 1.0371830389579418e+03 -1.2315011968157582e+03 -1.9918598672341035e+04 1.1428522765271951e+02 -2.6850149244071338e+02 -1.1635487683766570e+02 7.8765890323072381e+03 -3.3666255649461896e+03 1.3550525629943442e+02 1.2604879371231826e+01 -1.0798468428723561e+02 2.9141688346167643e+03 -9.1110125780645035e+01 -2.0192233145414065e+02 1.5544280005654778e+02 -6.9716462091974863e+03 -2.0550806472806553e+03 1.3914037847820103e+02 7.6443937294930521e+01 3.0575126935951022e+02 -2.6384128140141878e+04 -5.3553589833610488e+01 -4.2464591257300253e+02 -2.4047149112353605e+02 6.0938611580419265e+03 -5.0265026180037952e+04 -2.2570729165714692e+02 -1.0824357991720717e+03 1.2531432916466097e+03 4.3028409343390013e+04 4.9929158797683692e+02 5.0396949257772513e+02 -5.4382285759854994e+01 -4.9284389526668847e+03 -1.3299859041949461e+04 -3.6875423635669392e+01 7.6290583485724852e+00 2.4560223029986923e+02 3.1115076460068649e+04 5.8093122673474397e+01 7.2874601043859172e+01 8.6594715860507313e+02 7.5216677219552321e+03 -6.3953842043331215e+03 2.4047791492849535e+02 3.6066516823099296e+03 -9.9802805212714804e+02 -9.9626249041604333e+03 6.7379519818526069e+02 1.9527173124710461e+02 -1.9707068516056381e+02 
      </Row>
      <Row Index="3">
        -8.0042415619430667e+00 1.6403926443585692e+02 1.3433210730896408e+02 4.0475723004063447e+01 4.3251015656867446e+00 9.7697049839357835e+00 9.6206333272334646e+01 4.7179910390730457e+00 2.5760162806396689e+01 -3.3286678115377537e+00 -3.1202402946740978e+01 9.1592080374485167e+00 1.7716987640829363e+01 -2.0730063355425182e-01 -6.8290624235917097e-01 1.0769910349042057e+01 -1.4787088513155522e+00 1.6266075197984282e+01 -5.8356448107788772e+00 4.3269167406831002e+01 -1.1660494629059626e+01 1.6757436598769036e+01 1.9018930404195422e+00 1.3642954546538704e+00 -3.2920423838651595e+02 1.8854700201948540e+00 -2.7511272630306109e+01 1.9473809770096111e+01 -1.7879539339563036e+02 -5.9222367304479206e+01 -6.4462584432989701e+01 -6.8141489607379278e+00 -1.4499066599876770e+01 -5.4408704569208908e+00 -2.8327715536292342e+00 -3.1595990980682352e+01 1.0125305985128550e+00 8.9391802676247778e+01 -6.3171272717535025e+01 6.5408713742079971e-01 6.0025977027818023e-01 -5.1176184895532428e-01 4.2517301762398819e+02 7.7186362012075360e-01 2.6319551628076505e+00 -2.9815054034276798e+01 1.7273902768677097e+01 -2.1640342070910528e+01 4.2990825851131746e+01 1.1932044144780106e+01 6.6349097805658284e+00 -7.4348389182469319e+01 3.3821955342052261e+00 2.4214475525542454e+01 2.1431969771514392e+01 
      </Row>
      <Row Index="4">
        1.9955025304652070e+00 -1.5035800822102667e+02 1.0371830389093182e+03 4.3251015649674232e+00 3.8675400778622567e+01 -3.8704634770365458e+00 -6.6338911151051732e+01 9.5426077818244670e-01 -4.8752652114275898e+00 -6.5483052743371593e+00 1.1054391733966224e+02 2.6934843900309602e+01 -1.5315533396167964e+00 1.9604489276595598e+00 -4.1585126649141921e+00 3.1962812087382815e+01 -1.1174329276608930e+00 -3.0815208857423046e+00 4.8236426398862458e+00 -1.0792890138563780e+02 1.2997298504023459e+02 1.9248023576935952e-01 6.2771784855618442e+00 1.0033689298765790e+01 -1.3992461724956644e+02 -2.4667706552388067e+00 -1.4755162211976430e+01 -7.9080494344056440e+00 1.2503948083222240e+02 -1.1079880704915831e+03 -6.4703895367837809e+00 -4.7060437365496441e+01 5.6863656316945850e+00 1.6817249510449670e+02 6.7090490061547312e+00 1.6445489019979480e+01 -2.3884644375092225e+00 -2.1186538390113473e+01 -1.1237140078134931e+02 -7.5729198200429371e-01 8.2730363165883314e-01 6.6334239063258478e+00 1.6093067767532798e+02 6.3473700939050004e-01 9.1437124672500247e-01 4.2335759544513614e+01 1.4302467667326860e+02 -5.8793612948200902e+01 -1.8947165936016628e+00 1.1697073734330461e+02 -1.7353327718047339e+01 -9.2658059176495613e+01 5.4896371922667697e+00 6.7447138088077168e+00 -2.2669450100390922e+01 
      </Row>
      <Row Index="5">
        3.5779048984508925e+00 1.0262893252805693e+03 -1.2315011966530592e+03 9.7697049855573503e+00 -3.8704634758888310e+00 2.2384738421189303e+02 -5.0998361637498192e+02 -1.8597089190916449e+00 5.7361562047096434e+01 -3.0976594465928229e+00 -8.0151714780121404e+02 7.0433890254334244e+01 6.9138684152862009e+00 2.9267137045838640e+00 2.5592771070058927e+01 9.2746685544110278e+01 -1.2813286825917376e+00 9.8178157692131922e+00 1.1764119782354210e+00 8.0458809785947597e+02 1.1405389482414151e+02 -1.9746534088744139e-01 -5.3201268180097907e+00 -4.4111820628804814e+00 -1.7769570662169610e+02 5.5278354346997247e+00 -2.6534294686782296e+01 1.1490097469061720e+00 -9.9336486753675899e+02 9.2731055830634125e+02 -1.7822026649322211e+01 2.1138475373964649e+00 -2.6107586293993370e+02 6.6477091546918052e+02 -1.3078395639486622e+01 -4.8216124209059068e+01 -2.8965124832333173e+00 9.2135756850338566e+02 2.2649290356271811e+02 1.9573060120484365e+00 1.8444324786339403e+00 -1.9383793781979996e+01 2.4001895554083501e+02 1.1579650109700448e+00 1.2661241859106553e-02 1.1008871314897235e+01 -4.6067577833260452e+02 1.0102675696636827e+02 1.7907528779897945e+01 -4.5525930994786641e+01 1.3017119720344130e+02 1.1533450483767643e+02 -1.5377556365193414e+01 2.2769941284596257e+01 2.4408960534806556e+02 
      </Row>
      <Row Index="6">
        3.6965013604219388e+02 -2.8017696033061479e+03 -1.9918598678490060e+04 9.6206333252835066e+01 -6.6338911281109731e+01 -5.0998361607663651e+02 6.5227455922824294e+04 1.0454600489907898e+02 2.2027628545899452e+02 1.1310937523063572e+02 -1.3759498442001959e+03 -2.5636123295949960e+03 -2.6403642486863582e+01 -9.9462712479995048e+01 -2.0462341691160191e+02 -3.5560854538449639e+03 3.9935783371056075e+01 5.3757755634747275e+02 -1.7883016803829295e+02 1.8832891263708007e+02 4.8723798418349634e+02 -9.4706151155452432e+01 2.9921711299966256e+02 -2.3615994925741060e+02 3.6853260695514153e+04 3.5080637704586906e+01 8.4308893227750468e+02 -2.8166438004761142e+02 5.2309324372934570e+03 2.1701250906309135e+04 -1.6559674572879885e+01 -8.5152222549459395e+01 9.7083107927975652e+02 -9.9405214009315096e+04 -1.0919223101820782e+02 -9.1633955375750884e+02 2.9817269422935325e+01 -3.2741043793051995e+02 1.1076937958187682e+02 1.5351934423602785e+01 -4.0704095451401400e+01 -4.3624787166899921e+00 -4.1639987420191545e+04 1.5948992728170666e+01 -6.2186299469836989e+01 -6.6185166675547111e+02 -1.9540765814505696e+03 1.2581862618681855e+03 -2.1760387849236558e+01 -2.7872316512755560e+02 -1.9586294984135776e+02 1.3102013098138166e+04 7.7339735137196385e+01 -3.9349072219174559e+02 -8.4400335224811552e+03 
      </Row>
      <Row Index="7">
        -2.7402944871466861e-01 1.4158209111143756e+02 1.1428522768364653e+02 4.7179910392103732e+00 9.5426077867098702e-01 -1.8597089195812959e+00 1.0454600488397207e+02 6.8221157630884562e+01 -2.1601798374764545e+01 -6.3263430842248694e+00 -4.5443399047693418e+01 -1.1284167019716251e+02 6.0427310535431289e+00 -1.6501859354592446e-02 -2.2115235431097080e+00 3.1685977180310829e+01 -2.3678172228778007e+00 2.5375961228465833e+00 6.3568358974258734e+00 6.0193606076362812e+01 -2.7224474314359730e+02 6.8109564362833952e+00 1.8589524412490319e+00 6.6613059044031129e+00 -1.2471987370591727e+02 4.3526762708842499e+00 -6.0475657007530694e+00 -3.1584447505081421e+00 -1.5025314758678013e+02 8.6599926878747374e+02 -9.2341423014759521e+00 -3.8495725033808053e+00 -5.9666098450964995e+00 -6.4077432546388522e+01 -3.4348860580228077e+01 2.7525368761307647e+01 -2.0356225367316085e+00 1.4291710394839470e+02 -4.7428174037257838e+02 -7.2645055705642059e-01 9.7109435806727529e-01 5.1404738658283211e+00 2.6332276037415795e+02 4.2507870493953064e+00 7.3126307278097968e-01 3.5091739825071286e+01 2.0331746948806241e+01 -8.0494340611290411e+01 1.2119463621413193e+01 4.9444949813912871e+00 6.3798542182102675e+00 -7.0786230020457424e+01 4.9829074850839206e+01 -6.4955689925620419e-01 -1.5685249394176275e+01 
      </Row>
      <Row Index="8">
        3.0676766840046913e+01 3.2526205815625144e+02 -2.6850149237797405e+02 2.5760162807378478e+01 -4.8752652117584159e+00 5.7361562049209454e+01 2.2027628528060322e+02 -2.1601798374296550e+01 4.5705500115113659e+02 -4.0116063174711112e+00 -3.0306063714371953e+02 5.4228392242198453e+01 2.3728027060952542e+01 -2.1130162832701318e+00 2.6615750288003439e+00 3.0983988573386523e+02 6.8884477764069629e-01 1.5373009736337686e+01 2.2858971633707515e+01 2.0768944389751778e+02 -1.1191620387460962e+02 -1.7382347075923313e+01 -4.8165737854487816e+00 -4.6929192911559880e-01 -1.7966221383049057e+02 8.2159807163358867e+00 -1.3799970552247470e+02 -4.7075390886444325e+01 -1.6908749955152467e+02 -2.0496057314443283e+02 -4.1961717424631864e+01 1.2241472047899459e+01 -5.8130955565452382e+01 -4.3620644953746250e+01 -1.3794435762660129e+00 -4.8410259919564601e+02 -3.6372683223265598e+00 2.2624208535351136e+02 4.2105376914929877e+02 5.4674141967026584e+00 1.7852680537189554e+00 -5.8816554466756887e+00 3.4239653933127886e+02 -2.5482640237835916e+00 1.8143369742085184e+01 8.4689916660874886e+01 -2.8130459848216930e+02 5.0462055837607473e+01 7.3594165500970476e+01 -1.1836672327371655e+01 1.8412811095018746e+01 1.1120138862966695e+02 -2.2519167251699741e+01 1.4806473005073678e+02 1.4916235616455620e+02 
      </Row>
      <Row Index="9">
        6.2244801693378804e-01 -6.2452018336418405e+01 -1.1635487680351173e+02 -3.3286678113768637e+00 -6.5483052736172036e+00 -3.0976594478735482e+00 1.1310937522070900e+02 -6.3263430842873873e+00 -4.0116063184557476e+00 9.7404121322603068e+00 1.0908870596033921e+01 -3.4609423240353053e+01 -6.9101066534751554e-01 -7.3691389325854006e-01 -1.2695250079532275e-01 8.9767135976604948e+01 -2.2792198279479389e-01 3.1245540783388668e+00 2.3494054692854323e+00 1.0231441224018454e+00 -7.1508070934314432e+01 -4.5386997419416417e+00 -1.1740211888286651e+00 1.5765518092336706e-01 -2.0054957726125259e+01 -4.6356995859752737e-01 2.2928651265751583e+00 -3.3129410198544087e+00 2.9647946372538740e+01 2.3722801028651281e+02 1.0206933509368092e+01 9.3414634213471732e+00 1.8331267192809833e+00 -2.7819602905765868e+02 3.2088098508072322e+00 4.6106567907720830e-01 5.4742548401763702e-01 -3.6353075457933748e+01 -4.4438443697935611e+01 6.8931985497879023e-01 -1.3545042839114081e+00 -1.6545532916275458e+00 2.7471362293629659e+02 -3.5234805009328163e-01 5.7103353691001235e-01 -2.7838297007170230e+01 2.1662676189627965e+00 -1.3300126769577668e+01 -3.7405528525425447e+00 -2.4910197363484762e+01 -3.6052940252435826e+00 -6.3793485408983827e+01 -5.5462700188835337e+00 -1.7086344115209187e+00 3.6924455531937298e+01 
      </Row>
      <Row Index="10">
        -1.3507844448313497e+02 -1.0479840225363616e+04 7.8765890298744489e+03 -3.1202402980742136e+01 1.1054391734077247e+02 -8.0151714784115313e+02 -1.3759498382162119e+03 -4.5443399050716835e+01 -3.0306063711684709e+02 1.0908870564776214e+01 9.5849465387151577e+03 -8.4679055967576301e+02 -4.2903350387905959e+01 2.6643154354534904e+01 -3.5393863624896454e+01 -1.6527538773619599e+03 7.9241779494968796e+00 -9.9275910268314789e+01 -6.1639604146591289e+01 -8.4565687980452785e+03 4.2284166602923788e+03 -2.0734355948543897e+01 -1.9961278385806828e+01 -1.1560277796294613e+01 4.4114880103443347e+03 -4.1315320918668441e+01 8.2892262142741302e+01 1.6680934008649677e+02 7.2220589175296454e+03 -1.3084424434076343e+04 7.2391610245506627e+01 -9.8442429597027882e+01 1.0413116513433233e+03 -1.1123235830184949e+03 1.2329791555796408e+01 2.8788630446466078e+02 1.7570929381920841e+01 -3.9524882447536547e+03 -6.2344024599855959e+02 -1.0194804823254559e+01 9.8449445036552383e+00 1.7221106850312376e+02 -8.4689417949751369e+03 -7.2820441165985397e+00 -8.2564638220746289e+00 -5.1536331967991146e+01 1.1256497968527932e+04 2.7835591244148020e+01 -1.0839696916176037e+02 5.2675129381269926e+02 -5.4104837032621049e+02 -3.4692204816503508e+03 -9.5618953986087945e+01 -6.3068146661626088e+01 -6.5379777549888349e+03 
      </Row>
      <Row Index="11">
        -2.6366730253568726e+01 1.5672786718587449e+03 -3.3666255651815154e+03 9.1592080387841861e+00 2.6934843890486338e+01 7.0433890276737344e+01 -2.5636123301090306e+03 -1.1284167019374854e+02 5.4228392256555068e+01 -3.4609423237350185e+01 -8.4679056011939247e+02 3.3585419519676725e+03 -3.7218661299728470e+00 3.4058296584736771e+00 -2.1817230464738618e+01 -1.3608486450941282e+03 -2.4925915533207558e+01 -3.2410776907459038e+01 1.9179652892733781e+01 8.4198851060702145e+02 4.0592633621098721e+03 1.5832167898896685e+01 -1.0134105930314737e+01 7.8041209569973716e+01 3.1189978950750119e+03 -6.7554864795888207e+01 -1.4264017084937149e+02 -3.0614384877556802e+00 -1.3235265919138392e+03 -6.5640171100671287e+03 -4.1988663022777587e+01 -3.1662873024002934e+01 -1.1368561964407400e+02 -6.5310413117821645e+02 9.7299036876087655e+01 3.2479994548934030e+01 -1.8257226430743088e+01 6.1861137552499054e+02 2.5544887615748580e+03 -3.4225739642770137e-01 7.2720019995670002e+00 1.2539223961752361e+01 -4.5860536187203270e+03 -1.4593361962351867e+01 -2.1707988574377936e+01 1.6490401256706184e+02 -8.2106989583502263e+02 1.2734812409631597e+03 4.7100138719239428e+00 1.0549416884866046e+02 2.9852515009872675e+00 1.4963532538460313e+03 -1.2144292095923038e+02 7.0121912323312131e+01 3.3187742823835845e+02 
      </Row>
      <Row Index="12">
        -8.5485787796932247e+00 6.0447862418077420e+01 1.3550525634396081e+02 1.7716987641090284e+01 -1.5315533388082383e+00 6.9138684136970410e+00 -2.6403642503229477e+01 6.0427310534477101e+00 2.3728027059742274e+01 -6.9101066529446287e-01 -4.2903350348773529e+01 -3.7218661347519628e+00 1.9451799827250614e+01 -3.8950060134980702e-01 8.4992361441398073e-02 3.7900199949897456e+01 -1.2636949877238948e+00 4.7921606147227358e+00 -5.6470300686852832e+00 5.6268045746274765e+01 -4.7485424259234001e+01 1.5868302316653750e+01 1.4172550213779878e-01 5.0207039396013942e+00 -2.4772550945109722e+02 1.1462466334502781e+00 -1.2465340580465265e+01 1.7881052382265768e+01 -7.3554009924730380e+01 6.9835618963912722e+01 -3.5978667954163257e+01 1.9187338864246728e+00 -1.2822512587666608e+01 1.1367065672591434e+02 -1.8489526246210495e+00 -3.0297583038742481e+01 1.0661680342869417e+00 4.5139135487059733e+01 -1.0218963217016682e+02 5.5076278946693480e-01 6.7776369521432428e-02 -6.3042147172114404e-01 3.6960325977898424e+02 6.3913951023298665e-01 1.2020947135205062e+00 -3.2721350417959776e+01 -3.0115718303187080e+01 -3.4606515025893465e+01 3.8398748055556460e+01 -9.4912400960820769e+00 6.2858976999238125e-01 -6.6597259136333150e+01 6.0576716736029876e+00 1.3398691031839803e+01 5.1179844210981351e+01 
      </Row>
      <Row Index="13">
        7.8844775642290332e-01 -2.4933314988778079e+01 1.2604879371487048e+01 -2.0730063362151085e-01 1.9604489277834376e+00 2.9267137041940878e+00 -9.9462712465414270e+01 -1.6501859373735606e-02 -2.1130162833582862e+00 -7.3691389335072355e-01 2.6643154359400882e+01 3.4058296590797426e+00 -3.8950060145762855e-01 1.1918006756529334e+00 7.1954279929483089e-01 1.7600606343577780e+00 2.0806639888617617e-01 -6.9250908515770937e-01 7.9206827155258375e-01 -2.8913854015519206e+01 1.7985458806824525e+01 -6.2347505919561497e-01 -2.3963171370745265e-01 1.8847444244045251e+00 -3.4484572053275350e+01 -4.0654664943940155e-03 -1.2201130846817216e+00 -1.9000967212781341e+00 1.7696519732486564e+01 -4.1931545817838028e+01 9.1890089657119134e-01 -2.7362987632086950e+00 -3.6901034034183890e+00 1.2882461264942296e+02 -2.7064255643134061e-01 4.0850778097841793e+00 -7.7097221565323093e-01 -1.6292637065238438e+01 7.4269246256475636e+00 -1.9958459794097422e-01 2.5321320868400693e-01 6.3283085202153055e-01 3.8976636848942348e+01 6.3285873209610988e-02 3.0265496022963134e-03 6.8268301083915244e+00 2.8055494838584366e+01 4.1983409036575052e+00 -1.0508933812582038e+00 6.8928479035062828e+00 -1.7863939485936051e+00 -2.1318305786053987e+01 -3.6610201485348171e-01 2.6354451613505603e-01 -1.5074440351569169e+00 
      </Row>
      <Row Index="14">
        6.6993402061876262e-01 8.0032466062180902e+01 -1.0798468435019618e+02 -6.8290624238244391e-01 -4.1585126665643655e+00 2.5592771074123441e+01 -2.0462341696285384e+02 -2.2115235429109248e+00 2.6615750311728976e+00 -1.2695250045924869e-01 -3.5393863702584895e+01 -2.1817230459764687e+01 8.4992361932350491e-02 7.1954279916286623e-01 2.0276387519054879e+01 -1.3568757593400073e+02 5.0488626563492289e-02 1.2701920622145491e-01 -4.5059882995149314e-01 4.4865512862954347e+01 1.9608344179874931e+02 -3.3999631862142414e+00 -3.0163723936655895e+00 -1.4472598011984131e+01 3.9318171728049555e+02 1.7629513319480954e+00 5.9787552792138152e+00 -2.2226810129773398e+00 -1.4969650731966067e+02 -1.2142047155980522e+02 2.4162988196747435e+00 7.5900355215429798e+00 -3.1054667595878016e+01 7.6013646492056864e+01 -3.4722391206732190e+00 -4.3608937649777477e+00 -3.0211012854293917e-01 -2.5381240213825592e+01 5.6372224314717059e+00 4.4996888942613261e-01 -3.3796243925141878e-01 -6.2285622482157139e+00 -6.4565716441544475e+02 3.0377622889055322e-02 -1.5337437107011143e+00 9.6382791119776918e+00 -7.9438557065706874e+01 3.1791863338012810e+01 -1.3160769619198289e+00 -1.5445793592396099e+01 3.6679045958954710e+01 1.8612777272869340e+02 -6.1328404754986536e+00 -4.8337941622776270e-02 -8.7965254339049650e+01 
      </Row>
      <Row Index="15">
        6.5087030752911005e+01 1.3003632676629350e+03 2.9141688397958496e+03 1.0769910372249797e+01 3.1962812184195542e+01 9.2746685346327098e+01 -3.5560854554079901e+03 3.1685977169614489e+01 3.0983988559199383e+02 8.9767135977967385e+01 -1.6527538731091190e+03 -1.3608486456028768e+03 3.7900199947468536e+01 1.7600606461564894e+00 -1.3568757598930824e+02 8.9905518848275533e+03 -1.3974522371830972e+01 4.1598245816557565e+01 1.6999818890601452e+02 1.4622124926666729e+03 -1.0308834257887740e+04 -6.3218121477556394e+01 5.3500515460316702e+00 2.2365292782588438e+02 -1.9874151007435856e+04 7.0180477008995325e+01 -3.1267016997931552e+02 -1.3386802174153223e+02 -5.3845168002229184e+02 1.0573187910142247e+04 4.1152344284630090e+01 -4.7185637569066188e+01 -1.6785503616754431e+02 1.4369439968041837e+04 -3.3468996776863705e+01 -1.4506534609334926e+02 -5.5766503495311071e+00 8.7567743089803719e+02 -1.5397104718990865e+03 1.0509283705297705e+01 -2.1747606877503580e+00 3.2786724953862041e+01 3.4771411735661073e+04 8.8781291224188870e+00 8.3495813462011185e+01 -1.1089372312336445e+02 -1.7300934368071958e+03 -1.8243480186106858e+03 6.7591849235846965e+01 4.8547812066812938e+01 -2.6027967434037083e+02 -8.7623091803580883e+03 6.9190523518730856e+01 2.1225101626194009e+02 7.9262306866867402e+03 
      </Row>
      <Row Index="16">
        -1.9244159867358961e+00 -1.4136658667121083e-01 -9.1110125786820078e+01 -1.4787088513431659e+00 -1.1174329277532140e+00 -1.2813286823669099e+00 3.9935783374233694e+01 -2.3678172228617385e+00 6.8884477779003150e-01 -2.2792198280509601e-01 7.9241779450642298e+00 -2.4925915532535100e+01 -1.2636949877308403e+00 2.0806639887467959e-01 5.0488626636415290e-02 -1.3974522372812856e+01 2.4008589891019412e+00 -9.2894434516703761e-03 -4.0717629187506404e-01 -2.1695483976430523e+01 -1.8197069485848765e+01 -1.3500794017838702e+00 2.7471183529165139e-01 -7.4811551286946831e-01 5.1822085290309005e+01 8.4163754787311262e-01 1.6294057381509737e+00 1.7142319846498313e+00 1.9071796085461528e+01 9.4692881698293718e+01 2.4408126936527457e+00 1.0868600428156263e+00 2.4193627244977804e+00 -7.9811308625930266e+01 -2.4803460220641527e+00 -1.5966883239013527e+00 -2.1200597557591855e-01 -5.8539313761565612e+00 3.4302253717223408e+01 -3.8035240604168068e-02 1.5190776772425252e-02 4.8117155536326828e-01 -7.4055153491916727e+01 -2.5295006007154636e-01 2.6702987229256481e-01 -7.0795472335362175e-01 7.5995868739949968e+00 5.0256088938045211e+00 -2.3077304582839515e+00 -3.5631909211204005e+00 7.6581043474428989e-01 5.9520471552520284e+00 -3.7404762385492387e+00 -3.3183477180999787e-01 -1.1288734050534181e+01 
      </Row>
      <Row Index="17">
        2.8208749913778060e+00 1.6999152371659693e+02 -2.0192233142068471e+02 1.6266075198392350e+01 -3.0815208854973339e+00 9.8178157692006245e+00 5.3757755627970823e+02 2.5375961228619417e+00 1.5373009735748802e+01 3.1245540786598571e+00 -9.9275910251612004e+01 -3.2410776912323854e+01 4.7921606150492906e+00 -6.9250908505136266e-01 1.2701920532168742e-01 4.1598245859138956e+01 -9.2894434897061728e-03 7.3926996762732074e+01 -1.8680700964635708e+01 1.3452175028076999e+02 7.6662467861066830e+01 -6.6347135630460787e+00 4.2312498022285396e+00 -9.8615491369976382e-01 6.2444935858630195e+01 8.4198061128603285e-01 1.0083486728121257e+02 1.2549310495935234e+01 -1.3633999318968472e+02 2.3761644638296781e+02 -1.8979285007567473e+01 1.0086804077206324e+00 -1.6284549003013325e+01 -7.7470762402276921e+02 -4.4035047677615680e-01 -9.2541278532689432e+01 2.1004243483444274e+00 7.5489620887753944e+01 -7.3311771466416204e+01 4.8455579964373185e-01 -2.9922784690060600e-01 -6.1488753469889303e+00 -6.0118288770618904e+01 9.6605860130132282e-01 -2.8829692891491048e+00 -6.0603903096418101e+01 -1.0614328151705031e+02 6.2353137578975346e+00 2.0986174270219706e+01 -6.8276883362956999e+00 7.6726993315751022e+00 4.5043879093607515e+01 2.7057720063762858e+00 -2.9931641743760665e+01 5.5035141250239825e+01 
      </Row>
      <Row Index="18">
        7.1791006749718056e+00 9.8133703552361112e+01 1.5544280012026502e+02 -5.8356448104201775e+00 4.8236426408138149e+00 1.1764119768736361e+00 -1.7883016808403414e+02 6.3568358972806323e+00 2.2858971632359715e+01 2.3494054694403421e+00 -6.1639604123449317e+01 1.9179652885707583e+01 -5.6470300684618167e+00 7.9206827165006644e-01 -4.5059883086651098e-01 1.6999818893284464e+02 -4.0717629190532989e-01 -1.8680700964821881e+01 3.1883339743458052e+01 2.7407577530424533e+01 -1.7750880598812699e+02 -8.1795310928176210e+00 -1.4130096299205015e+00 6.4823494567870910e+00 -2.1062607028802654e+02 -2.9736398293200637e+00 -7.5909744745747346e+01 -3.4593763198092418e+01 -4.7402957917413005e+01 1.9713225015655388e+02 1.4625838528048355e+01 -4.1433259440164560e+00 -4.9761389685136237e+00 3.1018076586577408e+01 8.1982725166605164e-01 2.3397148013784104e+01 -6.2781594955523730e+00 2.7816359970078615e+01 -1.2529811972875194e+02 1.3451045081642565e-01 2.2061659484661766e-02 2.3921468756163149e+00 8.6706761732457835e+02 7.0367075363321985e-01 6.9803265788090343e+00 6.1397527363424047e+01 -7.7587600100944400e+01 -3.6943489387116863e+01 -1.2122394616109389e+01 1.8404343362285584e+01 -1.2465493139950192e+00 -1.1088974010537586e+02 7.1351834745361700e+00 3.5912599135072526e+01 1.3564776583736995e+02 
      </Row>
      <Row Index="19">
        9.8027276809000739e+01 1.1316638967893319e+04 -6.9716462069368426e+03 4.3269167436232237e+01 -1.0792890138211229e+02 8.0458809788589872e+02 1.8832890748512580e+02 6.0193606078999437e+01 2.0768944387025476e+02 1.0231441487313848e+00 -8.4565687978785718e+03 8.4198851021868177e+02 5.6268045778959277e+01 -2.8913854010813338e+01 4.4865512795207906e+01 1.4622124962785456e+03 -2.1695483980161953e+01 1.3452175029266800e+02 2.7407577550111455e+01 9.7804598115636036e+03 -2.8660624254384625e+03 3.4394120994016106e+01 -1.4032902649872057e+00 -1.2167828692092448e+02 -3.8456591802576513e+03 1.0527852414546942e+01 1.8265051097274053e+01 -1.1678713253886102e+02 -1.0417128212072479e+04 1.1382085152279740e+04 -1.1001747921605738e+02 1.0957196327635478e+02 -9.7963265803147806e+02 2.0578245305121873e+03 2.4532676187729841e+01 -2.3783599214170363e+02 -2.7919889681528014e+00 4.9044800076977863e+03 -6.6589735867144846e+00 1.5399297632360236e+01 -8.9915478598795548e+00 -1.7336676711598244e+02 6.9189764358598404e+03 7.1091989255279291e+00 -3.8875179381100908e+00 -2.5153051820292148e+01 -9.4023023268843790e+03 -3.7880818590573710e+01 1.1451227948251517e+02 -5.0570553403507898e+02 6.4789748494457558e+02 2.6641343334416188e+03 1.1405915830012236e+02 3.6170163677161327e+00 5.5011893948786192e+03 
      </Row>
      <Row Index="20">
        -5.9864727567251748e+01 -3.4918905240837485e+03 -2.0550806520664191e+03 -1.1660494652855959e+01 1.2997298495721836e+02 1.1405389499883589e+02 4.8723798574028729e+02 -2.7224474312949678e+02 -1.1191620372355646e+02 -7.1508070938976573e+01 4.2284166563107865e+03 4.0592633626383613e+03 -4.7485424260061336e+01 1.7985458796807507e+01 1.9608344184765883e+02 -1.0308834257924711e+04 -1.8197069486617693e+01 7.6662467891888809e+01 -1.7750880595234321e+02 -2.8660624221012695e+03 2.5813155947149742e+04 -1.8190382808805225e+01 -6.3698166694246332e+01 -1.8946650830824228e+02 3.7079861842083563e+04 -2.6655067456200049e+02 6.0553992162820828e+02 1.0935712065679587e+02 9.1858079175651073e+02 -3.6556146481574397e+04 -1.2864265438295661e+01 -7.6358569526658812e+01 -3.3334587379118602e+01 -2.6054054735793998e+04 3.0881181845651656e+02 -2.8342247242050792e+02 1.5731756225904995e+01 -1.4686934599576034e+03 3.3657360369630906e+03 -4.0242583642653429e+00 6.9337686009631607e+00 -1.0492831389556006e+01 -5.7675757934921698e+04 -1.4006217795758268e+01 -9.9326029897720375e+01 1.0887781644247480e+02 4.9492375820716316e+03 4.4349696570498236e+03 -8.5360737788362371e+01 4.5874958054337583e+02 2.7916826020023746e+02 8.0783864828028691e+03 -3.3446356999265072e+02 -2.2212463239575300e+02 -7.3884515412345372e+03 
      </Row>
      <Row Index="21">
        -1.4015598891053775e+01 -1.5403453456510761e+01 1.3914037851568764e+02 1.6757436598902146e+01 1.9248023658595886e-01 -1.9746534291326157e-01 -9.4706151148214019e+01 6.8109564361679702e+00 -1.7382347077280571e+01 -4.5386997420002402e+00 -2.0734355901669915e+01 1.5832167895245675e+01 1.5868302316502010e+01 -6.2347505909699663e-01 -3.3999631864404307e+00 -6.3218121494182355e+01 -1.3500794017548543e+00 -6.6347135634624692e+00 -8.1795310932914482e+00 3.4394120954392747e+01 -1.8190382787701189e+01 3.0273511322412727e+01 6.5431647108946689e-01 2.6459573252589337e+00 -3.3943202522987360e+02 -1.4138737519098754e-01 -1.7970815397363914e+01 2.8957342161428539e+01 4.3513711179248276e+00 -3.0754810139776794e+00 -4.4658172041622997e+01 -1.3165682243436025e+00 -2.0584084601805159e+00 3.1838085414857505e+02 -1.9118867001317152e+00 3.3241286037565793e+01 2.8390542437613222e+00 1.5719955139323915e+01 -5.2692665918390880e+01 -4.5874553355647341e-01 3.1784698287229934e-01 9.2269634002773104e-02 3.5093984031646227e+02 1.7226651332324749e-01 -4.0828287316707956e-02 -4.4023202689907812e+01 -1.3286030689883678e+01 -3.2249202259472874e+01 3.0636511805910821e+01 -5.8333261713973750e+00 -4.6128802315937634e+00 -6.6772590992538511e+01 6.5115271953015785e+00 -4.4175319388752143e-01 4.1692673851019201e+01 
      </Row>
      <Row Index="22">
        9.9502955452550279e-01 6.7071864057538733e+00 7.6443937274685013e+01 1.9018930403443575e+00 6.2771784851361243e+00 -5.3201268171507241e+00 2.9921711300425136e+02 1.8589524412159761e+00 -4.8165737849661170e+00 -1.1740211888204759e+00 -1.9961278404045970e+01 -1.0134105928555869e+01 1.4172550217427116e-01 -2.3963171376121650e-01 -3.0163723934456570e+00 5.3500515466655543e+00 2.7471183528468046e-01 4.2312498024632390e+00 -1.4130096299048365e+00 -1.4032902494317341e+00 -6.3698166696232420e+01 6.5431647107746982e-01 4.2619816668310522e+00 2.7721834500528821e+00 8.8346792843564543e+01 1.5320878243173794e+00 7.2377047068381763e+00 -4.4475021839263107e-02 3.0599194644196814e+01 2.2841347335137471e+01 -3.0443116904102605e+00 -1.0193802804015135e+01 6.0482864131614846e+00 -3.8495002093936944e+02 -7.7620606354688260e-01 1.0321330756209459e+00 3.3875297405761240e-01 9.3422467688457047e+00 -2.0773515903504194e+01 -1.0452920444832259e-01 3.1662784591246496e-04 1.0915633622119758e+00 -8.8674881721366475e+01 2.4266981009064537e-01 2.8100322331981598e-01 7.5791805980081151e-01 -2.1309505739635110e+01 -1.0231367928620337e+01 7.9300894664624444e-01 1.8764604225016182e+01 -4.9173381152741920e+00 3.8799085876679861e+01 3.3178133214209939e+00 -3.9656011532853306e+00 -7.8645693619433192e+00 
      </Row>
      <Row Index="23">
        -1.3727730776459632e+00 -6.0288847926545714e+01 3.0575126945515922e+02 1.3642954548505486e+00 1.0033689300936228e+01 -4.4111820681652070e+00 -2.3615994921789775e+02 6.6613059041213774e+00 -4.6929193233688693e-01 1.5765518060109907e-01 -1.1560277694843535e+01 7.8041209561544747e+01 5.0207039391517014e+00 1.8847444245949703e+00 -1.4472598012370781e+01 2.2365292777238574e+02 -7.4811551279918831e-01 -9.8615491480609307e-01 6.4823494556482331e+00 -1.2167828700893006e+02 -1.8946650826409495e+02 2.6459573252249697e+00 2.7721834502684812e+00 4.1049279804050798e+01 -5.7776039411844806e+02 6.7649372601727009e-01 -1.3401352294639835e+01 -1.9914123896977687e+00 2.0503748150906176e+02 -3.5748612944796022e+01 -2.2465257678327788e+00 -1.6021828780646260e+01 -1.3708622006022779e+01 3.8905338490791627e+02 2.1052641889148456e+00 7.0138755662171981e+00 -1.8732414301209568e+00 2.6116209578892835e+01 -8.0196997096972325e+01 -1.8945253727823474e-01 1.2692197884886187e+00 8.1526595868192295e+00 1.1158302178380168e+03 6.0701721154828725e-01 1.3600342253571189e+00 3.2380020064872355e+00 4.1047976705607830e+01 -3.7172521431204132e+01 9.9075904333369671e+00 3.3512630222185564e+01 -3.8480271341606070e+01 -2.3683951291230045e+02 1.1708707707502899e+01 7.4634206364526108e+00 1.6050339758324546e+02 
      </Row>
      <Row Index="24">
        1.0770860859571283e+02 -2.6946915913159028e+03 -2.6384128156285326e+04 -3.2920423845084770e+02 -1.3992461756627517e+02 -1.7769570592903517e+02 3.6853260697781021e+04 -1.2471987366075336e+02 -1.7966221333924477e+02 -2.0054957718755603e+01 4.4114879955155775e+03 3.1189978966233321e+03 -2.4772550942599992e+02 -3.4484572090204892e+01 3.9318171742664708e+02 -1.9874151005120715e+04 5.1822085284395143e+01 6.2444936003128532e+01 -2.1062607016578841e+02 -3.8456591676417738e+03 3.7079861839659017e+04 -3.3943202526931282e+02 8.8346792839867717e+01 -5.7776039423973998e+02 1.0547045046985243e+05 -2.2645138416244299e+02 1.5482338801342403e+03 -2.6680402755334978e+02 7.2895926082832739e+02 -2.9286045384737768e+04 6.0928837051675328e+02 1.1335117798964995e+02 4.1343030858520069e+02 -1.1339547494405012e+05 1.6308605791560058e+02 -8.9847034016275882e+02 5.8838358118111003e+01 -1.5469312603686001e+03 4.0622704425612837e+03 1.0518386772170516e+01 -1.0925665465703396e+01 -7.8283033832902149e+01 -1.4023976776348465e+05 -7.1725192934484454e+00 -1.0936365541958814e+02 7.1437611698943874e+02 5.0604542001461159e+03 9.3438845214235516e+03 -5.8963458913595287e+02 -3.2770197392099118e+02 8.7422266350540826e+02 3.0858289270297890e+04 -2.7718017089966725e+02 -5.4390126879118907e+02 -2.3930684089413749e+04 
      </Row>
      <Row Index="25">
        2.3133908606374431e+00 3.6178452636540896e+00 -5.3553589802460351e+01 1.8854700203938854e+00 -2.4667706547819583e+00 5.5278354338451194e+00 3.5080637683353302e+01 4.3526762708166302e+00 8.2159807154471025e+00 -4.6356995850899002e-01 -4.1315320896565936e+01 -6.7554864799640200e+01 1.1462466335272197e+00 -4.0654664276118524e-03 1.7629513315405063e+00 7.0180477017755379e+01 8.4163754786874279e-01 8.4198061113829681e-01 -2.9736398294552089e+00 1.0527852396421622e+01 -2.6655067456926287e+02 -1.4138737499271947e-01 1.5320878242633147e+00 6.7649372644279993e-01 -2.2645138420484244e+02 1.0912761225470348e+01 -1.4073908802440327e-01 1.8889103008730084e+00 2.3727716659842372e+01 3.9358130971456779e+02 -2.4334848452729894e+00 1.5960722249628150e+00 -7.3407854845700911e+00 1.6097649164958978e+02 -1.2820668212656550e+01 -9.5780640931252652e+00 4.8807789679864999e-01 1.0719697198345123e+01 -2.1725989053895596e+01 1.3527946091949136e-01 -1.9466857281325631e-01 -1.7814174828304679e+00 3.1088286678946577e+02 4.0209680690526639e-01 1.1630513008428029e+00 -2.8862459354558929e+00 -4.3872185186081595e+01 -2.6487981696154996e+01 2.9072768463050052e+00 -9.9219437420305834e+00 3.1465881352747926e+00 -3.6768482298426264e+01 1.7140682400250817e+00 1.3442415209773628e+00 4.3435885982042002e+01 
      </Row>
      <Row Index="26">
        2.2398446046004238e+01 -2.1254854559502564e+02 -4.2464591278276203e+02 -2.7511272630999827e+01 -1.4755162216369030e+01 -2.6534294678686251e+01 8.4308893227470799e+02 -6.0475657001263698e+00 -1.3799970551697925e+02 2.2928651269248914e+00 8.2892262004392251e+01 -1.4264017083131694e+02 -1.2465340580097859e+01 -1.2201130850348250e+00 5.9787552808322744e+00 -3.1267016994774076e+02 1.6294057381188622e+00 1.0083486728287517e+02 -7.5909744744799553e+01 1.8265051219052111e+01 6.0553992163480632e+02 -1.7970815397882525e+01 7.2377047063854469e+00 -1.3401352296253663e+01 1.5482338801505423e+03 -1.4073908772047616e-01 4.6459137587169181e+02 2.3701542751271582e+01 1.5701763135010697e+02 -4.5893135885242953e+02 5.0820375260380260e+01 1.2540002218775790e+01 3.1516727104784195e+01 -1.0230626816293109e+03 7.6944602341956525e+00 -1.2689952081601919e+02 1.9575603840521609e+01 -1.7013090001065228e+02 1.5981424840399973e+02 -8.9326231230327757e-01 -2.4577037377285813e+00 -9.5860954121858875e+00 -3.1995358504946835e+03 7.9292031428380483e-02 -2.4927997589472863e+01 -1.4733095217948585e+02 -1.2012247270999975e+01 1.1290265637382657e+02 -3.6132526127332660e+01 -4.1237723852317899e+01 2.2195960463185926e-01 5.7863746863960932e+02 -2.7087496742561425e+00 -1.9993223222455777e+02 -3.5072856561242020e+02 
      </Row>
      <Row Index="27">
        -5.1399518140559273e+01 -1.1060703449904395e+02 -2.4047149112426587e+02 1.9473809769540424e+01 -7.9080494329363127e+00 1.1490097426973023e+00 -2.8166437989164581e+02 -3.1584447506569973e+00 -4.7075390887845231e+01 -3.3129410207493839e+00 1.6680934016752872e+02 -3.0614384816599340e+00 1.7881052381052100e+01 -1.9000967212041928e+00 -2.2226810115080298e+00 -1.3386802187149169e+02 1.7142319848052807e+00 1.2549310494729070e+01 -3.4593763199302870e+01 -1.1678713261123994e+02 1.0935712079426150e+02 2.8957342160243233e+01 -4.4475021388513780e-02 -1.9914123920354996e+00 -2.6680402712129342e+02 1.8889102999620491e+00 2.3701542754767956e+01 9.2136661915176475e+01 7.0853354596765712e+00 4.5374911487477846e+01 -4.9581814320535585e+01 7.2204852101104331e+00 -3.3981534624001597e+00 4.8763174267200742e+02 -9.2345009813422934e+00 3.4058598547385841e+01 7.9579261585476786e+00 4.9300534694603805e+01 7.7034339966654414e+01 -4.3655326422782181e-01 1.8127956692434297e+00 1.6643669825350837e+00 -2.5453833939062953e+01 -1.1706611655625179e+00 -2.8776959459808378e+00 -1.1267966386862605e+02 2.9368024498397358e+02 1.0734409581218983e+01 4.0697468654350864e+01 -3.3621458776229886e+01 5.7868587139841816e+00 -1.8244459210241635e+02 -1.2852612074955289e+01 -1.6584958103753536e+01 -1.3437223193260070e+02 
      </Row>
      <Row Index="28">
        7.4752030774260248e+01 -2.3336089185105462e+04 6.0938611568349188e+03 -1.7879539340651422e+02 1.2503948082249383e+02 -9.9336486753797294e+02 5.2309324395009044e+03 -1.5025314759145795e+02 -1.6908749953570123e+02 2.9647946363220896e+01 7.2220589173098997e+03 -1.3235265917528086e+03 -7.3554009935854310e+01 1.7696519729696661e+01 -1.4969650729104978e+02 -5.3845168151289909e+02 1.9071796087117491e+01 -1.3633999318988572e+02 -4.7402957929807314e+01 -1.0417128211941206e+04 9.1858079301903217e+02 4.3513711042429577e+00 3.0599194650224174e+01 2.0503748147144370e+02 7.2895926591675652e+02 2.3727716653714197e+01 1.5701763141363639e+02 7.0853354328408642e+00 2.5256489641867258e+04 -7.9154745224681228e+03 2.8331023564726036e+02 -1.1679782532276812e+02 1.3704541692200714e+03 -6.7486010255096307e+03 -6.0797866342561520e+00 2.1777134601863432e+02 -1.7593445333012454e+00 -1.1751020285477674e+04 2.4212796897059661e+02 -2.7144812530907203e+01 -1.3953620729683973e+01 7.5270266000782641e+01 -2.5243300607316814e+02 -5.2324445694912374e+00 -1.4240706617385896e+01 -3.4508031088176426e+02 2.9750100776603099e+03 -3.9805357524096462e+02 -1.6897104926164283e+02 3.8104142087795481e+02 -1.4832553202665408e+03 -6.3217849977501874e+02 -1.6859683224129162e+02 -2.0082656328610801e+02 -8.8792905436710714e+02 
      </Row>
      <Row Index="29">
        -8.8384046543723116e+01 1.2843269790415186e+04 -5.0265026172833735e+04 -5.9222367245220084e+01 -1.1079880704091388e+03 9.2731055820204620e+02 2.1701250898308746e+04 8.6599926879049599e+02 -2.0496057330832627e+02 2.3722801032494232e+02 -1.3084424430571031e+04 -6.5640171110554365e+03 6.9835619006469642e+01 -4.1931545802866822e+01 -1.2142047168780846e+02 1.0573187915000977e+04 9.4692881693699746e+01 2.3761644637047721e+02 1.9713225016411798e+02 1.1382085149541032e+04 -3.6556146486018391e+04 -3.0754809485720216e+00 2.2841347314449585e+01 -3.5748612792376662e+01 -2.9286045403326494e+04 3.9358130973274820e+02 -4.5893135903918233e+02 4.5374911685960456e+01 -7.9154745216931915e+03 1.0840100926044592e+05 1.5055423642326696e+02 1.0691229315384749e+03 -1.1715862189166946e+03 -9.7215763047887376e+03 -9.7025937519597846e+02 5.9454615363855885e+02 -2.6161709146884981e+01 7.0720096657822214e+03 -3.4184713830849478e+03 2.5403584124815765e+01 -1.3051062959380928e+01 -2.2334783530818558e+02 5.6695577815348908e+04 2.8509520388917593e+01 6.2624310879874628e+01 -9.3576654291674186e+02 -1.3674076440141689e+04 -2.9908491117860631e+03 1.1722372618749917e+02 -3.8015654970785004e+03 6.1170849954709593e+02 -4.1034942923599583e+03 5.4248715787334550e+02 1.1319215199695464e+01 1.0453415099317586e+04 
      </Row>
      <Row Index="30">
        2.2728754408608914e+01 -2.5782185046784616e+02 -2.2570729170624838e+02 -6.4462584433066809e+01 -6.4703895380514274e+00 -1.7822026646291093e+01 -1.6559674599819630e+01 -9.2341423012843222e+00 -4.1961717422749800e+01 1.0206933509585053e+01 7.2391610178689461e+01 -4.1988663019059459e+01 -3.5978667953773837e+01 9.1890089643658968e-01 2.4162988197890058e+00 4.1152344320637326e+01 2.4408126936048262e+00 -1.8979285006852365e+01 1.4625838528726955e+01 -1.1001747915892702e+02 -1.2864265478126683e+01 -4.4658172041466543e+01 -3.0443116904968117e+00 -2.2465257676200565e+00 6.0928837041976510e+02 -2.4334848449285857e+00 5.0820375259298160e+01 -4.9581814321846615e+01 2.8331023562731025e+02 1.5055423652851658e+02 1.2059388867667539e+02 1.1052165849975200e+01 2.5418243859241443e+01 -2.7667977794076990e+02 4.9076293331259038e+00 3.9381688768512433e+01 -3.9098703080079487e+00 -1.6630209145345412e+02 5.9824214940992547e+01 -9.4709190884352523e-01 -1.5423813434338176e+00 8.6627448631366222e-01 -6.5779763100038588e+02 -7.9285633415332235e-01 -3.8112695874537259e+00 6.4553106167650157e+01 -6.4500689569492859e+00 3.4708027834566138e+01 -8.2874349489619078e+01 -1.3757805646931086e+01 -1.0690681438796924e+01 1.1271271846619548e+02 -7.2379662236260591e+00 -3.6527137086703917e+01 -4.3456941536548136e+01 
      </Row>
      <Row Index="31">
        -1.4093957186750772e+00 1.1374969560684076e+02 -1.0824357991080915e+03 -6.8141489599019494e+00 -4.7060437365255453e+01 2.1138475382101820e+00 -8.5152222696499621e+01 -3.8495725028638645e+00 1.2241472047264025e+01 9.3414634221451394e+00 -9.8442429584944875e+01 -3.1662873035559414e+01 1.9187338872861623e+00 -2.7362987630366398e+00 7.5900355196000362e+00 -4.7185637462299894e+01 1.0868600427208719e+00 1.0086804078640057e+00 -4.1433259430016740e+00 1.0957196327103247e+02 -7.6358569615977444e+01 -1.3165682234492868e+00 -1.0193802804493487e+01 -1.6021828778131706e+01 1.1335117763844303e+02 1.5960722254264681e+00 1.2540002213654683e+01 7.2204852120108916e+00 -1.1679782533013895e+02 1.0691229316164463e+03 1.1052165848536115e+01 6.1510583518837656e+01 -1.9051083547422678e+00 1.3545703151975204e+00 -7.1830828910122797e+00 -2.3620631884403629e+01 2.1044500036767753e+00 -8.4905859925538465e+00 1.2439818096123119e+02 8.7510797740130375e-01 -1.5979165072498622e+00 -8.5369796035792955e+00 -1.2903082161568483e+02 -9.5273535730074410e-01 -1.2817324071876515e+00 -5.2780831772207840e+01 -1.4545980309194661e+02 6.0136766232206831e+01 1.7155756076298196e+00 -1.4363857027224688e+02 2.2731966667733154e+01 7.6926466306504580e+01 -1.1012265553277956e+01 -4.9797469029471557e+00 2.5707166058769712e+01 
      </Row>
      <Row Index="32">
        9.4218745040024032e-02 -1.4960307018595631e+03 1.2531432914127854e+03 -1.4499066602134207e+01 5.6863656298889538e+00 -2.6107586293909100e+02 9.7083107967566502e+02 -5.9666098456127656e+00 -5.8130955561944461e+01 1.8331267175600496e+00 1.0413116512731576e+03 -1.1368561961195155e+02 -1.2822512589791131e+01 -3.6901034039578349e+00 -3.1054667590352892e+01 -1.6785503642598087e+02 2.4193627247851737e+00 -1.6284549002958556e+01 -4.9761389700236407e+00 -9.7963265798202337e+02 -3.3334587150433663e+01 -2.0584084629838912e+00 6.0482864142957489e+00 -1.3708622013078639e+01 4.1343030950240222e+02 -7.3407854856654922e+00 3.1516727115063361e+01 -3.3981534686734278e+00 1.3704541692124658e+03 -1.1715862190337241e+03 2.5418243863466131e+01 -1.9051083533692204e+00 3.3253579423788437e+02 -1.1746395375491825e+03 1.3378439502868105e+01 4.7571898924395327e+01 3.4279178774883468e+00 -1.1532994333343363e+03 -1.1636652586706958e+02 -2.4134464154452244e+00 -2.4242557428350313e+00 2.2989359858097497e+01 -7.9624005625520886e+02 -1.4976566385680892e+00 -9.7337584339082284e-01 -4.8875034950845304e+00 6.4188810585962392e+02 -9.2810351227499552e+01 -3.0097783350961492e+01 5.5466893222799882e+01 -1.5757074322179952e+02 -1.1140527137925517e+02 3.6752238016310912e+00 -2.7706999523620993e+01 -3.6483925165033867e+02 
      </Row>
      <Row Index="33">
        -2.8018029765720712e+02 5.1025883286911994e+03 4.3028409357185417e+04 -5.4408704119032336e+00 1.6817249538915212e+02 6.6477091479753472e+02 -9.9405214009065705e+04 -6.4077432588615920e+01 -4.3620645397735643e+01 -2.7819602907629064e+02 -1.1123235690486617e+03 -6.5310413243039511e+02 1.1367065668882606e+02 1.2882461268145926e+02 7.6013646385516040e+01 1.4369439964128367e+04 -7.9811308618285693e+01 -7.7470762416493380e+02 3.1018076458118230e+01 2.0578245185639244e+03 -2.6054054731792196e+04 3.1838085416906415e+02 -3.8495002093120343e+02 3.8905338497884804e+02 -1.1339547493790506e+05 1.6097649159994035e+02 -1.0230626815529390e+03 4.8763174305495113e+02 -6.7486010206486098e+03 -9.7215763235009235e+03 -2.7667977800537119e+02 1.3545699968152576e+00 -1.1746395366528450e+03 2.0713567414185673e+05 5.9704527137291734e+00 1.0241433354546239e+03 2.3270069745656258e+01 1.1192366572209321e+03 1.2835368591158826e+03 -2.4580589696413710e+01 6.0118009528041028e+01 2.9539854445231327e+01 1.2501812318415000e+05 -2.5572278305947329e+01 7.7050631506864619e+01 7.1968677895923611e+02 -1.1267891937102077e+03 -7.9569274376089634e+03 2.1347738021122336e+02 6.0241986688133966e+02 -1.2731006183170825e+02 -2.8918739065051581e+04 1.0161696780084390e+02 4.0514802948202851e+02 1.9341540421109181e+04 
      </Row>
      <Row Index="34">
        4.3963061858539776e+00 -4.0114039067366321e+00 4.9929158794554644e+02 -2.8327715536738616e+00 6.7090490053917957e+00 -1.3078395638173646e+01 -1.0919223102346442e+02 -3.4348860580291060e+01 -1.3794435753539034e+00 3.2088098508943004e+00 1.2329791530093644e+01 9.7299036878504694e+01 -1.8489526244743431e+00 -2.7064255649988667e-01 -3.4722391205752388e+00 -3.3468996767041403e+01 -2.4803460220756790e+00 -4.4035047642802283e-01 8.1982725172990989e-01 2.4532676209861165e+01 3.0881181844595397e+02 -1.9118867000470683e+00 -7.7620606361023436e-01 2.1052641888665136e+00 1.6308605789154564e+02 -1.2820668212541960e+01 7.6944602344318156e+00 -9.2345009817514683e+00 -6.0797866432458250e+00 -9.7025937515523469e+02 4.9076293330989689e+00 -7.1830828901362747e+00 1.3378439501110677e+01 5.9704527285505264e+00 4.2470535579354696e+01 -5.4240489353512897e+00 9.0179748130768345e-01 -8.9320361520682340e+01 5.6397971105841521e+01 1.4718715481245073e-01 6.7941782976876405e-02 -1.5770309515450167e+00 -2.4473622274872665e+02 -1.1153568562914842e+00 -7.2834579542495259e-01 -4.0003259074580910e+00 -5.6565351824412616e+01 1.7251300721637818e+01 -5.0411677462206699e+00 2.8997299656501003e+01 -1.6483505431112533e+01 8.2554573521637153e+01 -7.9022899563652267e+00 -2.9415265949813119e+00 2.6562907866751573e+01 
      </Row>
      <Row Index="35">
        -4.2829709828205708e+01 -3.4609680813556406e+02 5.0396949266806200e+02 -3.1595990981264315e+01 1.6445489023625683e+01 -4.8216124217864596e+01 -9.1633955356530601e+02 2.7525368760313597e+01 -4.8410259920015983e+02 4.6106567776202700e-01 2.8788630461105095e+02 3.2479994550935771e+01 -3.0297583040362440e+01 4.0850778099827636e+00 -4.3608937636537348e+00 -1.4506534627475230e+02 -1.5966883237040577e+00 -9.2541278534637286e+01 2.3397148011368891e+01 -2.3783599227352352e+02 -2.8342247224879452e+02 3.3241286036467052e+01 1.0321330764180541e+00 7.0138755638931229e+00 -8.9847033962594060e+02 -9.5780640944043398e+00 -1.2689952080958255e+02 3.4058598548965406e+01 2.1777134608656161e+02 5.9454615330105526e+02 3.9381688769796710e+01 -2.3620631888889104e+01 4.7571898936573064e+01 1.0241433350220491e+03 -5.4240489342359410e+00 7.3024927095531598e+02 -9.5471317491469136e+00 -1.7928445993078140e+02 -4.9880526340142114e+02 -7.1089928828731024e+00 -8.7460471339125201e-01 1.2110221104871712e+01 1.8269559053289445e+03 1.8381800576573966e+00 -1.0109280241574808e+01 3.8162071868576248e+00 2.8992855352453421e+02 -1.3548084629915044e+02 -9.0850521403875959e+01 4.3013460045300484e+01 -1.7750853965055040e+01 -5.2318527669710761e+02 2.5307832031240963e+01 -7.4126476758576871e+01 1.0247632784948536e+02 
      </Row>
      <Row Index="36">
        -2.1522148266742742e+00 -2.0580896990564725e+01 -5.4382285773347007e+01 1.0125305984104536e+00 -2.3884644376733362e+00 -2.8965124831123070e+00 2.9817269437150287e+01 -2.0356225366838885e+00 -3.6372683221325275e+00 5.4742548396288093e-01 1.7570929380867710e+01 -1.8257226429252114e+01 1.0661680341995527e+00 -7.7097221567096597e-01 -3.0211012830150707e-01 -5.5766503594546748e+00 -2.1200597556280343e-01 2.1004243483365030e+00 -6.2781594956089855e+00 -2.7919889672371028e+00 1.5731756238828936e+01 2.8390542436212383e+00 3.3875297406630089e-01 -1.8732414304540157e+00 5.8838358158726592e+01 4.8807789673600155e-01 1.9575603840863060e+01 7.9579261583396512e+00 -1.7593445351294577e+00 -2.6161709152567489e+01 -3.9098703078090127e+00 2.1044500038549296e+00 3.4279178774231127e+00 2.3270069705682999e+01 9.0179748131209081e-01 -9.5471317496773853e+00 3.2566677942927180e+00 -7.9336183024172318e+00 3.6640739554608430e+01 3.7991194471057943e-01 -1.2330496403126415e-01 -6.7403696989206319e-01 -1.7964668027663089e+02 -3.6515025904577803e-01 -5.7075450204378431e-01 -1.8924040522426328e+01 2.2276512487176205e+01 8.3864909509413010e+00 1.9653009885931092e+00 -9.4532160094873134e+00 -6.6044332329015631e-02 2.4568112225040174e+01 -1.6543926360451380e+00 -8.0713817967987040e+00 -3.5186495634961481e+01 
      </Row>
      <Row Index="37">
        -4.7456072813935918e+01 1.1434709950099699e+04 -4.9284389521804187e+03 8.9391802668642868e+01 -2.1186538364592082e+01 9.2135756844601042e+02 -3.2741043642340082e+02 1.4291710395073642e+02 2.2624208532929515e+02 -3.6353075468685944e+01 -3.9524882437839988e+03 6.1861137555302412e+02 4.5139135471985355e+01 -1.6292637063781058e+01 -2.5381240199518288e+01 8.7567742954977439e+02 -5.8539313747896813e+00 7.5489620870219369e+01 2.7816359961672561e+01 4.9044800068276527e+03 -1.4686934585831377e+03 1.5719955124810497e+01 9.3422467744749369e+00 2.6116209557058937e+01 -1.5469312559939735e+03 1.0719697188618738e+01 -1.7013089998393446e+02 4.9300534690694775e+01 -1.1751020285116829e+04 7.0720096634359033e+03 -1.6630209143522222e+02 -8.4905860241403275e+00 -1.1532994332535836e+03 1.1192366534904140e+03 -8.9320361515457307e+01 -1.7928445992897281e+02 -7.9336183015040920e+00 1.2038740383007618e+04 1.0649011609525519e+02 1.2238279794196687e+01 1.2565672520788281e+01 -1.5304021404103736e+01 1.7200506486797199e+03 7.2458277475308073e+00 1.5247417930982380e+01 1.3889900030892602e+02 3.8380712214832806e+03 1.4247270355644014e+02 1.2060113364318207e+02 -1.5379159743512201e+02 8.7825786983944431e+02 -2.8026584890417444e+03 9.4937834163024036e+01 1.4142733991576006e+02 -2.1205824754012865e+03 
      </Row>
      <Row Index="38">
        3.3606520310254751e+01 6.2842651727164048e+02 -1.3299859042725844e+04 -6.3171272719437582e+01 -1.1237140080084697e+02 2.2649290359849300e+02 1.1076937932280089e+02 -4.7428174036557039e+02 4.2105376917194008e+02 -4.4438443695418862e+01 -6.2344024662015727e+02 2.5544887616184205e+03 -1.0218963216676400e+02 7.4269246243304679e+00 5.6372224322458351e+00 -1.5397104715235164e+03 3.4302253716699397e+01 -7.3311771459993906e+01 -1.2529811972127391e+02 -6.6589730379491812e+00 3.3657360366366420e+03 -5.2692665917833736e+01 -2.0773515905831932e+01 -8.0196997095818006e+01 4.0622704417330210e+03 -2.1725989050718454e+01 1.5981424839265105e+02 7.7034339952716621e+01 2.4212796867042198e+02 -3.4184713818717391e+03 5.9824214942933395e+01 1.2439818098355826e+02 -1.1636652591496249e+02 1.2835368595873642e+03 5.6397971101869530e+01 -4.9880526341816278e+02 3.6640739552802906e+01 1.0649011606310989e+02 9.5014070527577569e+03 9.2316554019283199e+00 9.4593126226315394e-01 -2.7056442320001189e+01 -1.0668209062084634e+04 -5.6035452396868010e+01 -3.2156515334033493e+01 -7.3415148665631705e+01 -6.6646093427028245e+02 2.1767106868089709e+03 -1.7547063531489769e+02 -4.1379611473133951e+02 1.1524467966932336e+02 2.8385530021888781e+03 -5.6826577606055776e+02 -1.6512948768254773e+01 -7.6083108862501854e+02 
      </Row>
      <Row Index="39">
        2.1340772395315560e-01 2.1731658095475154e+01 -3.6875423633584198e+01 6.5408713744681202e-01 -7.5729198199899117e-01 1.9573060120839101e+00 1.5351934418469076e+01 -7.2645055703612815e-01 5.4674141966843237e+00 6.8931985500365234e-01 -1.0194804822985446e+01 -3.4225739681633627e-01 5.5076278949472446e-01 -1.9958459793528194e-01 4.4996888936134827e-01 1.0509283708950260e+01 -3.8035240607687371e-02 4.8455579964650752e-01 1.3451045085132973e-01 1.5399297632297760e+01 -4.0242583674221617e+00 -4.5874553352610609e-01 -1.0452920446488505e-01 -1.8945253719374477e-01 1.0518386760005363e+01 1.3527946093664234e-01 -8.9326231247122623e-01 -4.3655326417041546e-01 -2.7144812531250977e+01 2.5403584127662224e+01 -9.4709190888986805e-01 8.7510797740435120e-01 -2.4134464155026656e+00 -2.4580589685119090e+01 1.4718715478076061e-01 -7.1089928827236655e+00 3.7991194470493217e-01 1.2238279795299128e+01 9.2316554012305243e+00 4.2695650226517556e-01 -6.1086977780017634e-02 -3.0681416421761309e-01 -6.2898849805459474e+00 -8.1587099748466216e-02 -6.9031750557239091e-02 -1.4753916075806945e+00 -6.7130753076294303e+00 2.8932462792172435e+00 1.1836656207112162e+00 -3.2424305829240150e+00 1.8067319822995245e+00 4.3467404868639425e+00 -7.9020427299775342e-01 2.0833942003072963e+00 1.7137526529717328e+00 
      </Row>
      <Row Index="40">
        -1.8043607311690648e+00 1.1577338747306385e+01 7.6290583457576417e+00 6.0025977022174271e-01 8.2730363168765253e-01 1.8444324784961257e+00 -4.0704095439746538e+01 9.7109435807114153e-01 1.7852680537454440e+00 -1.3545042839740686e+00 9.8449445039776720e+00 7.2720020001764851e+00 6.7776369453445895e-02 2.5321320867422692e-01 -3.3796243912090063e-01 -2.1747606958051620e+00 1.5190776779579807e-02 -2.9922784693960125e-01 2.2061659440074877e-02 -8.9915478605399812e+00 6.9337686075262148e+00 3.1784698279648915e-01 3.1662788814623699e-04 1.2692197883150449e+00 -1.0925665438944776e+01 -1.9466857285055994e-01 -2.4577037374769124e+00 1.8127956690987861e+00 -1.3953620728808119e+01 -1.3051062966019824e+01 -1.5423813433245348e+00 -1.5979165073064139e+00 -2.4242557426344362e+00 6.0118009502786308e+01 6.7941783028587110e-02 -8.7460471363258341e-01 -1.2330496402788166e-01 1.2565672518836131e+01 9.4593126313117359e-01 -6.1086977781757895e-02 6.1120270134054000e-01 8.8649929425437413e-01 -7.8482917413244859e+00 8.1076650628891300e-02 1.8550549615629963e-01 5.7066160803722878e+00 2.1890433551748625e+01 2.8878462605302353e+00 7.8787846017599494e-01 4.3103041082967470e+00 2.2068982368382950e-02 -1.0289837553597293e+01 1.2533481821040198e+00 1.8065506447487181e+00 -9.6102543261347080e+00 
      </Row>
      <Row Index="41">
        -4.1645174887581469e+00 -1.1835577939227369e+02 2.4560223028031464e+02 -5.1176184959500404e-01 6.6334239070249135e+00 -1.9383793784323302e+01 -4.3624785845663610e+00 5.1404738656939344e+00 -5.8816554470891447e+00 -1.6545532923586190e+00 1.7221106853075889e+02 1.2539223968165970e+01 -6.3042147264376069e-01 6.3283085197727473e-01 -6.2285622467612143e+00 3.2786724853288433e+01 4.8117155547126345e-01 -6.1488753476388638e+00 2.3921468748537862e+00 -1.7336676714350324e+02 -1.0492831297998094e+01 9.2269633044496757e-02 1.0915633626590937e+00 8.1526595847896601e+00 -7.8283033501398336e+01 -1.7814174833915786e+00 -9.5860954089544634e+00 1.6643669814956255e+00 7.5270266016526875e+01 -2.2334783542186659e+02 8.6627448762136972e-01 -8.5369796046129629e+00 2.2989359861546291e+01 2.9539854144606949e+01 -1.5770309509860567e+00 1.2110221102652613e+01 -6.7403696978767724e-01 -1.5304021418822238e+01 -2.7056442308409828e+01 -3.0681416425026026e-01 8.8649929429496310e-01 9.1913619238965119e+00 1.0783515505613904e+02 8.2744903493851663e-02 4.2391987094325834e-01 1.4225881748175087e+01 2.4372540658462384e+02 -1.5402587197609634e+01 -1.5761538578438450e+00 2.7087878636162174e+01 -1.4720109803691969e+01 -1.4804061239841570e+02 3.6145300342339510e+00 4.2765203483630501e+00 -8.9366670412183893e+01 
      </Row>
      <Row Index="42">
        -1.6174808185514485e+02 4.7116538019031286e+03 3.1115076378609054e+04 4.2517301718192175e+02 1.6093067624424293e+02 2.4001895802125364e+02 -4.1639987370721879e+04 2.6332276040583383e+02 3.4239654087650706e+02 2.7471362281452116e+02 -8.4689418486058712e+03 -4.5860536108426750e+03 3.6960325966747769e+02 3.8976636647508712e+01 -6.4565716326748952e+02 3.4771411713661859e+04 -7.4055153486493509e+01 -6.0118288124678656e+01 8.6706761725785327e+02 6.9189764814898372e+03 -5.7675757914873364e+04 3.5093984000122146e+02 -8.8674881648301835e+01 1.1158302165109781e+03 -1.4023976766064219e+05 3.1088286680507008e+02 -3.1995358483931341e+03 -2.5453835630809408e+01 -2.5243302671611309e+02 5.6695577860551886e+04 -6.5779763033255949e+02 -1.2903082005335955e+02 -7.9624005940451752e+02 1.2501812306896139e+05 -2.4473622252374480e+02 1.8269559021954265e+03 -1.7964668029175243e+02 1.7200506293555081e+03 -1.0668209052515049e+04 -6.2898849274839677e+00 -7.8482918647842439e+00 1.0783515358875525e+02 2.6883756202290603e+05 2.9503492157592518e+01 3.0756688100535212e+02 -1.1672525885165378e+03 -1.0926352804230432e+04 -1.3247098555295815e+04 8.2928567944136648e+02 2.4456515629327623e+02 -1.4523399583849291e+03 1.1073542192690204e+05 4.7697154729115937e+02 1.2432442707630689e+03 -1.1750723953304051e+05 
      </Row>
      <Row Index="43">
        6.6181290338906751e-01 8.7471630522966279e+00 5.8093122677252907e+01 7.7186362015595034e-01 6.3473700942545053e-01 1.1579650109806598e+00 1.5948992722723766e+01 4.2507870493764166e+00 -2.5482640238125107e+00 -3.5234805006803188e-01 -7.2820441170448476e+00 -1.4593361962796109e+01 6.3913951026867188e-01 6.3285873213403399e-02 3.0377622822221895e-02 8.8781291262913271e+00 -2.5295006007618248e-01 9.6605860131811028e-01 7.0367075366024068e-01 7.1091989259674619e+00 -1.4006217799874131e+01 1.7226651336701515e-01 2.4266981008214122e-01 6.0701721164294042e-01 -7.1725193077822773e+00 4.0209680692770178e-01 7.9292031294177834e-02 -1.1706611655086512e+00 -5.2324445692544259e+00 2.8509520391406301e+01 -7.9285633421886448e-01 -9.5273535733099157e-01 -1.4976566386065215e+00 -2.5572278292318472e+01 -1.1153568562917462e+00 1.8381800578023264e+00 -3.6515025904980902e-01 7.2458277475924371e+00 -5.6035452397583654e+01 -8.1587099749350092e-02 8.1076650627348604e-02 8.2744903507587189e-02 2.9503492122174912e+01 6.8696939652644606e-01 2.6075835012901161e-01 3.0352245223960641e+00 -6.7062346113327918e+00 -8.7216910675993251e+00 1.2854281254562852e+00 2.8263242594187381e+00 1.6217191330284564e-01 -4.5213918202706509e+00 4.1534175547933927e+00 6.2527844855591042e-02 6.4823948357531558e+00 
      </Row>
      <Row Index="44">
        -1.4940726608090840e+00 3.3382133330243960e+01 7.2874601062909790e+01 2.6319551628695841e+00 9.1437124712077678e-01 1.2661241090404118e-02 -6.2186299469600868e+01 7.3126307271010660e-01 1.8143369741534926e+01 5.7103353688107106e-01 -8.2564638081962585e+00 -2.1707988576055641e+01 1.2020947134836639e+00 3.0265496348462761e-03 -1.5337437108396728e+00 8.3495813458473322e+01 2.6702987229715802e-01 -2.8829692893018546e+00 6.9803265786854922e+00 -3.8875179501787898e+00 -9.9326029896786167e+01 -4.0828287268405816e-02 2.8100322335530870e-01 1.3600342254790831e+00 -1.0936365541862595e+02 1.1630513008071830e+00 -2.4927997589388930e+01 -2.8776959456021061e+00 -1.4240706611501082e+01 6.2624310860591791e+01 -3.8112695875531770e+00 -1.2817324076434917e+00 -9.7337584240077035e-01 7.7050631512390282e+01 -7.2834579540719702e-01 -1.0109280240990993e+01 -5.7075450200142974e-01 1.5247417933911059e+01 -3.2156515334872950e+01 -6.9031750572140754e-02 1.8550549617993239e-01 4.2391987125432928e-01 3.0756688118747491e+02 2.6075835011430837e-01 5.5199430959351110e+00 9.7276737701821023e+00 -2.2438946770836754e+00 -1.5365494205435503e+01 3.9790698378854303e+00 3.6853933125475957e+00 -1.3228354884033853e+00 -4.9988587539260934e+01 1.2664741678966940e+00 1.5555874300565890e+01 3.1461455479888208e+01 
      </Row>
      <Row Index="45">
        4.0750084444115430e+01 4.3438656557881768e+02 8.6594715839278570e+02 -2.9815054035115750e+01 4.2335759539593191e+01 1.1008871325793308e+01 -6.6185166675874302e+02 3.5091739825440868e+01 8.4689916668373257e+01 -2.7838297006897790e+01 -5.1536332243429570e+01 1.6490401258553538e+02 -3.2721350417049678e+01 6.8268301077087870e+00 9.6382791136005608e+00 -1.1089372304909921e+02 -7.0795472351801436e-01 -6.0603903093699728e+01 6.1397527365520176e+01 -2.5153051588684320e+01 1.0887781632196294e+02 -4.4023202689737161e+01 7.5791805988409955e-01 3.2380020057014463e+00 7.1437611680665896e+02 -2.8862459342960847e+00 -1.4733095217971930e+02 -1.1267966387558781e+02 -3.4508031095463230e+02 -9.3576654254460016e+02 6.4553106168522817e+01 -5.2780831766792225e+01 -4.8875035103269511e+00 7.1968677903669277e+02 -4.0003259066736092e+00 3.8162071792464047e+00 -1.8924040523050039e+01 1.3889900021496459e+02 -7.3415148658636724e+01 -1.4753916074070810e+00 5.7066160798560315e+00 1.4225881742295520e+01 -1.1672525897171329e+03 3.0352245226249090e+00 9.7276737702718385e+00 3.5459663649761296e+02 -4.3644310692803444e+01 4.2869526697758431e+01 -6.4300561447098488e+01 1.7196595575898661e+02 2.0121055600856451e+01 3.4138347200968224e+02 4.0059007897529241e+01 8.0936592370856033e+01 -1.6281670786637147e+02 
      </Row>
      <Row Index="46">
        -2.3545158605224060e+02 -7.8979208070635796e+03 7.5216677186661982e+03 1.7273902709805952e+01 1.4302467669804651e+02 -4.6067577844692278e+02 -1.9540765708747640e+03 2.0331746945972554e+01 -2.8130459846369195e+02 2.1662675612836040e+00 1.1256497969442979e+04 -8.2106989513186272e+02 -3.0115718376922814e+01 2.8055494832457043e+01 -7.9438556933520886e+01 -1.7300934445831517e+03 7.5995868821009935e+00 -1.0614328155863041e+02 -7.7587600144946919e+01 -9.4023023279570043e+03 4.9492375894450051e+03 -1.3286030774838082e+01 -2.1309505706567904e+01 4.1047976529829612e+01 5.0604542269274680e+03 -4.3872185228930903e+01 -1.2012247032802406e+01 2.9368024485750391e+02 2.9750100783307571e+03 -1.3674076447681211e+04 -6.4500688382693170e+00 -1.4545980313902632e+02 6.4188810604198807e+02 -1.1267892185732198e+03 -5.6565351780413039e+01 2.8992855330117754e+02 2.2276512489891218e+01 3.8380712200123980e+03 -6.6646093328001007e+02 -6.7130753090333428e+00 2.1890433553059552e+01 2.4372540655612926e+02 -1.0926352703721288e+04 -6.7062346107850317e+00 -2.2438947011702055e+00 -4.3644310186550229e+01 2.0699630208320159e+04 1.4633763579520746e+02 -6.7933654005701101e+01 6.2290609439112870e+02 -1.8416423425175668e+02 -7.8808571027806247e+03 -9.8986305104730491e+01 1.0762512816945673e+01 -1.1784331999724342e+04 
      </Row>
      <Row Index="47">
        1.3806637909876258e+00 3.9554042062751250e+02 -6.3953842052484943e+03 -2.1640342073158649e+01 -5.8793612969095918e+01 1.0102675701488999e+02 1.2581862615909959e+03 -8.0494340605688194e+01 5.0462055872231758e+01 -1.3300126767218661e+01 2.7835590241753380e+01 1.2734812410393060e+03 -3.4606515021684345e+01 4.1983409016736459e+00 3.1791863341320095e+01 -1.8243480181284285e+03 5.0256088930636906e+00 6.2353137671034347e+00 -3.6943489374598698e+01 -3.7880817730125273e+01 4.4349696565779486e+03 -3.2249202259647063e+01 -1.0231367930104987e+01 -3.7172521430583856e+01 9.3438845203388100e+03 -2.6487981691676396e+01 1.1290265635404825e+02 1.0734409555025834e+01 -3.9805357559530239e+02 -2.9908491102274852e+03 3.4708027837384293e+01 6.0136766255793134e+01 -9.2810351293225722e+01 -7.9569274370455860e+03 1.7251300720753420e+01 -1.3548084632392215e+02 8.3864909473437628e+00 1.4247270333408869e+02 2.1767106867995294e+03 2.8932462800276681e+00 2.8878462589683167e+00 -1.5402587217225619e+01 -1.3247098566530929e+04 -8.7216910664728502e+00 -1.5365494203885216e+01 4.2869526699357039e+01 1.4633763405324808e+02 1.5286292426794346e+03 -6.0731921614462010e+01 -1.8142272054605814e+02 1.0717799985012670e+02 2.5174502225646261e+03 -1.2513721579739668e+02 -2.6622790587812233e+01 -1.2490483935352945e+03 
      </Row>
      <Row Index="48">
        -1.9494299148230859e+01 1.7313334825877610e+02 2.4047791502274708e+02 4.2990825851693145e+01 -1.8947165919099325e+00 1.7907528776604281e+01 -2.1760387885317527e+01 1.2119463621226373e+01 7.3594165498458835e+01 -3.7405528524271348e+00 -1.0839696908151018e+02 4.7100138616970071e+00 3.8398748055575069e+01 -1.0508933810348822e+00 -1.3160769629969309e+00 6.7591849243228580e+01 -2.3077304582735678e+00 2.0986174269538424e+01 -1.2122394616541307e+01 1.1451227941546131e+02 -8.5360737790755707e+01 3.0636511806260955e+01 7.9300894657552989e-01 9.9075904343471848e+00 -5.8963458919769801e+02 2.9072768461692249e+00 -3.6132526128197306e+01 4.0697468656862185e+01 -1.6897104923858569e+02 1.1722372610313346e+02 -8.2874349490472326e+01 1.7155756058201312e+00 -3.0097783346586652e+01 2.1347738029686525e+02 -5.0411677465347395e+00 -9.0850521400416966e+01 1.9653009887726647e+00 1.2060113367463568e+02 -1.7547063532220773e+02 1.1836656206533100e+00 7.8787846031631270e-01 -1.5761538559244643e+00 8.2928567968188236e+02 1.2854281253820834e+00 3.9790698379743619e+00 -6.4300561449072219e+01 -6.7933653853974150e+01 -6.0731921624078581e+01 8.5123524106967480e+01 -1.3578415181559182e+01 2.3514881142318211e+00 -1.3885331300489193e+02 1.1369208821287160e+01 3.8639601839609554e+01 1.1550505612307057e+02 
      </Row>
      <Row Index="49">
        8.7911411717993033e+00 -4.7833011075104878e+02 3.6066516821024284e+03 1.1932044141970223e+01 1.1697073734282715e+02 -4.5525930997891194e+01 -2.7872316463352831e+02 4.9444949798934203e+00 -1.1836672325205939e+01 -2.4910197366130582e+01 5.2675129378122438e+02 1.0549416888700762e+02 -9.4912400990660899e+00 6.8928479029723349e+00 -1.5445793585960018e+01 4.8547811711297527e+01 -3.5631909207810963e+00 -6.8276883370094765e+00 1.8404343359297059e+01 -5.0570553402487712e+02 4.5874958084680117e+02 -5.8333261746107112e+00 1.8764604226626567e+01 3.3512630213844773e+01 -3.2770197273719282e+02 -9.9219437436508997e+00 -4.1237723836739271e+01 -3.3621458782686162e+01 3.8104142090412279e+02 -3.8015654973464525e+03 -1.3757805641923966e+01 -1.4363857027262864e+02 5.5466893227970445e+01 6.0241986579548166e+02 2.8997299659321641e+01 4.3013460031090965e+01 -9.4532160090317596e+00 -1.5379159753858869e+02 -4.1379611466209542e+02 -3.2424305829265423e+00 4.3103041081472888e+00 2.7087878632983681e+01 2.4456516139993050e+02 2.8263242593448883e+00 3.6853933111325698e+00 1.7196595577828026e+02 6.2290609424884144e+02 -1.8142272046689419e+02 -1.3578415187772059e+01 3.8513227508080479e+02 -6.8289768461559504e+01 -3.1268211289706710e+02 2.8368720080869025e+01 2.1966514705658028e+01 -1.9321469661968933e+02 
      </Row>
      <Row Index="50">
        -5.1542015302403854e+00 1.3663820627980458e+03 -9.9802805219884522e+02 6.6349097807434703e+00 -1.7353327720471071e+01 1.3017119721069059e+02 -1.9586295000058180e+02 6.3798542190145326e+00 1.8412811098696693e+01 -3.6052940244280953e+00 -5.4104837045504610e+02 2.9852515053498792e+00 6.2858977106870384e-01 -1.7863939487143625e+00 3.6679045958189135e+01 -2.6027967419740708e+02 7.6581043455485087e-01 7.6726993330153164e+00 -1.2465493117182831e+00 6.4789748505917305e+02 2.7916826008320947e+02 -4.6128802309874999e+00 -4.9173381158479774e+00 -3.8480271339859996e+01 8.7422266310630960e+02 3.1465881361268657e+00 2.2195959921965880e-01 5.7868587118001180e+00 -1.4832553203194439e+03 6.1170849978780359e+02 -1.0690681439308008e+01 2.2731966670717313e+01 -1.5757074323179336e+02 -1.2731006151008023e+02 -1.6483505431613310e+01 -1.7750853964910846e+01 -6.6044332909625414e-02 8.7825786982625630e+02 1.1524467965477209e+02 1.8067319823931376e+00 2.2068982182294583e-02 -1.4720109805709695e+01 -1.4523399612235253e+03 1.6217191346416371e-01 -1.3228354879417843e+00 2.0121055597123984e+01 -1.8416423446190626e+02 1.0717799983481956e+02 2.3514881165748696e+00 -6.8289768471355472e+01 1.6601884038694067e+02 3.6429270461366889e+02 -8.0730564210173412e+00 7.7829477543792791e+00 -2.3073322917498987e+02 
      </Row>
      <Row Index="51">
        1.7232637494682422e+02 2.3025701998770237e+03 -9.9626252314355224e+03 -7.4348390850354917e+01 -9.2658065082701796e+01 1.1533451569659519e+02 1.3102013261979911e+04 -7.0786229708231986e+01 1.1120139569928870e+02 -6.3793485751009030e+01 -3.4692207155376673e+03 1.4963532854057848e+03 -6.6597259367234074e+01 -2.1318306578788906e+01 1.8612777695944533e+02 -8.7623092381190509e+03 5.9520471466239542e+00 4.5043881751596928e+01 -1.1088973974814871e+02 2.6641345324218273e+03 8.0783865343872458e+03 -6.6772592157707550e+01 3.8799086080278357e+01 -2.3683951758872718e+02 3.0858289590182481e+04 -3.6768482060171664e+01 5.7863747504653293e+02 -1.8244459932433529e+02 -6.3217858705669641e+02 -4.1034940670297947e+03 1.1271272098872578e+02 7.6926472783110512e+01 -1.1140528533514589e+02 -2.8918739451465197e+04 8.2554574320965912e+01 -5.2318528889300069e+02 2.4568111989323370e+01 -2.8026585688287742e+03 2.8385530356816016e+03 4.3467407073703725e+00 -1.0289838057678935e+01 -1.4804061846093373e+02 1.1073542144730594e+05 -4.5213916447100928e+00 -4.9988588107447868e+01 3.4138347658998100e+02 -7.8808575364474564e+03 2.5174502625220921e+03 -1.3885331346670500e+02 -3.1268213419870153e+02 3.6429271525293007e+02 4.8772575306979491e+05 -4.9925519919255748e+01 -2.0677693163091317e+02 -4.7668588861682679e+05 
      </Row>
      <Row Index="52">
        6.3704870837213932e+00 1.9970327518319027e+02 6.7379519822948146e+02 3.3821955345914603e+00 5.4896371926108696e+00 -1.5377556365417519e+01 7.7339735085509290e+01 4.9829074850664654e+01 -2.2519167252442202e+01 -5.5462700185857390e+00 -9.5618953983342180e+01 -1.2144292096580693e+02 6.0576716739972696e+00 -3.6610201482382365e-01 -6.1328404761613342e+00 6.9190523554577794e+01 -3.7404762385881156e+00 2.7057720065866988e+00 7.1351834745992306e+00 1.1405915829885726e+02 -3.3446357003256219e+02 6.5115271958123895e+00 3.3178133213280034e+00 1.1708707708350204e+01 -2.7718017103936779e+02 1.7140682402461493e+00 -2.7087496750955715e+00 -1.2852612074040351e+01 -1.6859683223756565e+02 5.4248715789300684e+02 -7.2379662243584875e+00 -1.1012265553540164e+01 3.6752238016853767e+00 1.0161696793525243e+02 -7.9022899564249087e+00 2.5307832032885656e+01 -1.6543926360246966e+00 9.4937834166393685e+01 -5.6826577606905869e+02 -7.9020427300977059e-01 1.2533481820855850e+00 3.6145300344793085e+00 4.7697154699662485e+02 4.1534175547882093e+00 1.2664741680083378e+00 4.0059007894581036e+01 -9.8986305096674428e+01 -1.2513721580946013e+02 1.1369208822067943e+01 2.8368720081641676e+01 -8.0730564225678236e+00 -4.9925521467657745e+01 5.7366617230281406e+01 -2.5664591093252511e+00 6.8764087558964135e+01 
      </Row>
      <Row Index="53">
        -7.7605956014412687e+00 2.3602900281463008e+02 1.9527173131741733e+02 2.4214475525790164e+01 6.7447138102402278e+00 2.2769941282223527e+01 -3.9349072219414029e+02 -6.4955689941018591e-01 1.4806473004917180e+02 -1.7086344116285721e+00 -6.3068146626692396e+01 7.0121912316998532e+01 1.3398691031762539e+01 2.6354451623237196e-01 -4.8337942221223784e-02 2.1225101625860475e+02 -3.3183477181256649e-01 -2.9931641744267608e+01 3.5912599134976368e+01 3.6170163362785388e+00 -2.2212463241224299e+02 -4.4175319366870980e-01 -3.9656011531013196e+00 7.4634206371334244e+00 -5.4390126882342975e+02 1.3442415209683531e+00 -1.9993223222501211e+02 -1.6584958102924162e+01 -2.0082656326732285e+02 1.1319215157879910e+01 -3.6527137087105913e+01 -4.9797469046431075e+00 -2.7706999520725617e+01 4.0514802952781724e+02 -2.9415265948923377e+00 -7.4126476756344033e+01 -8.0713817967349257e+00 1.4142733992144809e+02 -1.6512948773181336e+01 2.0833942002533465e+00 1.8065506448160638e+00 4.2765203492699104e+00 1.2432442714982390e+03 6.2527844822093392e-02 1.5555874300643699e+01 8.0936592370872347e+01 1.0762512876323619e+01 -2.6622790596882396e+01 3.8639601839425779e+01 2.1966514710591575e+01 7.7829477524550654e+00 -2.0677692952192649e+02 -2.5664591093871705e+00 1.1935001046544187e+02 1.1797371324338849e+02 
      </Row>
      <Row Index="54">
        8.7376878379203845e+01 3.9075440177023411e+03 -1.9707035629078746e+02 2.1431971491023432e+01 -2.2669444251150708e+01 2.4408959467138629e+02 -8.4400336965238675e+03 -1.5685249698814005e+01 1.4916234912921209e+02 3.6924455931480225e+01 -6.5379775235205889e+03 3.3187739614024758e+02 5.1179844517318998e+01 -1.5074432400288060e+00 -8.7965258685871959e+01 7.9262307523675263e+03 -1.1288734050234780e+01 5.5035138647072017e+01 1.3564776553679258e+02 5.5011891982555389e+03 -7.3884516003739554e+03 4.1692675095968298e+01 -7.8645695985178463e+00 1.6050340242194943e+02 -2.3930684435764793e+04 4.3435885790735483e+01 -3.5072857225959888e+02 -1.3437222463082435e+02 -8.8792896823585033e+02 1.0453414883370511e+04 -4.3456944166275207e+01 2.5707159664489154e+01 -3.6483923796936870e+02 1.9341540831455961e+04 2.6562907026265748e+01 1.0247634020991973e+02 -3.5186495406273025e+01 -2.1205823946141172e+03 -7.6083112300955690e+02 1.7137524350969215e+00 -9.6102538259838184e+00 -8.9366664355081411e+01 -1.1750723916278034e+05 6.4823946611213614e+00 3.1461456071991051e+01 -1.6281671292509418e+02 -1.1784331568796872e+04 -1.2490484351046616e+03 1.1550505674129454e+02 -1.9321467557942015e+02 -2.3073323998347769e+02 -4.7668588907655847e+05 6.8764086033523199e+01 1.1797371541638859e+02 4.8616057503822993e+05 
      </Row>
    </InverseHessian>
  </Weights>
</MethodSetup>
